{"learner":{"attributes":{"best_iteration":"709","best_score":"58.51692095867997","scikit_learn":"{\"_estimator_type\": \"regressor\"}"},"feature_names":["characterNum_1_avg_getmmr","characterNum_2_avg_getmmr","characterNum_3_avg_getmmr","character_synergy_1","character_synergy_2","character_synergy_3","character_synergy_mean","characterNum_1","characterNum_2","characterNum_3","weaponCode_1","weaponCode_2","weaponCode_3","position_main_1","position_main_2","position_main_3","position_sub_1","position_sub_2","position_sub_3","main_melee_cnt","main_ranged_cnt","main_support_cnt","sub_bruiser_cnt","sub_assassin_cnt","sub_poke_cnt","sub_sustain_cnt","sub_util_cnt","sub_tank_cnt","sub_nuker_cnt"],"feature_types":["float","float","float","float","float","float","float","int","int","int","int","int","int","int","int","int","int","int","int","int","int","int","int","int","int","int","int","int","int"],"gradient_booster":{"model":{"gbtree_model_param":{"num_parallel_tree":"1","num_trees":"760"},"iteration_indptr":[0,1,2,3,4,5,6,7,8,9,10,11,12,13,14,15,16,17,18,19,20,21,22,23,24,25,26,27,28,29,30,31,32,33,34,35,36,37,38,39,40,41,42,43,44,45,46,47,48,49,50,51,52,53,54,55,56,57,58,59,60,61,62,63,64,65,66,67,68,69,70,71,72,73,74,75,76,77,78,79,80,81,82,83,84,85,86,87,88,89,90,91,92,93,94,95,96,97,98,99,100,101,102,103,104,105,106,107,108,109,110,111,112,113,114,115,116,117,118,119,120,121,122,123,124,125,126,127,128,129,130,131,132,133,134,135,136,137,138,139,140,141,142,143,144,145,146,147,148,149,150,151,152,153,154,155,156,157,158,159,160,161,162,163,164,165,166,167,168,169,170,171,172,173,174,175,176,177,178,179,180,181,182,183,184,185,186,187,188,189,190,191,192,193,194,195,196,197,198,199,200,201,202,203,204,205,206,207,208,209,210,211,212,213,214,215,216,217,218,219,220,221,222,223,224,225,226,227,228,229,230,231,232,233,234,235,236,237,238,239,240,241,242,243,244,245,246,247,248,249,250,251,252,253,254,255,256,257,258,259,260,261,262,263,264,265,266,267,268,269,270,271,272,273,274,275,276,277,278,279,280,281,282,283,284,285,286,287,288,289,290,291,292,293,294,295,296,297,298,299,300,301,302,303,304,305,306,307,308,309,310,311,312,313,314,315,316,317,318,319,320,321,322,323,324,325,326,327,328,329,330,331,332,333,334,335,336,337,338,339,340,341,342,343,344,345,346,347,348,349,350,351,352,353,354,355,356,357,358,359,360,361,362,363,364,365,366,367,368,369,370,371,372,373,374,375,376,377,378,379,380,381,382,383,384,385,386,387,388,389,390,391,392,393,394,395,396,397,398,399,400,401,402,403,404,405,406,407,408,409,410,411,412,413,414,415,416,417,418,419,420,421,422,423,424,425,426,427,428,429,430,431,432,433,434,435,436,437,438,439,440,441,442,443,444,445,446,447,448,449,450,451,452,453,454,455,456,457,458,459,460,461,462,463,464,465,466,467,468,469,470,471,472,473,474,475,476,477,478,479,480,481,482,483,484,485,486,487,488,489,490,491,492,493,494,495,496,497,498,499,500,501,502,503,504,505,506,507,508,509,510,511,512,513,514,515,516,517,518,519,520,521,522,523,524,525,526,527,528,529,530,531,532,533,534,535,536,537,538,539,540,541,542,543,544,545,546,547,548,549,550,551,552,553,554,555,556,557,558,559,560,561,562,563,564,565,566,567,568,569,570,571,572,573,574,575,576,577,578,579,580,581,582,583,584,585,586,587,588,589,590,591,592,593,594,595,596,597,598,599,600,601,602,603,604,605,606,607,608,609,610,611,612,613,614,615,616,617,618,619,620,621,622,623,624,625,626,627,628,629,630,631,632,633,634,635,636,637,638,639,640,641,642,643,644,645,646,647,648,649,650,651,652,653,654,655,656,657,658,659,660,661,662,663,664,665,666,667,668,669,670,671,672,673,674,675,676,677,678,679,680,681,682,683,684,685,686,687,688,689,690,691,692,693,694,695,696,697,698,699,700,701,702,703,704,705,706,707,708,709,710,711,712,713,714,715,716,717,718,719,720,721,722,723,724,725,726,727,728,729,730,731,732,733,734,735,736,737,738,739,740,741,742,743,744,745,746,747,748,749,750,751,752,753,754,755,756,757,758,759,760],"tree_info":[0,0,0,0,0,0,0,0,0,0,0,0,0,0,0,0,0,0,0,0,0,0,0,0,0,0,0,0,0,0,0,0,0,0,0,0,0,0,0,0,0,0,0,0,0,0,0,0,0,0,0,0,0,0,0,0,0,0,0,0,0,0,0,0,0,0,0,0,0,0,0,0,0,0,0,0,0,0,0,0,0,0,0,0,0,0,0,0,0,0,0,0,0,0,0,0,0,0,0,0,0,0,0,0,0,0,0,0,0,0,0,0,0,0,0,0,0,0,0,0,0,0,0,0,0,0,0,0,0,0,0,0,0,0,0,0,0,0,0,0,0,0,0,0,0,0,0,0,0,0,0,0,0,0,0,0,0,0,0,0,0,0,0,0,0,0,0,0,0,0,0,0,0,0,0,0,0,0,0,0,0,0,0,0,0,0,0,0,0,0,0,0,0,0,0,0,0,0,0,0,0,0,0,0,0,0,0,0,0,0,0,0,0,0,0,0,0,0,0,0,0,0,0,0,0,0,0,0,0,0,0,0,0,0,0,0,0,0,0,0,0,0,0,0,0,0,0,0,0,0,0,0,0,0,0,0,0,0,0,0,0,0,0,0,0,0,0,0,0,0,0,0,0,0,0,0,0,0,0,0,0,0,0,0,0,0,0,0,0,0,0,0,0,0,0,0,0,0,0,0,0,0,0,0,0,0,0,0,0,0,0,0,0,0,0,0,0,0,0,0,0,0,0,0,0,0,0,0,0,0,0,0,0,0,0,0,0,0,0,0,0,0,0,0,0,0,0,0,0,0,0,0,0,0,0,0,0,0,0,0,0,0,0,0,0,0,0,0,0,0,0,0,0,0,0,0,0,0,0,0,0,0,0,0,0,0,0,0,0,0,0,0,0,0,0,0,0,0,0,0,0,0,0,0,0,0,0,0,0,0,0,0,0,0,0,0,0,0,0,0,0,0,0,0,0,0,0,0,0,0,0,0,0,0,0,0,0,0,0,0,0,0,0,0,0,0,0,0,0,0,0,0,0,0,0,0,0,0,0,0,0,0,0,0,0,0,0,0,0,0,0,0,0,0,0,0,0,0,0,0,0,0,0,0,0,0,0,0,0,0,0,0,0,0,0,0,0,0,0,0,0,0,0,0,0,0,0,0,0,0,0,0,0,0,0,0,0,0,0,0,0,0,0,0,0,0,0,0,0,0,0,0,0,0,0,0,0,0,0,0,0,0,0,0,0,0,0,0,0,0,0,0,0,0,0,0,0,0,0,0,0,0,0,0,0,0,0,0,0,0,0,0,0,0,0,0,0,0,0,0,0,0,0,0,0,0,0,0,0,0,0,0,0,0,0,0,0,0,0,0,0,0,0,0,0,0,0,0,0,0,0,0,0,0,0,0,0,0,0,0,0,0,0,0,0,0,0,0,0,0,0,0,0,0,0,0,0,0,0,0,0,0,0,0,0,0,0,0,0,0,0,0,0,0,0,0,0,0,0,0,0,0,0,0,0,0,0,0,0,0,0,0,0,0,0,0,0,0,0,0,0,0,0,0,0,0,0,0,0,0,0,0,0,0,0,0,0,0,0,0,0,0,0,0,0,0,0,0,0,0,0,0,0,0,0,0,0,0,0,0,0,0,0,0,0,0,0,0,0,0,0,0,0,0,0,0,0,0,0,0,0,0,0,0,0,0,0,0,0,0,0,0,0,0,0,0,0,0,0,0],"trees":[{"base_weights":[-2.8417375E-2,-1.4480487E0,1.4912568E0,-3.4347982E0,-2.7684295E-1,1.191977E-1,2.8577037E0,-4.892957E0,-1.7505018E0,-1.7314312E0,1.2316548E0,-1.3476439E0,1.6371125E0,1.2477076E0,3.8369987E0,-4.6662097E0,-9.025903E0,1.5220761E0,-2.2656815E0,-1.8514351E0,4.9896603E0,1.4242954E0,-4.450832E0,-8.849872E-1,-3.8257246E0,1.2799711E0,4.951682E0,4.238308E-1,3.0236053E0,3.0500836E0,5.7121954E0,-1.13155104E-1,-2.2554035E-1,-2.0477426E-1,-4.7909704E-1,5.841556E-1,3.2574948E-2,-1.5756951E-1,-4.8040126E-2,-5.594939E-2,3.4307668E-3,7.311926E-2,4.106805E-1,1.618955E-2,6.0730875E-2,1.9104795E-1,-1.20009854E-1,-3.262934E-2,5.107802E-2,-1.2546639E-1,-1.7684927E-2,3.6704134E-2,-1.1801379E-1,4.0213162E-1,1.1547774E-1,-1.2725132E-2,5.781424E-2,1.3049357E-1,5.2010775E-2,5.855304E-2,1.1551964E-1,1.880921E-1,1.1014493E-1],"categories":[],"categories_nodes":[],"categories_segments":[],"categories_sizes":[],"default_left":[0,0,0,0,0,0,0,0,0,0,0,0,0,0,0,0,0,0,0,0,0,0,0,0,0,0,0,0,0,0,0,0,0,0,0,0,0,0,0,0,0,0,0,0,0,0,0,0,0,0,0,0,0,0,0,0,0,0,0,0,0,0,0],"id":0,"left_children":[1,3,5,7,9,11,13,15,17,19,21,23,25,27,29,31,33,35,37,39,41,43,45,47,49,51,53,55,57,59,61,-1,-1,-1,-1,-1,-1,-1,-1,-1,-1,-1,-1,-1,-1,-1,-1,-1,-1,-1,-1,-1,-1,-1,-1,-1,-1,-1,-1,-1,-1,-1,-1],"loss_changes":[2.739557E6,1.5276885E6,1.149871E6,5.9798075E5,9.063356E5,6.814026E5,4.8446825E5,1.221645E5,1.9050875E5,1.6963056E5,2.219826E5,1.7842331E5,1.7801497E5,1.7004244E5,2.8188175E5,7.531175E4,5.693225E4,7.3441336E4,1.355634E5,1.5881344E5,8.697404E4,1.5307594E5,2.8215078E4,1.6137389E5,9.106628E4,1.5334405E5,5.3923625E4,1.3989097E5,7.625069E4,1.4963012E5,1.3354075E5,0E0,0E0,0E0,0E0,0E0,0E0,0E0,0E0,0E0,0E0,0E0,0E0,0E0,0E0,0E0,0E0,0E0,0E0,0E0,0E0,0E0,0E0,0E0,0E0,0E0,0E0,0E0,0E0,0E0,0E0,0E0,0E0],"parents":[2147483647,0,0,1,1,2,2,3,3,4,4,5,5,6,6,7,7,8,8,9,9,10,10,11,11,12,12,13,13,14,14,15,15,16,16,17,17,18,18,19,19,20,20,21,21,22,22,23,23,24,24,25,25,26,26,27,27,28,28,29,29,30,30],"right_children":[2,4,6,8,10,12,14,16,18,20,22,24,26,28,30,32,34,36,38,40,42,44,46,48,50,52,54,56,58,60,62,-1,-1,-1,-1,-1,-1,-1,-1,-1,-1,-1,-1,-1,-1,-1,-1,-1,-1,-1,-1,-1,-1,-1,-1,-1,-1,-1,-1,-1,-1,-1,-1],"split_conditions":[5.662033E0,4.7203217E0,5.5613503E0,5.7125306E0,5.662033E0,5.662033E0,4.6774516E0,2.3E1,5.773804E0,8.892988E0,8.7E1,7.9E1,8.26223E0,6.3E1,6.4E1,8.7E1,8.2E1,1.2480112E0,2.3257809E0,2.2E1,1.8E1,4.2804317E0,4.8106947E0,2.4E1,4.210249E0,8.7E1,2E0,6.4E1,5.875421E0,6.4E1,6.111052E0,-1.13155104E-1,-2.2554035E-1,-2.0477426E-1,-4.7909704E-1,5.841556E-1,3.2574948E-2,-1.5756951E-1,-4.8040126E-2,-5.594939E-2,3.4307668E-3,7.311926E-2,4.106805E-1,1.618955E-2,6.0730875E-2,1.9104795E-1,-1.20009854E-1,-3.262934E-2,5.107802E-2,-1.2546639E-1,-1.7684927E-2,3.6704134E-2,-1.1801379E-1,4.0213162E-1,1.1547774E-1,-1.2725132E-2,5.781424E-2,1.3049357E-1,5.2010775E-2,5.855304E-2,1.1551964E-1,1.880921E-1,1.1014493E-1],"split_indices":[2,0,1,1,1,0,0,12,1,0,9,8,2,9,9,8,8,0,2,10,11,2,0,12,1,8,8,8,2,8,2,0,0,0,0,0,0,0,0,0,0,0,0,0,0,0,0,0,0,0,0,0,0,0,0,0,0,0,0,0,0,0,0],"split_type":[0,0,0,0,0,0,0,0,0,0,0,0,0,0,0,0,0,0,0,0,0,0,0,0,0,0,0,0,0,0,0,0,0,0,0,0,0,0,0,0,0,0,0,0,0,0,0,0,0,0,0,0,0,0,0,0,0,0,0,0,0,0,0],"sum_hessian":[1.2698494E6,6.565355E5,6.133139E5,2.4349E5,4.130455E5,3.060304E5,3.072835E5,1.305027E5,1.129873E5,2.102802E5,2.027653E5,1.556334E5,1.50397E5,1.162205E5,1.91063E5,1.237215E5,6.7812E3,1.53666E4,9.76207E4,2.065938E5,3.6864E3,1.961191E5,6.6462E3,1.311518E5,2.44816E4,1.357721E5,1.46249E4,7.93927E4,3.68278E4,1.34591E5,5.6472E4,1.198744E5,3.8471E3,6.2703E3,5.109E2,1.494E2,1.52172E4,7.6624E3,8.99583E4,1.729728E5,3.3621E4,3.1259E3,5.605E2,1.10624E5,8.54951E4,1.849E2,6.4613E3,1.146949E5,1.64569E4,1.7706E4,6.7756E3,1.316457E5,4.1264E3,4.2E2,1.42049E4,5.3146E4,2.62467E4,1.10602E4,2.57676E4,9.27802E4,4.18108E4,2.36556E4,3.28164E4],"tree_param":{"num_deleted":"0","num_feature":"29","num_nodes":"63","size_leaf_vector":"1"}},{"base_weights":[3.3356246E-2,-1.3687786E0,1.5337281E0,-3.337307E0,-2.9657117E-1,-1.3064724E-1,2.6885498E0,-4.9690356E0,-1.641217E0,-2.1293974E0,7.8027385E-1,-1.4312472E0,1.2073976E0,8.8492095E-1,3.7835126E0,-6.265354E0,-3.856862E0,-7.3071676E-1,-3.1967404E0,-1.8329786E0,-6.223166E0,-1.5712799E-1,2.081052E0,-5.360081E-1,-2.9867003E0,1.4209138E0,-4.2021656E0,1.3496735E0,-1.8461072E0,3.0215175E0,5.5073066E0,-1.047286E-1,-1.7647927E-1,-1.6976039E-1,-8.895033E-2,-2.4323704E-2,1.6276677E-1,-1.2586735E-1,-4.911656E-2,-1.505968E-1,-3.812189E-2,-3.2782066E-1,-1.4512174E-1,2.8676998E-3,-1.1041043E-1,3.581414E-2,1.04990564E-1,-2.6413465E-2,6.2006313E-2,-1.196835E-1,-4.9846333E-2,8.038078E-2,2.166488E-2,-1.280975E-1,1.2295379E-1,1.1900305E-2,6.804957E-2,-5.0843276E-2,2.0864196E-1,6.605785E-2,1.426257E-1,1.8187772E-1,1.0789436E-1],"categories":[],"categories_nodes":[],"categories_segments":[],"categories_sizes":[],"default_left":[0,0,0,0,0,0,0,0,0,0,0,0,0,0,0,0,0,0,0,0,0,0,0,0,0,0,0,0,0,0,0,0,0,0,0,0,0,0,0,0,0,0,0,0,0,0,0,0,0,0,0,0,0,0,0,0,0,0,0,0,0,0,0],"id":1,"left_children":[1,3,5,7,9,11,13,15,17,19,21,23,25,27,29,31,33,35,37,39,41,43,45,47,49,51,53,55,57,59,61,-1,-1,-1,-1,-1,-1,-1,-1,-1,-1,-1,-1,-1,-1,-1,-1,-1,-1,-1,-1,-1,-1,-1,-1,-1,-1,-1,-1,-1,-1,-1,-1],"loss_changes":[2.6708198E6,1.3851601E6,1.1787992E6,6.404085E5,8.3854356E5,4.372062E5,7.150505E5,1.69958E5,1.6070003E5,1.9076406E5,3.263329E5,1.7739414E5,1.4304556E5,1.7361622E5,2.9587675E5,8.96535E4,5.5577812E4,1.2557245E5,9.483494E4,1.89295E5,3.0348375E4,1.8009412E5,1.5397206E5,1.2696659E5,8.316378E4,1.1848045E5,3.9609062E4,1.4013814E5,3.808492E4,1.58939E5,1.4536175E5,0E0,0E0,0E0,0E0,0E0,0E0,0E0,0E0,0E0,0E0,0E0,0E0,0E0,0E0,0E0,0E0,0E0,0E0,0E0,0E0,0E0,0E0,0E0,0E0,0E0,0E0,0E0,0E0,0E0,0E0,0E0,0E0],"parents":[2147483647,0,0,1,1,2,2,3,3,4,4,5,5,6,6,7,7,8,8,9,9,10,10,11,11,12,12,13,13,14,14,15,15,16,16,17,17,18,18,19,19,20,20,21,21,22,22,23,23,24,24,25,25,26,26,27,27,28,28,29,29,30,30],"right_children":[2,4,6,8,10,12,14,16,18,20,22,24,26,28,30,32,34,36,38,40,42,44,46,48,50,52,54,56,58,60,62,-1,-1,-1,-1,-1,-1,-1,-1,-1,-1,-1,-1,-1,-1,-1,-1,-1,-1,-1,-1,-1,-1,-1,-1,-1,-1,-1,-1,-1,-1,-1,-1],"split_conditions":[5.662033E0,4.673775E0,4.9564834E0,5.662033E0,4.7203217E0,5.662033E0,4.6774516E0,1E0,1E0,2.2E1,4.2804317E0,1E0,8.7E1,7.9E1,6.3E1,1E0,2.3412495E0,8.3E1,3.94736E0,2.3257809E0,9E0,8.6E1,6.1E1,2.4E1,2.9557624E0,5.875421E0,1E0,6.6E1,8.892988E0,8.26223E0,6.111052E0,-1.047286E-1,-1.7647927E-1,-1.6976039E-1,-8.895033E-2,-2.4323704E-2,1.6276677E-1,-1.2586735E-1,-4.911656E-2,-1.505968E-1,-3.812189E-2,-3.2782066E-1,-1.4512174E-1,2.8676998E-3,-1.1041043E-1,3.581414E-2,1.04990564E-1,-2.6413465E-2,6.2006313E-2,-1.196835E-1,-4.9846333E-2,8.038078E-2,2.166488E-2,-1.280975E-1,1.2295379E-1,1.1900305E-2,6.804957E-2,-5.0843276E-2,2.0864196E-1,6.605785E-2,1.426257E-1,1.8187772E-1,1.0789436E-1],"split_indices":[2,1,1,0,0,0,0,25,24,12,2,24,8,7,9,20,2,7,2,2,7,9,9,12,1,0,23,7,1,2,2,0,0,0,0,0,0,0,0,0,0,0,0,0,0,0,0,0,0,0,0,0,0,0,0,0,0,0,0,0,0,0,0],"split_type":[0,0,0,0,0,0,0,0,0,0,0,0,0,0,0,0,0,0,0,0,0,0,0,0,0,0,0,0,0,0,0,0,0,0,0,0,0,0,0,0,0,0,0,0,0,0,0,0,0,0,0,0,0,0,0,0,0,0,0,0,0,0,0],"sum_hessian":[1.2695616E6,6.562652E5,6.132964E5,2.314061E5,4.248591E5,2.512241E5,3.620723E5,1.179376E5,1.134685E5,1.57236E5,2.676231E5,1.273948E5,1.238293E5,1.367776E5,2.252947E5,5.44535E4,6.34841E4,7.1577E4,4.18915E4,1.466239E5,1.06121E4,1.555375E5,1.120856E5,8.08603E4,4.65345E4,1.191296E5,4.6997E3,1.16888E5,1.98896E4,1.562388E5,6.90559E4,1.50667E4,3.93868E4,5.8631E3,5.7621E4,6.92628E4,2.3142E3,1.68081E4,2.50834E4,1.00372E4,1.365867E5,6.021E2,1.001E4,1.462089E5,9.3286E3,8.58214E4,2.62642E4,6.89615E4,1.18988E4,1.65347E4,2.99998E4,2.81129E4,9.10167E4,4.2696E3,4.301E2,7.14225E4,4.54655E4,1.95325E4,3.571E2,1.368999E5,1.93389E4,2.77979E4,4.1258E4],"tree_param":{"num_deleted":"0","num_feature":"29","num_nodes":"63","size_leaf_vector":"1"}},{"base_weights":[-3.5460077E-2,-1.385823E0,1.4091927E0,-2.8539808E0,1.4238454E-1,-1.535839E-1,2.4957316E0,-5.011412E0,-1.7362299E0,-1.6718463E0,1.2052957E0,-1.4894041E0,1.2203566E0,8.13141E-1,3.5157712E0,-6.1406226E0,-4.031634E0,-2.897976E0,-7.7839905E-1,-5.4534993E0,-1.3407017E0,3.5191172E-1,2.3824341E0,-1.9216018E0,1.5293381E0,8.0157673E-1,3.958073E0,3.6800787E-2,2.4807458E0,2.8316054E0,5.062393E0,-1.6859867E-1,-9.52458E-2,-9.5452264E-2,-2.1634045E-1,-7.5489886E-2,2.03984E-1,-2.7511498E-2,5.6135185E-2,-1.2433626E-1,-4.6182504E-1,-2.6426336E-2,-1.5067153E-1,1.47829475E-2,-9.1153406E-2,1.0602081E-1,4.027848E-2,-3.7087575E-2,-1.02993906E-1,7.3642984E-2,-4.4912703E-2,2.5380662E-2,-1.103481E-1,3.0894575E-1,8.751112E-2,-1.7914807E-2,4.498557E-2,1.4895068E-1,4.4910412E-2,7.7620916E-2,-4.686702E-3,1.651773E-1,1.0075593E-1],"categories":[],"categories_nodes":[],"categories_segments":[],"categories_sizes":[],"default_left":[0,0,0,0,0,0,0,0,0,0,0,0,0,0,0,0,0,0,0,0,0,0,0,0,0,0,0,0,0,0,0,0,0,0,0,0,0,0,0,0,0,0,0,0,0,0,0,0,0,0,0,0,0,0,0,0,0,0,0,0,0,0,0],"id":2,"left_children":[1,3,5,7,9,11,13,15,17,19,21,23,25,27,29,31,33,35,37,39,41,43,45,47,49,51,53,55,57,59,61,-1,-1,-1,-1,-1,-1,-1,-1,-1,-1,-1,-1,-1,-1,-1,-1,-1,-1,-1,-1,-1,-1,-1,-1,-1,-1,-1,-1,-1,-1,-1,-1],"loss_changes":[2.4760178E6,1.4718898E6,1.0412364E6,8.06812E5,6.198606E5,4.615758E5,6.20807E5,1.2624925E5,2.4524556E5,1.4868231E5,2.036095E5,1.6637828E5,1.4212714E5,1.7674739E5,2.3824E5,7.4502125E4,6.024275E4,1.3400819E5,1.1765552E5,5.9456906E4,1.4511884E5,1.1247843E5,1.22078125E5,1.0739822E5,7.525367E4,1.1983404E5,6.3080734E4,1.23716695E5,1.0316066E5,1.28801875E5,1.10021125E5,0E0,0E0,0E0,0E0,0E0,0E0,0E0,0E0,0E0,0E0,0E0,0E0,0E0,0E0,0E0,0E0,0E0,0E0,0E0,0E0,0E0,0E0,0E0,0E0,0E0,0E0,0E0,0E0,0E0,0E0,0E0,0E0],"parents":[2147483647,0,0,1,1,2,2,3,3,4,4,5,5,6,6,7,7,8,8,9,9,10,10,11,11,12,12,13,13,14,14,15,15,16,16,17,17,18,18,19,19,20,20,21,21,22,22,23,23,24,24,25,25,26,26,27,27,28,28,29,29,30,30],"right_children":[2,4,6,8,10,12,14,16,18,20,22,24,26,28,30,32,34,36,38,40,42,44,46,48,50,52,54,56,58,60,62,-1,-1,-1,-1,-1,-1,-1,-1,-1,-1,-1,-1,-1,-1,-1,-1,-1,-1,-1,-1,-1,-1,-1,-1,-1,-1,-1,-1,-1,-1,-1,-1],"split_conditions":[5.662033E0,5.662033E0,4.9564834E0,4.391096E0,4.7203217E0,5.662033E0,4.6774516E0,1E0,1E0,2.3257809E0,4.2804317E0,2.4E1,2.4E1,6.3E1,6.3E1,3E0,2.2E1,8.892988E0,2.2E1,8.6E1,2.2E1,8.6E1,2.4E1,7.9E1,7.4E1,8.7E1,3E0,6.4E1,6.5E1,6E0,6.111052E0,-1.6859867E-1,-9.52458E-2,-9.5452264E-2,-2.1634045E-1,-7.5489886E-2,2.03984E-1,-2.7511498E-2,5.6135185E-2,-1.2433626E-1,-4.6182504E-1,-2.6426336E-2,-1.5067153E-1,1.47829475E-2,-9.1153406E-2,1.0602081E-1,4.027848E-2,-3.7087575E-2,-1.02993906E-1,7.3642984E-2,-4.4912703E-2,2.5380662E-2,-1.103481E-1,3.0894575E-1,8.751112E-2,-1.7914807E-2,4.498557E-2,1.4895068E-1,4.4910412E-2,7.7620916E-2,-4.686702E-3,1.651773E-1,1.0075593E-1],"split_indices":[2,1,1,0,0,0,0,25,25,2,2,12,10,9,9,22,12,0,10,7,12,9,9,8,8,8,9,8,9,18,2,0,0,0,0,0,0,0,0,0,0,0,0,0,0,0,0,0,0,0,0,0,0,0,0,0,0,0,0,0,0,0,0],"split_type":[0,0,0,0,0,0,0,0,0,0,0,0,0,0,0,0,0,0,0,0,0,0,0,0,0,0,0,0,0,0,0,0,0,0,0,0,0,0,0,0,0,0,0,0,0,0,0,0,0,0,0,0,0,0,0,0,0,0,0,0,0,0,0],"sum_hessian":[1.2692222E6,6.560201E5,6.132022E5,3.345826E5,3.214375E5,2.514876E5,3.617146E5,1.141822E5,2.204004E5,1.187487E5,2.026888E5,1.275129E5,1.239747E5,1.365224E5,2.251922E5,5.30382E4,6.1144E4,9.95952E4,1.208052E5,9.5572E3,1.091915E5,1.175058E5,8.5183E4,1.115443E5,1.59686E4,1.075303E5,1.64444E4,9.31573E4,4.33651E4,1.561337E5,6.90585E4,4.21275E4,1.09107E4,5.84492E4,2.6948E3,9.85139E4,1.0813E3,1.091789E5,1.16263E4,9.2214E3,3.358E2,1.029631E5,6.2284E3,1.108696E5,6.6362E3,2.49801E4,6.02029E4,9.30121E4,1.85322E4,1.11996E4,4.769E3,1.033012E5,4.2291E3,8.455E2,1.55989E4,6.52633E4,2.7894E4,7.1269E3,3.62382E4,1.431762E5,1.29575E4,2.76545E4,4.1404E4],"tree_param":{"num_deleted":"0","num_feature":"29","num_nodes":"63","size_leaf_vector":"1"}},{"base_weights":[-6.6994564E-3,-1.6088814E0,9.4924134E-1,-8.189135E-1,-3.0236669E0,1.5765477E0,-4.1306815E-1,-1.110371E0,2.2344594E0,-2.787892E0,-7.9059644E0,2.644052E0,1.1001923E0,-1.5079564E-1,-5.0422864E0,4.5685005E0,-1.1992555E0,-4.3527627E0,3.3153625E0,-4.024483E0,-1.9428295E0,-5.7791333E0,-1.2357852E1,1.8450003E0,3.999191E0,9.8782325E-1,6.780605E0,1.4500655E-1,-4.8862104E0,-5.14009E0,2.087288E0,8.575604E-2,3.6587444E-1,-2.2379285E-2,-6.85577E-2,-1.6898893E-1,-1.076002E-2,1.09837845E-1,2.67743E-2,-1.18268445E-1,-6.446519E-2,-4.305477E-2,-1.4971094E-1,3.319077E-2,-1.8534565E-1,-2.8509346E-1,-6.060388E-1,5.915193E-2,-2.3060953E-2,1.4097248E-1,8.478389E-2,5.6067444E-2,1.8101446E-2,2.2490309E-1,9.481256E-2,-8.756779E-3,5.162665E-2,-1.2997238E-1,4.0721696E-2,-1.1192294E-1,-2.1410333E-1],"categories":[],"categories_nodes":[],"categories_segments":[],"categories_sizes":[],"default_left":[0,0,0,0,0,0,0,0,0,0,0,0,0,0,0,0,0,0,0,0,0,0,0,0,0,0,0,0,0,0,0,0,0,0,0,0,0,0,0,0,0,0,0,0,0,0,0,0,0,0,0,0,0,0,0,0,0,0,0,0,0],"id":3,"left_children":[1,3,5,7,9,11,13,15,17,19,21,23,25,27,29,31,33,35,37,39,41,43,45,47,49,51,53,55,57,59,-1,-1,-1,-1,-1,-1,-1,-1,-1,-1,-1,-1,-1,-1,-1,-1,-1,-1,-1,-1,-1,-1,-1,-1,-1,-1,-1,-1,-1,-1,-1],"loss_changes":[1.944722E6,5.30293E5,6.796139E5,2.7097356E5,1.9562575E5,2.7688188E5,3.044178E5,1.4031422E5,1.8895636E5,1.6945075E5,7.390894E4,1.8189625E5,2.4030312E5,3.323979E5,1.1763381E5,4.8920977E4,1.2840128E5,3.530364E4,5.5138484E4,6.7185875E4,8.596553E4,6.165761E4,2.7812469E4,1.524244E5,6.2044062E4,1.2219966E5,4.823478E4,2.1239888E5,2.8450156E4,3.0374562E4,0E0,0E0,0E0,0E0,0E0,0E0,0E0,0E0,0E0,0E0,0E0,0E0,0E0,0E0,0E0,0E0,0E0,0E0,0E0,0E0,0E0,0E0,0E0,0E0,0E0,0E0,0E0,0E0,0E0,0E0,0E0],"parents":[2147483647,0,0,1,1,2,2,3,3,4,4,5,5,6,6,7,7,8,8,9,9,10,10,11,11,12,12,13,13,14,14,15,15,16,16,17,17,18,18,19,19,20,20,21,21,22,22,23,23,24,24,25,25,26,26,27,27,28,28,29,29],"right_children":[2,4,6,8,10,12,14,16,18,20,22,24,26,28,30,32,34,36,38,40,42,44,46,48,50,52,54,56,58,60,-1,-1,-1,-1,-1,-1,-1,-1,-1,-1,-1,-1,-1,-1,-1,-1,-1,-1,-1,-1,-1,-1,-1,-1,-1,-1,-1,-1,-1,-1,-1],"split_conditions":[4.7203217E0,1E0,1E0,2.4E1,8.7E1,2E0,8.7E1,1.2480112E0,2E0,2.9557624E0,2E0,6.4E1,8.892988E0,8.7E1,2E0,2E0,1E0,4.5E1,3.8757322E0,6.3E1,8.7E1,1.2E1,7.9E1,5.4E1,7E0,1.4E1,9.726297E0,6.9E1,8.426636E0,1E0,2.087288E0,8.575604E-2,3.6587444E-1,-2.2379285E-2,-6.85577E-2,-1.6898893E-1,-1.076002E-2,1.09837845E-1,2.67743E-2,-1.18268445E-1,-6.446519E-2,-4.305477E-2,-1.4971094E-1,3.319077E-2,-1.8534565E-1,-2.8509346E-1,-6.060388E-1,5.915193E-2,-2.3060953E-2,1.4097248E-1,8.478389E-2,5.6067444E-2,1.8101446E-2,2.2490309E-1,9.481256E-2,-8.756779E-3,5.162665E-2,-1.2997238E-1,4.0721696E-2,-1.1192294E-1,-2.1410333E-1],"split_indices":[0,24,24,12,9,19,8,0,15,0,19,7,0,9,27,20,26,9,0,9,8,8,8,7,12,9,0,7,0,27,0,0,0,0,0,0,0,0,0,0,0,0,0,0,0,0,0,0,0,0,0,0,0,0,0,0,0,0,0,0,0],"split_type":[0,0,0,0,0,0,0,0,0,0,0,0,0,0,0,0,0,0,0,0,0,0,0,0,0,0,0,0,0,0,0,0,0,0,0,0,0,0,0,0,0,0,0,0,0,0,0,0,0,0,0,0,0,0,0,0,0,0,0,0,0],"sum_hessian":[1.2697334E6,4.744842E5,7.952492E5,3.044789E5,1.700053E5,5.44515E5,2.507342E5,2.779496E5,2.65293E4,1.621783E5,7.827E3,1.680045E5,3.765105E5,2.372934E5,1.34408E4,4.2809E3,2.736687E5,3.7382E3,2.27911E4,6.58325E4,9.63458E4,5.3014E3,2.5256E3,1.056916E5,6.23129E4,3.692105E5,7.3E3,2.233447E5,1.39487E4,1.34288E4,1.2E1,3.8497E3,4.312E2,2.286205E5,4.50482E4,2.3152E3,1.423E3,1.53933E4,7.3978E3,4.42236E4,2.16089E4,9.13673E4,4.9785E3,9.914E2,4.31E3,2.3434E3,1.822E2,8.8945E4,1.67466E4,1.68451E4,4.54678E4,6.4122E4,3.050885E5,4.1883E3,3.1117E3,1.775483E5,4.57964E4,1.33106E4,6.381E2,1.12559E4,2.1729E3],"tree_param":{"num_deleted":"0","num_feature":"29","num_nodes":"61","size_leaf_vector":"1"}},{"base_weights":[-3.4554694E-2,-1.3026712E0,1.3076372E0,-2.593388E0,2.505783E-2,-3.3247554E-1,2.2994668E0,-1.7787899E0,-3.8045359E0,6.6789114E-1,-1.2877299E0,-1.004352E0,1.092251E0,2.4121532E0,-4.058565E0,-2.094411E0,1.0344038E0,-5.836064E0,-2.9967904E0,5.0716114E-1,5.4415145E0,-2.89054E0,-3.585177E-1,-3.351771E-1,-3.0745773E0,4.823785E0,4.1108727E-1,1.8769454E0,3.5988731E0,4.5509667E0,-4.5659165E0,-6.607524E-2,-2.538517E-2,3.9502922E-2,-2.4201913E-1,-1.3721605E-1,-3.4287122E-1,-1.0404696E-1,-5.228244E-2,3.1103834E-3,5.4865994E-2,2.5159216E-1,8.40885E-2,-5.9187915E-2,-1.4984074E-1,-5.71038E-2,1.9663787E-2,2.3728779E-1,-1.164597E-2,-2.808675E-2,-1.22983195E-1,1.3734597E-1,-2.3482637E-2,3.2813232E-2,-3.0121004E-2,6.443623E-2,-8.930552E-3,1.3567662E-1,6.978636E-2,5.4906315E-1,9.798673E-3,-9.366977E-2,-2.5582397E-1],"categories":[],"categories_nodes":[],"categories_segments":[],"categories_sizes":[],"default_left":[0,0,0,0,0,0,0,0,0,0,0,0,0,0,0,0,0,0,0,0,0,0,0,0,0,0,0,0,0,0,0,0,0,0,0,0,0,0,0,0,0,0,0,0,0,0,0,0,0,0,0,0,0,0,0,0,0,0,0,0,0,0,0],"id":4,"left_children":[1,3,5,7,9,11,13,15,17,19,21,23,25,27,29,31,33,35,37,39,41,43,45,47,49,51,53,55,57,59,61,-1,-1,-1,-1,-1,-1,-1,-1,-1,-1,-1,-1,-1,-1,-1,-1,-1,-1,-1,-1,-1,-1,-1,-1,-1,-1,-1,-1,-1,-1,-1,-1],"loss_changes":[2.1605862E6,1.118567E6,1.0031766E6,3.2650875E5,2.7152388E5,2.2246266E5,2.7536062E5,1.7570994E5,2.1833062E5,1.6570566E5,1.5751038E5,2.1877434E5,1.8928883E5,2.39807E5,2.9299484E4,1.05309625E5,1.1677412E5,1.033875E5,1.0043606E5,1.3495583E5,6.745717E4,6.294228E4,1.4763583E5,1.5324936E5,1.3882862E5,4.4411062E4,9.17485E4,4.072968E5,1.7318862E5,2.703227E4,2.9222969E4,0E0,0E0,0E0,0E0,0E0,0E0,0E0,0E0,0E0,0E0,0E0,0E0,0E0,0E0,0E0,0E0,0E0,0E0,0E0,0E0,0E0,0E0,0E0,0E0,0E0,0E0,0E0,0E0,0E0,0E0,0E0,0E0],"parents":[2147483647,0,0,1,1,2,2,3,3,4,4,5,5,6,6,7,7,8,8,9,9,10,10,11,11,12,12,13,13,14,14,15,15,16,16,17,17,18,18,19,19,20,20,21,21,22,22,23,23,24,24,25,25,26,26,27,27,28,28,29,29,30,30],"right_children":[2,4,6,8,10,12,14,16,18,20,22,24,26,28,30,32,34,36,38,40,42,44,46,48,50,52,54,56,58,60,62,-1,-1,-1,-1,-1,-1,-1,-1,-1,-1,-1,-1,-1,-1,-1,-1,-1,-1,-1,-1,-1,-1,-1,-1,-1,-1,-1,-1,-1,-1,-1,-1],"split_conditions":[5.662033E0,5.662033E0,4.7203217E0,1E0,1E0,6.4E1,8.7E1,2.3E1,2.9557624E0,8.3E1,3.8002756E0,4.4E1,6.5E1,6.4E1,4.9564834E0,4.391096E0,2.5E1,8.6E1,3.94736E0,2.2E1,3.2E1,7.9E1,2E0,1.2480112E0,2E0,1.8E1,1.4E1,4.4E1,5.875421E0,5.8892326E0,8.04236E0,-6.607524E-2,-2.538517E-2,3.9502922E-2,-2.4201913E-1,-1.3721605E-1,-3.4287122E-1,-1.0404696E-1,-5.228244E-2,3.1103834E-3,5.4865994E-2,2.5159216E-1,8.40885E-2,-5.9187915E-2,-1.4984074E-1,-5.71038E-2,1.9663787E-2,2.3728779E-1,-1.164597E-2,-2.808675E-2,-1.22983195E-1,1.3734597E-1,-2.3482637E-2,3.2813232E-2,-3.0121004E-2,6.443623E-2,-8.930552E-3,1.3567662E-1,6.978636E-2,5.4906315E-1,9.798673E-3,-9.366977E-2,-2.5582397E-1],"split_indices":[1,0,0,24,24,8,9,12,1,7,1,8,8,8,0,0,12,9,0,10,8,9,20,0,13,10,10,8,1,1,1,0,0,0,0,0,0,0,0,0,0,0,0,0,0,0,0,0,0,0,0,0,0,0,0,0,0,0,0,0,0,0,0],"split_type":[0,0,0,0,0,0,0,0,0,0,0,0,0,0,0,0,0,0,0,0,0,0,0,0,0,0,0,0,0,0,0,0,0,0,0,0,0,0,0,0,0,0,0,0,0,0,0,0,0,0,0,0,0,0,0,0,0,0,0,0,0,0,0],"sum_hessian":[1.269392E6,6.527078E5,6.166842E5,3.309658E5,3.21742E5,2.323937E5,3.842905E5,1.978818E5,1.33084E5,2.159834E5,1.057586E5,1.579219E5,7.44718E4,3.776001E5,6.6904E3,1.779213E5,1.99605E4,3.78555E4,9.52285E4,2.089514E5,7.032E3,3.88091E4,6.69495E4,1.19348E5,3.85739E4,1.14928E4,6.2979E4,2.602406E5,1.173595E5,3.709E2,6.3195E3,1.179479E5,5.99734E4,1.89957E4,9.648E2,3.62617E4,1.5938E3,4.16396E4,5.35889E4,1.703232E5,3.86282E4,2.1772E3,4.8548E3,3.32161E4,5.593E3,2.49647E4,4.19848E4,1.5632E3,1.177848E5,1.87491E4,1.98248E4,1.0296E4,1.1968E3,4.04276E4,2.25514E4,1.981213E5,6.21193E4,3.59475E4,8.1412E4,6.9E1,3.019E2,5.5259E3,7.936E2],"tree_param":{"num_deleted":"0","num_feature":"29","num_nodes":"63","size_leaf_vector":"1"}},{"base_weights":[2.7718259E-2,-1.2904484E0,1.3322971E0,-2.5903447E0,4.7906052E-2,-1.9255422E-1,2.2539604E0,-1.8653196E0,-3.7242136E0,2.0654291E-1,-4.522332E0,4.8232803E-1,-1.5223438E0,1.5949835E0,3.7699966E0,6.123662E0,-1.9554201E0,-6.0235553E0,-2.9860287E0,9.314515E-2,5.246701E0,-4.0409393E0,-1.368487E1,2.0778063E-1,3.2143235E0,-1.2392938E0,-4.829033E0,2.2754598E0,2.4522223E-2,5.0811257E0,2.7137191E0,2.587366E-1,2.5070433E-3,-1.1572953E-1,-4.2089857E-2,-1.1677805E-1,-1.8996911E-1,-1.1730599E-1,-5.692953E-2,-1.5626162E-2,2.1450672E-2,3.66183E-2,1.8718179E-1,-1.0841949E-1,4.2370144E-1,-7.447879E-1,-3.029328E-1,2.1362293E-3,1.34235E-1,-6.515127E-2,9.8574646E-2,-4.2260833E-2,1.912054E-2,-1.1257917E-1,-5.226483E-1,4.6474155E-2,1.17506616E-1,1.0362716E-2,-1.0171538E-1,1.3220115E-1,-2.0332141E-1,7.50485E-2,-5.8856573E-2],"categories":[],"categories_nodes":[],"categories_segments":[],"categories_sizes":[],"default_left":[0,0,0,0,0,0,0,0,0,0,0,0,0,0,0,0,0,0,0,0,0,0,0,0,0,0,0,0,0,0,0,0,0,0,0,0,0,0,0,0,0,0,0,0,0,0,0,0,0,0,0,0,0,0,0,0,0,0,0,0,0,0,0],"id":5,"left_children":[1,3,5,7,9,11,13,15,17,19,21,23,25,27,29,31,33,35,37,39,41,43,45,47,49,51,53,55,57,59,61,-1,-1,-1,-1,-1,-1,-1,-1,-1,-1,-1,-1,-1,-1,-1,-1,-1,-1,-1,-1,-1,-1,-1,-1,-1,-1,-1,-1,-1,-1,-1,-1],"loss_changes":[2.1837078E6,1.098876E6,8.9695275E5,2.63389E5,2.2563469E5,2.1578147E5,3.9737825E5,1.4072306E5,2.1205738E5,1.7190311E5,4.5869344E4,1.1962501E5,7.573792E4,2.963072E5,1.66858E5,5.5487586E4,1.4044494E5,6.45775E4,1.1438381E5,1.615961E5,5.6040188E4,6.1828625E4,1.2007461E4,9.150856E4,6.1798656E4,6.742275E4,3.3127844E4,1.9533644E5,1.3380883E5,1.471405E5,9.752619E4,0E0,0E0,0E0,0E0,0E0,0E0,0E0,0E0,0E0,0E0,0E0,0E0,0E0,0E0,0E0,0E0,0E0,0E0,0E0,0E0,0E0,0E0,0E0,0E0,0E0,0E0,0E0,0E0,0E0,0E0,0E0,0E0],"parents":[2147483647,0,0,1,1,2,2,3,3,4,4,5,5,6,6,7,7,8,8,9,9,10,10,11,11,12,12,13,13,14,14,15,15,16,16,17,17,18,18,19,19,20,20,21,21,22,22,23,23,24,24,25,25,26,26,27,27,28,28,29,29,30,30],"right_children":[2,4,6,8,10,12,14,16,18,20,22,24,26,28,30,32,34,36,38,40,42,44,46,48,50,52,54,56,58,60,62,-1,-1,-1,-1,-1,-1,-1,-1,-1,-1,-1,-1,-1,-1,-1,-1,-1,-1,-1,-1,-1,-1,-1,-1,-1,-1,-1,-1,-1,-1,-1,-1],"split_conditions":[5.5613503E0,5.662033E0,4.7203217E0,1E0,8.7E1,1E0,6.4E1,1.2480112E0,2.862956E0,8.892988E0,8.3E1,2.4E1,8.4E1,1E0,6.111052E0,3.8757322E0,2.3257809E0,2E0,2.9557624E0,1.4E1,9E0,8.1E1,5.7280283E0,8.892988E0,5E0,2E1,8.3E1,8.26223E0,8.4E1,8.7E1,8.4E1,2.587366E-1,2.5070433E-3,-1.1572953E-1,-4.2089857E-2,-1.1677805E-1,-1.8996911E-1,-1.1730599E-1,-5.692953E-2,-1.5626162E-2,2.1450672E-2,3.66183E-2,1.8718179E-1,-1.0841949E-1,4.2370144E-1,-7.447879E-1,-3.029328E-1,2.1362293E-3,1.34235E-1,-6.515127E-2,9.8574646E-2,-4.2260833E-2,1.912054E-2,-1.1257917E-1,-5.226483E-1,4.6474155E-2,1.17506616E-1,1.0362716E-2,-1.0171538E-1,1.3220115E-1,-2.0332141E-1,7.50485E-2,-5.8856573E-2],"split_indices":[2,0,0,24,9,24,9,0,2,0,8,11,8,24,2,2,2,19,0,10,11,8,0,2,9,11,9,2,8,8,8,0,0,0,0,0,0,0,0,0,0,0,0,0,0,0,0,0,0,0,0,0,0,0,0,0,0,0,0,0,0,0,0],"split_type":[0,0,0,0,0,0,0,0,0,0,0,0,0,0,0,0,0,0,0,0,0,0,0,0,0,0,0,0,0,0,0,0,0,0,0,0,0,0,0,0,0,0,0,0,0,0,0,0,0,0,0,0,0,0,0,0,0,0,0,0,0,0,0],"sum_hessian":[1.2698482E6,6.316344E5,6.382138E5,3.204198E5,3.112146E5,2.404317E5,3.977821E5,1.954516E5,1.249682E5,3.007774E5,1.04372E4,1.594901E5,8.09416E4,2.772683E5,1.205138E5,2.1774E3,1.932742E5,3.03645E4,9.46037E4,2.941623E5,6.6151E3,9.9204E3,5.168E2,1.449292E5,1.45609E4,7.45634E4,6.3782E3,1.934466E5,8.38217E4,5.37648E4,6.6749E4,1.2783E3,8.991E2,1.78311E4,1.754431E5,1.63442E4,1.40203E4,2.7762E4,6.68417E4,1.517113E5,1.42451E5,2.463E3,4.1521E3,9.7849E3,1.355E2,4.1E1,4.758E2,1.41577E5,3.3522E3,1.6191E3,1.29418E4,6.08635E4,1.36999E4,6.2553E3,1.229E2,1.650949E5,2.83517E4,7.65327E4,7.289E3,5.29377E4,8.271E2,6.31585E4,3.5905E3],"tree_param":{"num_deleted":"0","num_feature":"29","num_nodes":"63","size_leaf_vector":"1"}},{"base_weights":[-1.3124545E-2,-1.2344476E0,1.2798426E0,-2.4768634E0,4.5949966E-2,-2.65006E-1,2.186091E0,-1.6069912E0,-3.7697046E0,6.953695E-1,-1.2860423E0,3.359888E-1,-1.5327398E0,2.4839053E0,9.747807E-2,-1.8757911E0,1.1621656E0,-5.7079186E0,-3.0001557E0,2.0702093E0,1.9357914E-1,-3.1973028E0,-5.331348E-1,8.315747E0,2.1013325E-1,-2.7611656E0,-6.718686E-1,2.0133579E0,3.5732489E0,6.765123E-1,-3.4611666E0,1.2647717E-1,-4.8713244E-2,-1.3465862E-1,5.3506996E-2,-1.569327E-1,-9.952198E-2,-1.03333846E-1,-5.3065706E-2,-3.8585246E-2,6.885739E-2,6.3655217E-4,1.2550913E-1,-8.345432E-2,2.212864E-1,8.361732E-3,-5.7667833E-2,4.5889112E-1,1.6459268E-1,-1.0834335E-3,7.296534E-2,-7.672363E-2,5.221064E-2,-2.579867E-2,5.887545E-2,4.709468E-2,1.8167263E-1,1.107878E-1,6.525069E-2,-6.5032057E-3,9.959874E-2,-9.314306E-2,3.2834607E-1],"categories":[],"categories_nodes":[],"categories_segments":[],"categories_sizes":[],"default_left":[0,0,0,0,0,0,0,0,0,0,0,0,0,0,0,0,0,0,0,0,0,0,0,0,0,0,0,0,0,0,0,0,0,0,0,0,0,0,0,0,0,0,0,0,0,0,0,0,0,0,0,0,0,0,0,0,0,0,0,0,0,0,0],"id":6,"left_children":[1,3,5,7,9,11,13,15,17,19,21,23,25,27,29,31,33,35,37,39,41,43,45,47,49,51,53,55,57,59,61,-1,-1,-1,-1,-1,-1,-1,-1,-1,-1,-1,-1,-1,-1,-1,-1,-1,-1,-1,-1,-1,-1,-1,-1,-1,-1,-1,-1,-1,-1,-1,-1],"loss_changes":[2.0058825E6,1.0391362E6,8.63848E5,3.7281588E5,2.782759E5,1.7381956E5,2.4189525E5,1.4752847E5,1.9882862E5,1.4919095E5,1.5171784E5,1.5542094E5,7.7582625E4,1.7443825E5,1.0001532E5,9.1155125E4,1.1236236E5,3.7178625E4,9.488819E4,1.4295845E5,1.285628E5,5.065803E4,1.164034E5,4.1402734E4,1.0460644E5,4.5141844E4,4.702911E4,1.6175269E5,8.4833625E4,1.2932956E5,2.9959977E4,0E0,0E0,0E0,0E0,0E0,0E0,0E0,0E0,0E0,0E0,0E0,0E0,0E0,0E0,0E0,0E0,0E0,0E0,0E0,0E0,0E0,0E0,0E0,0E0,0E0,0E0,0E0,0E0,0E0,0E0,0E0,0E0],"parents":[2147483647,0,0,1,1,2,2,3,3,4,4,5,5,6,6,7,7,8,8,9,9,10,10,11,11,12,12,13,13,14,14,15,15,16,16,17,17,18,18,19,19,20,20,21,21,22,22,23,23,24,24,25,25,26,26,27,27,28,28,29,29,30,30],"right_children":[2,4,6,8,10,12,14,16,18,20,22,24,26,28,30,32,34,36,38,40,42,44,46,48,50,52,54,56,58,60,62,-1,-1,-1,-1,-1,-1,-1,-1,-1,-1,-1,-1,-1,-1,-1,-1,-1,-1,-1,-1,-1,-1,-1,-1,-1,-1,-1,-1,-1,-1,-1,-1],"split_conditions":[5.662033E0,5.662033E0,4.6774516E0,1E0,1E0,1E0,6E0,2.4E1,2.9557624E0,5.875421E0,2.9557624E0,1.2480112E0,2.9557624E0,6.4E1,2.3E1,1.2480112E0,2E0,1E0,3.94736E0,2E1,8.892988E0,1E0,2E0,5.773804E0,2.4E1,1E0,2.3E1,8.892988E0,7.6E1,1.1E1,8.4E1,1.2647717E-1,-4.8713244E-2,-1.3465862E-1,5.3506996E-2,-1.569327E-1,-9.952198E-2,-1.03333846E-1,-5.3065706E-2,-3.8585246E-2,6.885739E-2,6.3655217E-4,1.2550913E-1,-8.345432E-2,2.212864E-1,8.361732E-3,-5.7667833E-2,4.5889112E-1,1.6459268E-1,-1.0834335E-3,7.296534E-2,-7.672363E-2,5.221064E-2,-2.579867E-2,5.887545E-2,4.709468E-2,1.8167263E-1,1.107878E-1,6.525069E-2,-6.5032057E-3,9.959874E-2,-9.314306E-2,3.2834607E-1],"split_indices":[1,0,0,24,24,24,18,12,1,0,1,0,0,7,12,1,15,25,0,7,0,21,19,1,12,23,11,0,7,12,7,0,0,0,0,0,0,0,0,0,0,0,0,0,0,0,0,0,0,0,0,0,0,0,0,0,0,0,0,0,0,0,0],"split_type":[0,0,0,0,0,0,0,0,0,0,0,0,0,0,0,0,0,0,0,0,0,0,0,0,0,0,0,0,0,0,0,0,0,0,0,0,0,0,0,0,0,0,0,0,0,0,0,0,0,0,0,0,0,0,0,0,0,0,0,0,0,0,0],"sum_hessian":[1.2702389E6,6.532174E5,6.170215E5,3.315248E5,3.216926E5,2.281329E5,3.888886E5,1.981855E5,1.333393E5,2.162573E5,1.054353E5,1.54765E5,7.33679E4,3.403564E5,4.85322E4,1.806511E5,1.75344E4,3.78894E4,9.54499E4,5.78219E4,1.584354E5,2.97935E4,7.56418E4,2.3999E3,1.523651E5,3.02273E4,4.31406E4,2.37693E5,1.026634E5,4.17428E4,6.7894E3,1.8729E3,1.787782E5,2.2768E3,1.52576E4,2.84886E4,9.4008E3,4.16513E4,5.37986E4,9.203E3,4.86189E4,1.531059E5,5.3295E3,2.94514E4,3.421E2,5.07955E4,2.48463E4,3.488E2,2.0511E3,1.393288E5,1.30363E4,2.84246E4,1.8027E3,3.85562E4,4.5844E3,2.319759E5,5.7171E3,5.42834E4,4.838E4,3.25324E4,9.2104E3,6.6852E3,1.042E2],"tree_param":{"num_deleted":"0","num_feature":"29","num_nodes":"63","size_leaf_vector":"1"}},{"base_weights":[5.0185785E-2,-1.2583928E0,1.3449118E0,-3.0340178E0,-2.908433E-1,-1.2131652E-1,2.3621979E0,-2.069205E0,-4.5426197E0,-1.7173219E0,2.4792165E-1,6.805438E-1,-1.6215893E0,1.6632951E0,3.8925161E0,6.0289893E0,-2.1887338E0,-6.2046704E0,-3.8410442E0,-5.1034284E-1,-4.2027636E0,-2.8323326E-1,1.592756E0,3.6018592E-1,3.485789E0,-3.0654833E0,-5.482467E-1,2.2657247E0,2.1242338E-1,3.5163615E0,7.1651864E0,1.6581894E-1,-6.3243914E-1,1.620968E-2,-6.301237E-2,-1.4569815E-1,-2.9020703E-1,-1.2809236E-1,-8.328154E-2,-1.1730002E-3,-7.640493E-2,-1.6407612E-1,-8.350639E-2,1.2754145E-2,-6.4966604E-2,4.554304E-2,-1.0248494E-1,2.0985234E-1,6.3196006E-3,7.552757E-2,2.4096298E-1,-9.848901E-2,-3.0796869E-2,-6.1514527E-2,1.516091E-2,4.4418063E-2,8.604876E-2,-1.4651065E-2,5.8391076E-2,1.2753539E-1,6.838106E-2,4.3994924E-1,1.6454998E-1],"categories":[],"categories_nodes":[],"categories_segments":[],"categories_sizes":[],"default_left":[0,0,0,0,0,0,0,0,0,0,0,0,0,0,0,0,0,0,0,0,0,0,0,0,0,0,0,0,0,0,0,0,0,0,0,0,0,0,0,0,0,0,0,0,0,0,0,0,0,0,0,0,0,0,0,0,0,0,0,0,0,0,0],"id":7,"left_children":[1,3,5,7,9,11,13,15,17,19,21,23,25,27,29,31,33,35,37,39,41,43,45,47,49,51,53,55,57,59,61,-1,-1,-1,-1,-1,-1,-1,-1,-1,-1,-1,-1,-1,-1,-1,-1,-1,-1,-1,-1,-1,-1,-1,-1,-1,-1,-1,-1,-1,-1,-1,-1],"loss_changes":[2.1525892E6,1.0855715E6,9.525865E5,3.2436012E5,3.1434438E5,3.1471225E5,4.03243E5,1.3162312E5,1.01289625E5,3.3636738E5,2.120727E5,1.5320403E5,1.4120905E5,2.2623544E5,1.4543375E5,3.7900312E4,1.261015E5,5.230325E4,3.9918438E4,8.9049984E4,7.454225E4,3.9098706E5,1.0957559E5,1.320158E5,4.985964E4,6.225047E4,1.15426766E5,1.0517569E5,1.2875868E5,1.3122738E5,7.375719E4,0E0,0E0,0E0,0E0,0E0,0E0,0E0,0E0,0E0,0E0,0E0,0E0,0E0,0E0,0E0,0E0,0E0,0E0,0E0,0E0,0E0,0E0,0E0,0E0,0E0,0E0,0E0,0E0,0E0,0E0,0E0,0E0],"parents":[2147483647,0,0,1,1,2,2,3,3,4,4,5,5,6,6,7,7,8,8,9,9,10,10,11,11,12,12,13,13,14,14,15,15,16,16,17,17,18,18,19,19,20,20,21,21,22,22,23,23,24,24,25,25,26,26,27,27,28,28,29,29,30,30],"right_children":[2,4,6,8,10,12,14,16,18,20,22,24,26,28,30,32,34,36,38,40,42,44,46,48,50,52,54,56,58,60,62,-1,-1,-1,-1,-1,-1,-1,-1,-1,-1,-1,-1,-1,-1,-1,-1,-1,-1,-1,-1,-1,-1,-1,-1,-1,-1,-1,-1,-1,-1,-1,-1],"split_conditions":[5.5613503E0,4.673775E0,4.9564834E0,1E0,2.9557624E0,1E0,6.3E1,1.2480112E0,2.9557624E0,2E0,6.4E1,2.3E1,3.5901067E0,1E0,2.4E1,1E0,1E0,1E0,3.6E1,7.7E1,6E0,4.4E1,5.45679E0,1.2480112E0,3E0,5.6E1,4E0,6.4E1,6.4E1,5.875421E0,5.6531105E0,1.6581894E-1,-6.3243914E-1,1.620968E-2,-6.301237E-2,-1.4569815E-1,-2.9020703E-1,-1.2809236E-1,-8.328154E-2,-1.1730002E-3,-7.640493E-2,-1.6407612E-1,-8.350639E-2,1.2754145E-2,-6.4966604E-2,4.554304E-2,-1.0248494E-1,2.0985234E-1,6.3196006E-3,7.552757E-2,2.4096298E-1,-9.848901E-2,-3.0796869E-2,-6.1514527E-2,1.516091E-2,4.4418063E-2,8.604876E-2,-1.4651065E-2,5.8391076E-2,1.2753539E-1,6.838106E-2,4.3994924E-1,1.6454998E-1],"split_indices":[2,1,1,24,2,24,9,1,2,15,8,10,1,24,11,23,16,27,8,7,10,8,2,1,22,9,17,8,8,2,2,0,0,0,0,0,0,0,0,0,0,0,0,0,0,0,0,0,0,0,0,0,0,0,0,0,0,0,0,0,0,0,0],"split_type":[0,0,0,0,0,0,0,0,0,0,0,0,0,0,0,0,0,0,0,0,0,0,0,0,0,0,0,0,0,0,0,0,0,0,0,0,0,0,0,0,0,0,0,0,0,0,0,0,0,0,0,0,0,0,0,0,0,0,0,0,0,0,0],"sum_hessian":[1.2705196E6,6.318792E5,6.386404E5,2.228686E5,4.090106E5,2.615978E5,3.770426E5,1.359382E5,8.69304E4,1.121275E5,2.968831E5,1.704809E5,9.11169E4,2.588373E5,1.182053E5,1.975E3,1.339632E5,2.57955E4,6.11349E4,7.54779E4,3.66496E4,2.128269E5,8.40562E4,1.530108E5,1.74701E4,3.88493E4,5.22676E4,1.82894E5,7.59433E4,1.060254E5,1.21799E4,1.94E3,3.5E1,1.40245E4,1.199387E5,2.41202E4,1.6753E3,1.73791E4,4.37558E4,6.38573E4,1.16206E4,9.8029E3,2.68467E4,1.585132E5,5.43137E4,8.08079E4,3.2483E3,2.0154E3,1.509954E5,1.62476E4,1.2225E3,2.63056E4,1.25437E4,1.96769E4,3.25907E4,1.291921E5,5.37019E4,5.51901E4,2.07532E4,3.49952E4,7.10302E4,6.401E2,1.15398E4],"tree_param":{"num_deleted":"0","num_feature":"29","num_nodes":"63","size_leaf_vector":"1"}},{"base_weights":[-4.252132E-2,6.110665E-1,-1.3619292E0,1.7949631E0,9.9221565E-2,-1.1208949E0,-5.8040667E0,1.0288575E0,3.0251615E0,1.2665948E0,-1.404722E-1,-8.9494723E-1,-5.18464E0,-5.4551373E0,-1.4662669E1,5.7989764E-1,2.8604949E0,6.5811296E0,2.4614305E0,1.087041E0,4.590137E0,-7.0860237E-1,5.24304E-1,-1.3215209E0,1.141299E0,-5.2578793E0,2.1544647E0,-5.8578506E0,-1.4929576E0,-1.721109E1,-4.2876716E0,2.968196E-2,-3.8841028E-2,9.38015E-2,9.145574E-3,4.3966746E-1,1.458385E-1,1.1673349E-1,3.5014477E-2,6.973025E-2,1.6557781E-2,1.0443316E-1,4.4300148E-1,-8.367353E-3,-3.781424E-2,1.018608E-1,9.216774E-3,-1.8481037E-2,-6.820058E-2,-8.696057E-3,6.486474E-2,-1.4482747E-1,5.960322E-3,-1.7002915E-1,-1.0126089E-1,-1.0405028E-1,8.789638E-2,-7.664765E-1,-4.0345198E-1,-2.2967565E-1,1.5314166E-1],"categories":[],"categories_nodes":[],"categories_segments":[],"categories_sizes":[],"default_left":[0,0,0,0,0,0,0,0,0,0,0,0,0,0,0,0,0,0,0,0,0,0,0,0,0,0,0,0,0,0,0,0,0,0,0,0,0,0,0,0,0,0,0,0,0,0,0,0,0,0,0,0,0,0,0,0,0,0,0,0,0],"id":8,"left_children":[1,3,5,7,9,11,13,15,17,19,21,23,25,27,29,31,33,35,37,39,41,43,45,47,49,51,-1,53,55,57,59,-1,-1,-1,-1,-1,-1,-1,-1,-1,-1,-1,-1,-1,-1,-1,-1,-1,-1,-1,-1,-1,-1,-1,-1,-1,-1,-1,-1,-1,-1],"loss_changes":[1.0952221E6,5.1466216E5,4.504472E5,2.4159644E5,1.6592E5,3.6640834E5,6.6674E4,1.29907016E5,1.9715575E5,6.026003E4,1.8580253E5,3.2838894E5,1.4194344E5,3.3216375E4,2.1407719E4,1.6443406E5,6.9163125E4,1.1041756E5,1.988855E5,6.927963E4,2.781686E4,7.97372E4,1.2524575E5,2.5598519E5,1.4171964E5,6.1800375E4,0E0,3.2155688E4,2.580206E4,7.9470938E3,8.614864E3,0E0,0E0,0E0,0E0,0E0,0E0,0E0,0E0,0E0,0E0,0E0,0E0,0E0,0E0,0E0,0E0,0E0,0E0,0E0,0E0,0E0,0E0,0E0,0E0,0E0,0E0,0E0,0E0,0E0,0E0],"parents":[2147483647,0,0,1,1,2,2,3,3,4,4,5,5,6,6,7,7,8,8,9,9,10,10,11,11,12,12,13,13,14,14,15,15,16,16,17,17,18,18,19,19,20,20,21,21,22,22,23,23,24,24,25,25,27,27,28,28,29,29,30,30],"right_children":[2,4,6,8,10,12,14,16,18,20,22,24,26,28,30,32,34,36,38,40,42,44,46,48,50,52,-1,54,56,58,60,-1,-1,-1,-1,-1,-1,-1,-1,-1,-1,-1,-1,-1,-1,-1,-1,-1,-1,-1,-1,-1,-1,-1,-1,-1,-1,-1,-1,-1,-1],"split_conditions":[1E0,2E0,8.7E1,6.4E1,1.4E1,8.7E1,8.4E1,2.3E1,6.5E1,2.4E1,6.3E1,2E1,2E0,6E0,2.1E1,2E0,4.1E1,3E0,7E0,1.8E1,1.2E1,4.4E1,6.5E1,2E0,5.8E1,2.2E1,2.1544647E0,1E0,1E1,2E0,8.6E1,2.968196E-2,-3.8841028E-2,9.38015E-2,9.145574E-3,4.3966746E-1,1.458385E-1,1.1673349E-1,3.5014477E-2,6.973025E-2,1.6557781E-2,1.0443316E-1,4.4300148E-1,-8.367353E-3,-3.781424E-2,1.018608E-1,9.216774E-3,-1.8481037E-2,-6.820058E-2,-8.696057E-3,6.486474E-2,-1.4482747E-1,5.960322E-3,-1.7002915E-1,-1.0126089E-1,-1.0405028E-1,8.789638E-2,-7.664765E-1,-4.0345198E-1,-2.2967565E-1,1.5314166E-1],"split_indices":[24,19,9,9,9,8,8,10,9,11,9,11,27,16,10,22,9,8,12,8,9,9,9,22,8,10,0,25,10,10,8,0,0,0,0,0,0,0,0,0,0,0,0,0,0,0,0,0,0,0,0,0,0,0,0,0,0,0,0,0,0],"split_type":[0,0,0,0,0,0,0,0,0,0,0,0,0,0,0,0,0,0,0,0,0,0,0,0,0,0,0,0,0,0,0,0,0,0,0,0,0,0,0,0,0,0,0,0,0,0,0,0,0,0,0,0,0,0,0,0,0,0,0,0,0],"sum_hessian":[1.2700388E6,8.493178E5,4.207209E5,2.563565E5,5.929613E5,3.990709E5,2.165E4,1.579804E5,9.83761E4,1.010093E5,4.91952E5,3.780546E5,2.10163E4,2.08343E4,8.157E2,1.268838E5,3.10966E4,1.3457E4,8.49191E4,9.5836E4,5.1733E3,2.652583E5,2.266937E5,3.125747E5,6.54799E4,2.10023E4,1.4E1,1.89106E4,1.9237E3,6.532E2,1.625E2,9.8768E4,2.81158E4,2.29078E4,8.1888E3,8.516E2,1.26054E4,2.75563E4,5.73628E4,1.91342E4,7.67018E4,5.0195E3,1.538E2,1.810575E5,8.42008E4,9.5172E3,2.171765E5,2.210621E5,9.15126E4,3.23419E4,3.3138E4,1.91386E4,1.8637E3,1.24198E4,6.4908E3,1.2554E3,6.683E2,4.21E1,6.111E2,1.108E2,5.17E1],"tree_param":{"num_deleted":"0","num_feature":"29","num_nodes":"61","size_leaf_vector":"1"}},{"base_weights":[-1.0058553E-2,-1.5523199E0,1.0474608E0,-2.7676466E0,-1.6179831E-1,-4.0559483E-1,2.060197E0,-4.4865427E0,-1.592362E0,-1.7256154E0,7.1989995E-1,-1.4786501E0,7.952549E-1,4.3749067E-1,3.0375326E0,-4.186106E0,-7.812286E0,-1.7107639E0,5.037163E0,1.1573902E0,-2.1918638E0,6.174484E-2,2.240476E0,-1.887139E0,1.02144E0,2.7152977E0,3.214241E-1,8.3408713E-1,-1.8466877E0,2.501051E0,4.4133463E0,-1.01623826E-1,-1.9945504E-1,-2.4917297E-1,-1.352844E-1,-4.6155747E-2,9.42781E-2,-1.7192189E-2,2.7351972E-1,-6.201605E-2,6.894776E-2,-4.633152E-2,-1.4275081E-1,-1.2197645E-2,3.2178633E-2,3.295661E-2,1.0667818E-1,-2.9682277E-2,-7.67489E-2,9.8807685E-2,-2.2808702E-3,8.418884E-2,-7.666241E-2,1.3474772E-2,-1.1912917E-1,1.0449897E-2,8.376087E-2,-3.452264E-2,-1.2841107E-1,7.829016E-2,7.661938E-3,7.746958E-2,1.3370764E-1],"categories":[],"categories_nodes":[],"categories_segments":[],"categories_sizes":[],"default_left":[0,0,0,0,0,0,0,0,0,0,0,0,0,0,0,0,0,0,0,0,0,0,0,0,0,0,0,0,0,0,0,0,0,0,0,0,0,0,0,0,0,0,0,0,0,0,0,0,0,0,0,0,0,0,0,0,0,0,0,0,0,0,0],"id":9,"left_children":[1,3,5,7,9,11,13,15,17,19,21,23,25,27,29,31,33,35,37,39,41,43,45,47,49,51,53,55,57,59,61,-1,-1,-1,-1,-1,-1,-1,-1,-1,-1,-1,-1,-1,-1,-1,-1,-1,-1,-1,-1,-1,-1,-1,-1,-1,-1,-1,-1,-1,-1,-1,-1],"loss_changes":[2.0720822E6,8.7333625E5,1.1090772E6,5.5707325E5,3.3233378E5,3.9887775E5,7.0434875E5,1.1178225E5,1.2858681E5,1.16818734E5,1.5424577E5,1.6695425E5,1.3289139E5,1.5124161E5,2.0454975E5,4.708125E4,4.7802625E4,1.1951609E5,9.718132E4,7.0470125E4,8.907306E4,7.24572E4,8.699747E4,1.1630319E5,7.4879734E4,1.0906747E5,1.2966913E5,1.489349E5,3.7820156E4,2.759635E5,9.55125E4,0E0,0E0,0E0,0E0,0E0,0E0,0E0,0E0,0E0,0E0,0E0,0E0,0E0,0E0,0E0,0E0,0E0,0E0,0E0,0E0,0E0,0E0,0E0,0E0,0E0,0E0,0E0,0E0,0E0,0E0,0E0,0E0],"parents":[2147483647,0,0,1,1,2,2,3,3,4,4,5,5,6,6,7,7,8,8,9,9,10,10,11,11,12,12,13,13,14,14,15,15,16,16,17,17,18,18,19,19,20,20,21,21,22,22,23,23,24,24,25,25,26,26,27,27,28,28,29,29,30,30],"right_children":[2,4,6,8,10,12,14,16,18,20,22,24,26,28,30,32,34,36,38,40,42,44,46,48,50,52,54,56,58,60,62,-1,-1,-1,-1,-1,-1,-1,-1,-1,-1,-1,-1,-1,-1,-1,-1,-1,-1,-1,-1,-1,-1,-1,-1,-1,-1,-1,-1,-1,-1,-1,-1],"split_conditions":[4.9564834E0,5.7125306E0,4.9564834E0,4.9564834E0,4.6774516E0,5.7125306E0,4.6774516E0,2.2E1,8.892988E0,5.773804E0,6.4E1,2.2E1,5.875421E0,7.9E1,6.4E1,8.7E1,4.2804317E0,8.3E1,1E1,7E0,2.2E1,6.4E1,4.210249E0,1E0,5.773804E0,1E0,8.7E1,2.2E1,1E0,4.4E1,1E0,-1.01623826E-1,-1.9945504E-1,-2.4917297E-1,-1.352844E-1,-4.6155747E-2,9.42781E-2,-1.7192189E-2,2.7351972E-1,-6.201605E-2,6.894776E-2,-4.633152E-2,-1.4275081E-1,-1.2197645E-2,3.2178633E-2,3.295661E-2,1.0667818E-1,-2.9682277E-2,-7.67489E-2,9.8807685E-2,-2.2808702E-3,8.418884E-2,-7.666241E-2,1.3474772E-2,-1.1912917E-1,1.0449897E-2,8.376087E-2,-3.452264E-2,-1.2841107E-1,7.829016E-2,7.661938E-3,7.746958E-2,1.3370764E-1],"split_indices":[2,1,1,0,0,0,0,12,0,1,7,12,0,7,8,8,1,7,11,11,12,8,2,24,2,27,8,12,26,8,14,0,0,0,0,0,0,0,0,0,0,0,0,0,0,0,0,0,0,0,0,0,0,0,0,0,0,0,0,0,0,0,0],"split_type":[0,0,0,0,0,0,0,0,0,0,0,0,0,0,0,0,0,0,0,0,0,0,0,0,0,0,0,0,0,0,0,0,0,0,0,0,0,0,0,0,0,0,0,0,0,0,0,0,0,0,0,0,0,0,0,0,0,0,0,0,0,0,0],"sum_hessian":[1.2704528E6,5.16785E5,7.536677E5,2.757627E5,2.410223E5,3.095426E5,4.441251E5,1.119795E5,1.637832E5,8.68967E4,1.541256E5,1.634695E5,1.460731E5,1.669451E5,2.7718E5,1.027082E5,9.2713E3,1.609117E5,2.8715E3,1.2096E4,7.48007E4,1.075696E5,4.6556E4,1.405123E5,2.29572E4,2.89098E4,1.171633E5,1.42249E5,2.46961E4,1.994255E5,7.77545E4,9.95346E4,3.1736E3,4.8811E3,4.3902E3,1.570333E5,3.8784E3,1.4591E3,1.4124E3,3.695E3,8.401E3,6.8238E4,6.5627E3,7.42611E4,3.33085E4,3.2E4,1.4556E4,8.82835E4,5.22288E4,6.3153E3,1.66419E4,2.59803E4,2.9295E3,1.123602E5,4.8031E3,1.220682E5,2.01808E4,2.16371E4,3.059E3,1.549134E5,4.45121E4,3.23225E4,4.5432E4],"tree_param":{"num_deleted":"0","num_feature":"29","num_nodes":"63","size_leaf_vector":"1"}},{"base_weights":[6.7079184E-3,-1.2046223E0,1.3019505E0,-2.4494088E0,9.110507E-2,2.3096637E-1,2.4513612E0,-1.7640488E0,-3.4575608E0,3.123501E-1,-3.1279507E0,8.4842515E-1,-1.0437378E0,3.988931E0,2.0123808E0,-2.102042E0,9.549186E-1,-3.0808604E0,-6.653128E0,-3.1999712E0,5.7923424E-1,4.098037E0,-4.0464363E0,7.0126456E-1,6.575326E0,-3.0919557E0,-2.3302726E-1,1.9258425E0,5.1392994E0,-1.054325E0,2.3612676E0,-9.700389E-2,-4.4891562E-2,4.8259258E-1,1.9757275E-2,-9.420746E-2,-3.714044E-2,-2.1253951E-1,-1.1203311E-1,-1.4478147E-1,-4.6892144E-2,1.6563304E-2,-1.12935476E-1,-8.586091E-2,1.4972802E-1,-1.5091099E-1,-7.165476E-2,2.1820305E-1,1.5384264E-2,1.4161997E-1,3.8290977E-1,-7.883733E-2,1.6047611E0,1.8215803E-2,-5.5873603E-2,5.9425037E-2,-7.346024E-2,9.0007685E-2,1.6577357E-1,3.2346833E-2,-5.4957647E-2,6.565481E-2,1.06992135E-2],"categories":[],"categories_nodes":[],"categories_segments":[],"categories_sizes":[],"default_left":[0,0,0,0,0,0,0,0,0,0,0,0,0,0,0,0,0,0,0,0,0,0,0,0,0,0,0,0,0,0,0,0,0,0,0,0,0,0,0,0,0,0,0,0,0,0,0,0,0,0,0,0,0,0,0,0,0,0,0,0,0,0,0],"id":10,"left_children":[1,3,5,7,9,11,13,15,17,19,21,23,25,27,29,31,33,35,37,39,41,43,45,47,49,51,53,55,57,59,61,-1,-1,-1,-1,-1,-1,-1,-1,-1,-1,-1,-1,-1,-1,-1,-1,-1,-1,-1,-1,-1,-1,-1,-1,-1,-1,-1,-1,-1,-1,-1,-1],"loss_changes":[1.9930624E6,1.058735E6,7.5569344E5,2.312985E5,2.290645E5,2.5012745E5,1.99829E5,1.831685E5,1.6302288E5,2.821066E5,1.37328E5,1.8040919E5,1.721959E5,1.5603138E5,2.4646319E5,9.654825E4,6.650933E4,1.3289412E5,5.7218812E4,7.289284E4,1.1874892E5,3.3310496E4,4.3046312E4,1.4388658E5,4.240697E4,1.2231444E5,1.4304488E5,5.1692953E4,9.6833E4,6.3219375E4,1.05922125E5,0E0,0E0,0E0,0E0,0E0,0E0,0E0,0E0,0E0,0E0,0E0,0E0,0E0,0E0,0E0,0E0,0E0,0E0,0E0,0E0,0E0,0E0,0E0,0E0,0E0,0E0,0E0,0E0,0E0,0E0,0E0,0E0],"parents":[2147483647,0,0,1,1,2,2,3,3,4,4,5,5,6,6,7,7,8,8,9,9,10,10,11,11,12,12,13,13,14,14,15,15,16,16,17,17,18,18,19,19,20,20,21,21,22,22,23,23,24,24,25,25,26,26,27,27,28,28,29,29,30,30],"right_children":[2,4,6,8,10,12,14,16,18,20,22,24,26,28,30,32,34,36,38,40,42,44,46,48,50,52,54,56,58,60,62,-1,-1,-1,-1,-1,-1,-1,-1,-1,-1,-1,-1,-1,-1,-1,-1,-1,-1,-1,-1,-1,-1,-1,-1,-1,-1,-1,-1,-1,-1,-1,-1],"split_conditions":[5.662033E0,5.662033E0,5.662033E0,1E0,2.2E1,1E0,5.875421E0,2.3E1,2.2E1,2.3257809E0,1.2480112E0,8.892988E0,2.9557624E0,1E0,5.9646525E0,2.3412495E0,1.2480112E0,4.673775E0,4.2804317E0,9E0,8.7E1,2.1E1,9E0,1.2480112E0,2.2E1,2E0,2E0,1E0,5.747442E0,6.111052E0,6E0,-9.700389E-2,-4.4891562E-2,4.8259258E-1,1.9757275E-2,-9.420746E-2,-3.714044E-2,-2.1253951E-1,-1.1203311E-1,-1.4478147E-1,-4.6892144E-2,1.6563304E-2,-1.12935476E-1,-8.586091E-2,1.4972802E-1,-1.5091099E-1,-7.165476E-2,2.1820305E-1,1.5384264E-2,1.4161997E-1,3.8290977E-1,-7.883733E-2,1.6047611E0,1.8215803E-2,-5.5873603E-2,5.9425037E-2,-7.346024E-2,9.0007685E-2,1.6577357E-1,3.2346833E-2,-5.4957647E-2,6.565481E-2,1.06992135E-2],"split_indices":[2,1,1,24,12,24,2,10,12,2,2,2,1,15,2,2,1,1,1,10,7,7,10,1,10,27,19,26,2,1,18,0,0,0,0,0,0,0,0,0,0,0,0,0,0,0,0,0,0,0,0,0,0,0,0,0,0,0,0,0,0,0,0],"split_type":[0,0,0,0,0,0,0,0,0,0,0,0,0,0,0,0,0,0,0,0,0,0,0,0,0,0,0,0,0,0,0,0,0,0,0,0,0,0,0,0,0,0,0,0,0,0,0,0,0,0,0,0,0,0,0,0,0,0,0,0,0,0,0],"sum_hessian":[1.2702966E6,6.564109E5,6.138857E5,3.347854E5,3.216255E5,3.177866E5,2.960991E5,1.99304E5,1.354814E5,3.009446E5,2.06809E4,2.140862E5,1.037004E5,6.57561E4,2.30343E5,1.772688E5,2.20352E4,1.212002E5,1.42812E4,2.12499E4,2.796947E5,2.331E3,1.83499E4,2.087262E5,5.36E3,2.94038E4,7.42966E4,2.35428E4,4.22133E4,2.35276E4,2.068154E5,2.60495E4,1.512193E5,1.928E2,2.18424E4,8.46971E4,3.65031E4,7.71E3,6.5712E3,7.1833E3,1.40666E4,2.751997E5,4.495E3,4.672E2,1.8638E3,6.8266E3,1.15233E4,2.2066E3,2.065196E5,4.8589E3,5.011E2,2.93798E4,2.4E1,5.01889E4,2.41077E4,2.15461E4,1.9967E3,2.07822E4,2.14311E4,7.7069E3,1.58207E4,1.818892E5,2.49262E4],"tree_param":{"num_deleted":"0","num_feature":"29","num_nodes":"63","size_leaf_vector":"1"}},{"base_weights":[2.12532E-2,-1.487509E0,1.055847E0,-2.6849558E0,-1.159601E-1,-1.02366775E-1,2.293783E0,-3.93231E0,-1.387871E0,-1.5828838E0,7.3396516E-1,-1.5265591E0,8.5585946E-1,7.300866E-1,3.269316E0,-4.6888976E0,-2.9610646E0,-1.5178257E0,4.7530694E0,-4.9694686E0,-1.1923692E0,-4.7184616E-1,1.4342867E0,-8.823685E-1,-2.59107E0,-7.8174996E-1,1.4680529E0,3.190704E-2,2.4443455E0,2.4985201E0,5.237561E0,-1.1106559E-1,-2.758349E-1,-9.7018935E-2,-2.6057994E-2,-4.9530357E-2,9.142374E-3,3.3850994E-2,3.182383E-1,-2.006791E-1,-7.190129E-2,-2.3510618E-2,-1.6398846E-1,-1.819892E-2,1.3672191E-1,2.5375336E-1,3.3729374E-2,2.0143782E-1,-2.459048E-2,-1.0284138E-1,-4.453271E-2,4.7875848E-3,-7.215543E-2,2.2211635E-2,7.4468024E-2,-1.7326469E-2,3.8075816E-2,3.0621732E-2,9.630021E-2,4.7004547E-2,9.7317226E-2,1.6580157E-1,1.00052476E-1],"categories":[],"categories_nodes":[],"categories_segments":[],"categories_sizes":[],"default_left":[0,0,0,0,0,0,0,0,0,0,0,0,0,0,0,0,0,0,0,0,0,0,0,0,0,0,0,0,0,0,0,0,0,0,0,0,0,0,0,0,0,0,0,0,0,0,0,0,0,0,0,0,0,0,0,0,0,0,0,0,0,0,0],"id":11,"left_children":[1,3,5,7,9,11,13,15,17,19,21,23,25,27,29,31,33,35,37,39,41,43,45,47,49,51,53,55,57,59,61,-1,-1,-1,-1,-1,-1,-1,-1,-1,-1,-1,-1,-1,-1,-1,-1,-1,-1,-1,-1,-1,-1,-1,-1,-1,-1,-1,-1,-1,-1,-1,-1],"loss_changes":[1.9809028E6,8.478146E5,1.0793796E6,4.4588238E5,3.000049E5,5.307789E5,5.550705E5,1.031905E5,1.0784483E5,1.1671808E5,1.2865748E5,1.0726369E5,2.3309516E5,1.6732175E5,3.39915E5,1.232265E5,1.0855906E5,1.1548819E5,7.586753E4,5.8333344E4,1.0700416E5,8.51757E4,7.144528E4,8.823734E4,7.268416E4,1.2958744E5,1.4816716E5,1.0739812E5,6.943519E4,1.3879219E5,1.08549E5,0E0,0E0,0E0,0E0,0E0,0E0,0E0,0E0,0E0,0E0,0E0,0E0,0E0,0E0,0E0,0E0,0E0,0E0,0E0,0E0,0E0,0E0,0E0,0E0,0E0,0E0,0E0,0E0,0E0,0E0,0E0,0E0],"parents":[2147483647,0,0,1,1,2,2,3,3,4,4,5,5,6,6,7,7,8,8,9,9,10,10,11,11,12,12,13,13,14,14,15,15,16,16,17,17,18,18,19,19,20,20,21,21,22,22,23,23,24,24,25,25,26,26,27,27,28,28,29,29,30,30],"right_children":[2,4,6,8,10,12,14,16,18,20,22,24,26,28,30,32,34,36,38,40,42,44,46,48,50,52,54,56,58,60,62,-1,-1,-1,-1,-1,-1,-1,-1,-1,-1,-1,-1,-1,-1,-1,-1,-1,-1,-1,-1,-1,-1,-1,-1,-1,-1,-1,-1,-1,-1,-1,-1],"split_conditions":[4.9564834E0,5.7125306E0,5.662033E0,5.662033E0,4.7203217E0,4.9564834E0,4.7203217E0,4.2804317E0,8.892988E0,2.3257809E0,2.8E1,1E0,2.9557624E0,6.3E1,6.3E1,8.7E1,4.391096E0,2.2E1,1.6E1,1E1,8.7E1,8.426636E0,1.2480112E0,1.2480112E0,3.5901067E0,2E0,6.4E1,6.4E1,7E1,6.4E1,6.111052E0,-1.1106559E-1,-2.758349E-1,-9.7018935E-2,-2.6057994E-2,-4.9530357E-2,9.142374E-3,3.3850994E-2,3.182383E-1,-2.006791E-1,-7.190129E-2,-2.3510618E-2,-1.6398846E-1,-1.819892E-2,1.3672191E-1,2.5375336E-1,3.3729374E-2,2.0143782E-1,-2.459048E-2,-1.0284138E-1,-4.453271E-2,4.7875848E-3,-7.215543E-2,2.2211635E-2,7.4468024E-2,-1.7326469E-2,3.8075816E-2,3.0621732E-2,9.630021E-2,4.7004547E-2,9.7317226E-2,1.6580157E-1,1.00052476E-1],"split_indices":[2,1,1,0,0,0,0,1,0,2,7,24,1,9,9,9,0,10,11,10,9,0,2,1,1,14,9,8,7,8,2,0,0,0,0,0,0,0,0,0,0,0,0,0,0,0,0,0,0,0,0,0,0,0,0,0,0,0,0,0,0,0,0],"split_type":[0,0,0,0,0,0,0,0,0,0,0,0,0,0,0,0,0,0,0,0,0,0,0,0,0,0,0,0,0,0,0,0,0,0,0,0,0,0,0,0,0,0,0,0,0,0,0,0,0,0,0,0,0,0,0,0,0,0,0,0,0,0,0],"sum_hessian":[1.2690258E6,5.162172E5,7.528086E5,2.755989E5,2.406183E5,3.889287E5,3.638799E5,1.404893E5,1.351096E5,8.82691E4,1.523492E5,1.564296E5,2.324991E5,1.397994E5,2.240805E5,7.89646E4,6.15247E4,1.32312E5,2.7976E3,9.1223E3,7.91468E4,5.59737E4,9.63755E4,9.74586E4,5.8971E4,6.32647E4,1.692344E5,9.93428E4,4.04566E4,1.61027E5,6.30535E4,7.6019E4,2.9456E3,4.15875E4,1.99372E4,1.061877E5,2.61243E4,1.9642E3,8.334E2,3.7037E3,5.4186E3,7.56016E4,3.5452E3,5.3663E4,2.3107E3,9.285E2,9.5447E4,1.0887E3,9.63699E4,2.04694E4,3.85016E4,4.32604E4,2.00043E4,1.223128E5,4.69216E4,6.68448E4,3.2498E4,2.16806E4,1.8776E4,1.115571E5,4.94699E4,2.96138E4,3.34397E4],"tree_param":{"num_deleted":"0","num_feature":"29","num_nodes":"63","size_leaf_vector":"1"}},{"base_weights":[3.0804703E-3,-1.1976839E0,1.1916691E0,-2.8833914E0,-3.2459253E-1,1.13551304E-1,2.3481567E0,-4.0466595E0,-1.8704506E0,-1.6995878E0,1.9687712E-1,-2.181238E-3,5.4132648E0,1.7074801E0,3.7546594E0,-1.1978666E0,-4.4471083E0,-2.1566672E0,1.1941767E0,-5.600673E-1,-4.0396323E0,-2.7818227E-1,1.4305841E0,-5.5547345E-1,1.2102065E0,5.2520247E0,5.2578552E1,1.0907712E0,3.0528286E0,5.201651E0,2.6808238E0,-1.5154299E-2,-1.8266843E-1,-7.320794E-2,-1.2642875E-1,-1.1854278E-1,-4.694895E-2,3.9064575E-2,-2.4971633E-1,-3.4398783E-3,-8.206525E-2,-1.4235029E-1,-6.927249E-2,1.2043941E-2,-5.7864286E-2,1.1214435E-1,2.5047584E-2,4.5383226E-2,-1.993863E-2,1.00213006E-1,2.0290505E-2,2.9980406E-1,1.06381774E-1,1.8171024E0,5.294104E-1,3.9974082E-2,-1.2540579E-2,2.8056726E-2,1.0262179E-1,7.68154E-2,1.5168099E-1,5.7733614E-2,1.2833233E-1],"categories":[],"categories_nodes":[],"categories_segments":[],"categories_sizes":[],"default_left":[0,0,0,0,0,0,0,0,0,0,0,0,0,0,0,0,0,0,0,0,0,0,0,0,0,0,0,0,0,0,0,0,0,0,0,0,0,0,0,0,0,0,0,0,0,0,0,0,0,0,0,0,0,0,0,0,0,0,0,0,0,0,0],"id":12,"left_children":[1,3,5,7,9,11,13,15,17,19,21,23,25,27,29,31,33,35,37,39,41,43,45,47,49,51,53,55,57,59,61,-1,-1,-1,-1,-1,-1,-1,-1,-1,-1,-1,-1,-1,-1,-1,-1,-1,-1,-1,-1,-1,-1,-1,-1,-1,-1,-1,-1,-1,-1,-1,-1],"loss_changes":[1.8125072E6,9.2978106E5,7.957445E5,2.5396888E5,2.9841772E5,2.0259561E5,2.77444E5,1.144365E5,1.0108206E5,3.0514738E5,1.7685444E5,2.1683725E5,5.2808594E4,1.7551394E5,1.49681E5,4.4690996E4,8.1450375E4,7.589794E4,4.059647E4,8.852196E4,7.860919E4,3.371557E5,1.098557E5,1.27385664E5,1.12965516E5,4.7119047E4,1.0270508E4,1.1739739E5,1.35034E5,7.5577375E4,5.035672E4,0E0,0E0,0E0,0E0,0E0,0E0,0E0,0E0,0E0,0E0,0E0,0E0,0E0,0E0,0E0,0E0,0E0,0E0,0E0,0E0,0E0,0E0,0E0,0E0,0E0,0E0,0E0,0E0,0E0,0E0,0E0,0E0],"parents":[2147483647,0,0,1,1,2,2,3,3,4,4,5,5,6,6,7,7,8,8,9,9,10,10,11,11,12,12,13,13,14,14,15,15,16,16,17,17,18,18,19,19,20,20,21,21,22,22,23,23,24,24,25,25,26,26,27,27,28,28,29,29,30,30],"right_children":[2,4,6,8,10,12,14,16,18,20,22,24,26,28,30,32,34,36,38,40,42,44,46,48,50,52,54,56,58,60,62,-1,-1,-1,-1,-1,-1,-1,-1,-1,-1,-1,-1,-1,-1,-1,-1,-1,-1,-1,-1,-1,-1,-1,-1,-1,-1,-1,-1,-1,-1,-1,-1],"split_conditions":[5.5613503E0,4.51879E0,5.662033E0,1E0,2.9557624E0,8.892988E0,6.3E1,1E0,2.2E1,2E0,6.4E1,6.4E1,3E0,6.4E1,6.111052E0,8.5E1,1E0,1.9E1,1.9E1,7.8E1,1E1,4.4E1,6.5E1,3E0,6.5E1,2E0,8E0,4.4E1,1E0,5.6754985E0,2.4E1,-1.5154299E-2,-1.8266843E-1,-7.320794E-2,-1.2642875E-1,-1.1854278E-1,-4.694895E-2,3.9064575E-2,-2.4971633E-1,-3.4398783E-3,-8.206525E-2,-1.4235029E-1,-6.927249E-2,1.2043941E-2,-5.7864286E-2,1.1214435E-1,2.5047584E-2,4.5383226E-2,-1.993863E-2,1.00213006E-1,2.0290505E-2,2.9980406E-1,1.06381774E-1,1.8171024E0,5.294104E-1,3.9974082E-2,-1.2540579E-2,2.8056726E-2,1.0262179E-1,7.68154E-2,1.5168099E-1,5.7733614E-2,1.2833233E-1],"split_indices":[2,1,1,25,2,2,9,16,10,15,8,9,25,8,2,8,20,8,11,7,10,8,8,9,9,11,11,8,14,2,11,0,0,0,0,0,0,0,0,0,0,0,0,0,0,0,0,0,0,0,0,0,0,0,0,0,0,0,0,0,0,0,0],"split_type":[0,0,0,0,0,0,0,0,0,0,0,0,0,0,0,0,0,0,0,0,0,0,0,0,0,0,0,0,0,0,0,0,0,0,0,0,0,0,0,0,0,0,0,0,0,0,0,0,0,0,0,0,0,0,0,0,0,0,0,0,0,0,0],"sum_hessian":[1.2699548E6,6.317413E5,6.382135E5,2.155547E5,4.161866E5,3.303002E5,3.079133E5,1.003278E5,1.152269E5,1.144371E5,3.017495E5,3.232442E5,7.056E3,2.11555E5,9.63583E4,1.23665E4,8.79613E4,1.053857E5,9.8412E3,7.69629E4,3.74742E4,2.178604E5,8.38891E4,2.219542E5,1.0129E5,7.0353E3,2.07E1,1.450637E5,6.64913E4,4.1042E4,5.53163E4,1.12776E4,1.0889E3,2.52117E4,6.27496E4,1.02515E4,9.51342E4,9.5299E3,3.113E2,6.66274E4,1.03355E4,1.62603E4,2.12139E4,1.586553E5,5.92051E4,1.03186E4,7.35705E4,2.0561E4,2.013932E5,1.26251E4,8.86649E4,9.02E2,6.1333E3,1.02E1,1.05E1,1.09969E5,3.50947E4,2.34557E4,4.30356E4,1.18673E4,2.91747E4,4.8045E4,7.2713E3],"tree_param":{"num_deleted":"0","num_feature":"29","num_nodes":"63","size_leaf_vector":"1"}},{"base_weights":[4.3696012E-2,-1.753861E0,8.112084E-1,-3.2892218E0,-9.649187E-1,-2.9127815E-1,1.9822142E0,-2.2609775E0,-4.6856737E0,-7.714456E-1,-4.0162516E0,-1.4037447E0,2.9152423E-1,1.3061432E0,3.6610003E0,8.061228E0,-2.4519775E0,-5.052349E0,-1.4408634E0,-1.5126554E0,1.9276106E-1,-6.3527145E0,-2.8602912E0,1.9658916E0,-1.6581786E0,1.609675E-1,5.773262E0,1.7927248E0,-2.2857767E-1,3.0048482E0,5.119169E0,3.0471393E-1,-1.2249128E-3,-8.696472E-2,-3.2847386E-2,-1.6584997E-1,-1.0104407E-1,2.045271E-1,-6.447964E-2,-3.050873E-2,-9.439157E-2,2.381759E-2,-3.7192605E-2,-3.1996596E-1,-1.3568056E-1,-9.015845E-2,9.161573E-2,3.5613712E-2,2.0499308E-1,-8.0185525E-2,-2.7528284E-2,4.700051E-2,-6.0698823E-3,1.4078555E-1,1.377509E0,3.0541226E-2,7.584258E-2,-1.9446438E-2,5.823884E-2,9.231024E-2,2.3963317E-2,2.3072612E-1,1.1004435E-1],"categories":[],"categories_nodes":[],"categories_segments":[],"categories_sizes":[],"default_left":[0,0,0,0,0,0,0,0,0,0,0,0,0,0,0,0,0,0,0,0,0,0,0,0,0,0,0,0,0,0,0,0,0,0,0,0,0,0,0,0,0,0,0,0,0,0,0,0,0,0,0,0,0,0,0,0,0,0,0,0,0,0,0],"id":13,"left_children":[1,3,5,7,9,11,13,15,17,19,21,23,25,27,29,31,33,35,37,39,41,43,45,47,49,51,53,55,57,59,61,-1,-1,-1,-1,-1,-1,-1,-1,-1,-1,-1,-1,-1,-1,-1,-1,-1,-1,-1,-1,-1,-1,-1,-1,-1,-1,-1,-1,-1,-1,-1,-1],"loss_changes":[1.7515931E6,4.6014525E5,1.1486365E6,1.8511138E5,1.481319E5,2.971174E5,4.8966725E5,1.464776E5,6.5028375E4,1.6865581E5,4.0347547E4,1.3507997E5,2.1521388E5,2.29698E5,1.18459625E5,4.5197445E4,8.5181375E4,7.843225E4,6.0911906E4,8.823969E4,1.30986945E5,2.9304047E4,4.879254E4,3.7286875E4,1.2640297E5,2.0387867E5,4.796447E4,1.6549569E5,1.0404928E5,1.2018725E5,1.1319025E5,0E0,0E0,0E0,0E0,0E0,0E0,0E0,0E0,0E0,0E0,0E0,0E0,0E0,0E0,0E0,0E0,0E0,0E0,0E0,0E0,0E0,0E0,0E0,0E0,0E0,0E0,0E0,0E0,0E0,0E0,0E0,0E0],"parents":[2147483647,0,0,1,1,2,2,3,3,4,4,5,5,6,6,7,7,8,8,9,9,10,10,11,11,12,12,13,13,14,14,15,15,16,16,17,17,18,18,19,19,20,20,21,21,22,22,23,23,24,24,25,25,26,26,27,27,28,28,29,29,30,30],"right_children":[2,4,6,8,10,12,14,16,18,20,22,24,26,28,30,32,34,36,38,40,42,44,46,48,50,52,54,56,58,60,62,-1,-1,-1,-1,-1,-1,-1,-1,-1,-1,-1,-1,-1,-1,-1,-1,-1,-1,-1,-1,-1,-1,-1,-1,-1,-1,-1,-1,-1,-1,-1,-1],"split_conditions":[4.2804317E0,4.51879E0,5.662033E0,1E0,8.6E1,5.7125306E0,6.3E1,1.2480112E0,4.2804317E0,7E1,7E0,6E0,8.892988E0,4.4E1,6.4E1,2E0,7E1,2E0,1E1,6E0,7.9E1,1.6E1,6E0,5E0,2.9557624E0,5.875421E0,3E0,6.4E1,1E0,4.3E1,6.5E1,3.0471393E-1,-1.2249128E-3,-8.696472E-2,-3.2847386E-2,-1.6584997E-1,-1.0104407E-1,2.045271E-1,-6.447964E-2,-3.050873E-2,-9.439157E-2,2.381759E-2,-3.7192605E-2,-3.1996596E-1,-1.3568056E-1,-9.015845E-2,9.161573E-2,3.5613712E-2,2.0499308E-1,-8.0185525E-2,-2.7528284E-2,4.700051E-2,-6.0698823E-3,1.4078555E-1,1.377509E0,3.0541226E-2,7.584258E-2,-1.9446438E-2,5.823884E-2,9.231024E-2,2.3963317E-2,2.3072612E-1,1.1004435E-1],"split_indices":[2,1,1,24,9,2,9,1,1,9,10,7,2,9,8,16,9,20,7,16,9,7,16,7,1,2,25,8,26,8,8,0,0,0,0,0,0,0,0,0,0,0,0,0,0,0,0,0,0,0,0,0,0,0,0,0,0,0,0,0,0,0,0],"split_type":[0,0,0,0,0,0,0,0,0,0,0,0,0,0,0,0,0,0,0,0,0,0,0,0,0,0,0,0,0,0,0,0,0,0,0,0,0,0,0,0,0,0,0,0,0,0,0,0,0,0,0,0,0,0,0,0,0,0,0,0,0,0,0],"sum_hessian":[1.2695894E6,3.798813E5,8.897081E5,1.289402E5,2.509411E5,4.58262E5,4.314461E5,7.42652E4,5.4675E4,2.359824E5,1.49587E4,1.575411E5,3.007209E5,3.075836E5,1.238625E5,1.3469E3,7.29183E4,4.91221E4,5.5529E3,1.33419E5,1.025634E5,4.9465E3,1.00122E4,1.10588E4,1.464823E5,2.937285E5,6.9924E3,2.3354E5,7.40436E4,8.54301E4,3.84324E4,8.917E2,4.552E2,3.8333E4,3.45853E4,1.91435E4,2.99786E4,5.854E2,4.9675E3,1.181614E5,1.52576E4,7.06264E4,3.1937E4,6.161E2,4.3304E3,8.9862E3,1.026E3,1.01787E4,8.801E2,3.87358E4,1.077465E5,5.58659E4,2.378626E5,6.9757E3,1.67E1,1.599435E5,7.35965E4,6.09573E4,1.30863E4,6.39426E4,2.14875E4,5.7061E3,3.27263E4],"tree_param":{"num_deleted":"0","num_feature":"29","num_nodes":"63","size_leaf_vector":"1"}},{"base_weights":[-4.3672316E-2,-1.596466E0,8.671506E-1,-2.7506382E0,-2.694556E-1,-5.524644E-1,1.7256045E0,-4.059116E0,-1.3942738E0,-1.6018819E0,4.7984105E-1,-1.9079411E0,2.2734822E-1,3.4980968E-1,2.7041664E0,-5.2136583E0,-3.1108763E0,-8.443161E-1,-2.6253836E0,-1.145787E0,-5.15494E0,-6.728086E-1,1.1689041E0,-2.1730072E0,3.2747867E0,6.3345736E-1,-2.1737065E0,2.3565446E-1,6.9280853E0,2.206572E0,3.9796107E0,-1.5249315E-1,-9.8954104E-2,-4.899915E-3,-8.430821E-2,-4.4605132E-2,-3.6012735E-3,-3.8655538E-2,-1.21661715E-1,-1.2474202E-1,-1.7117476E-2,-1.1588979E-1,-3.0142015E-1,-2.3350919E-2,1.3444093E-1,5.116133E-2,5.008371E-3,-4.289372E-2,-1.1542634E-1,3.6250633E-1,6.7617774E-2,-3.0184297E-3,5.356325E-2,-8.069293E-2,1.0253894E-2,1.5305276E-2,-4.445792E-2,1.6603288E-1,1.6260875E0,6.820782E-2,9.543659E-3,6.1574277E-2,1.2601987E-1],"categories":[],"categories_nodes":[],"categories_segments":[],"categories_sizes":[],"default_left":[0,0,0,0,0,0,0,0,0,0,0,0,0,0,0,0,0,0,0,0,0,0,0,0,0,0,0,0,0,0,0,0,0,0,0,0,0,0,0,0,0,0,0,0,0,0,0,0,0,0,0,0,0,0,0,0,0,0,0,0,0,0,0],"id":14,"left_children":[1,3,5,7,9,11,13,15,17,19,21,23,25,27,29,31,33,35,37,39,41,43,45,47,49,51,53,55,57,59,61,-1,-1,-1,-1,-1,-1,-1,-1,-1,-1,-1,-1,-1,-1,-1,-1,-1,-1,-1,-1,-1,-1,-1,-1,-1,-1,-1,-1,-1,-1,-1,-1],"loss_changes":[1.7951891E6,7.187295E5,9.7497206E5,4.4540988E5,2.1794453E5,3.186704E5,6.71191E5,1.3979525E5,8.343089E4,1.2730909E5,1.1097775E5,1.5127375E5,1.8661558E5,1.5560003E5,1.848635E5,6.3996875E4,5.3453188E4,5.606767E4,9.200081E4,1.2341203E5,3.1856281E4,8.263918E4,7.4325234E4,1.1703131E5,3.4157023E4,1.863102E5,7.540977E4,1.5447442E5,5.755025E4,1.9953081E5,1.315385E5,0E0,0E0,0E0,0E0,0E0,0E0,0E0,0E0,0E0,0E0,0E0,0E0,0E0,0E0,0E0,0E0,0E0,0E0,0E0,0E0,0E0,0E0,0E0,0E0,0E0,0E0,0E0,0E0,0E0,0E0,0E0,0E0],"parents":[2147483647,0,0,1,1,2,2,3,3,4,4,5,5,6,6,7,7,8,8,9,9,10,10,11,11,12,12,13,13,14,14,15,15,16,16,17,17,18,18,19,19,20,20,21,21,22,22,23,23,24,24,25,25,26,26,27,27,28,28,29,29,30,30],"right_children":[2,4,6,8,10,12,14,16,18,20,22,24,26,28,30,32,34,36,38,40,42,44,46,48,50,52,54,56,58,60,62,-1,-1,-1,-1,-1,-1,-1,-1,-1,-1,-1,-1,-1,-1,-1,-1,-1,-1,-1,-1,-1,-1,-1,-1,-1,-1,-1,-1,-1,-1,-1,-1],"split_conditions":[4.7203217E0,5.7125306E0,4.7203217E0,5.662033E0,4.6774516E0,4.7203217E0,4.9564834E0,1E0,1.5E1,1.8E1,2.8E1,2E0,7.9E1,8.892988E0,6.4E1,4.2804317E0,1E1,3.9E1,2E0,2.3257809E0,4.391096E0,8.426636E0,4.4E1,7.9E1,2.3257809E0,7.2E1,6.4E1,7.9E1,3E0,4.4E1,1E0,-1.5249315E-1,-9.8954104E-2,-4.899915E-3,-8.430821E-2,-4.4605132E-2,-3.6012735E-3,-3.8655538E-2,-1.21661715E-1,-1.2474202E-1,-1.7117476E-2,-1.1588979E-1,-3.0142015E-1,-2.3350919E-2,1.3444093E-1,5.116133E-2,5.008371E-3,-4.289372E-2,-1.1542634E-1,3.6250633E-1,6.7617774E-2,-3.0184297E-3,5.356325E-2,-8.069293E-2,1.0253894E-2,1.5305276E-2,-4.445792E-2,1.6603288E-1,1.6260875E0,6.820782E-2,9.543659E-3,6.1574277E-2,1.2601987E-1],"split_indices":[2,1,0,0,0,1,1,25,12,12,7,25,7,2,8,1,7,7,15,2,0,0,8,8,0,7,8,8,25,8,14,0,0,0,0,0,0,0,0,0,0,0,0,0,0,0,0,0,0,0,0,0,0,0,0,0,0,0,0,0,0,0,0],"split_type":[0,0,0,0,0,0,0,0,0,0,0,0,0,0,0,0,0,0,0,0,0,0,0,0,0,0,0,0,0,0,0,0,0,0,0,0,0,0,0,0,0,0,0,0,0,0,0,0,0,0,0,0,0,0,0,0,0,0,0,0,0,0,0],"sum_hessian":[1.2692884E6,4.692677E5,8.000207E5,2.509763E5,2.182914E5,3.014751E5,4.985456E5,1.277398E5,1.232365E5,7.85711E4,1.397203E5,1.100982E5,1.913769E5,2.072169E5,2.913287E5,5.75972E4,7.01426E4,8.51875E4,3.8049E4,6.96363E4,8.9348E3,5.22749E4,8.74454E4,1.047431E5,5.3551E3,1.636928E5,2.76841E4,2.036855E5,3.5314E3,2.095751E5,8.17536E4,3.37593E4,2.38379E4,5.7743E3,6.43683E4,3.63684E4,4.88191E4,2.56858E4,1.23632E4,7.4551E3,6.21812E4,8.3143E3,6.205E2,5.01139E4,2.161E3,4.58762E4,4.15692E4,8.82397E4,1.65034E4,2.552E2,5.0999E3,1.091465E5,5.45463E4,1.96628E4,8.0213E3,1.71603E5,3.20825E4,3.5174E3,1.4E1,1.629762E5,4.65989E4,3.3659E4,4.80946E4],"tree_param":{"num_deleted":"0","num_feature":"29","num_nodes":"63","size_leaf_vector":"1"}},{"base_weights":[-2.603572E-2,-1.119099E0,1.1434091E0,-2.6557007E0,-2.1252187E-1,1.4996235E-1,2.315469E0,-3.782454E0,-1.3531623E0,-1.7763159E0,5.9516984E-1,-9.908292E-1,1.2444682E0,5.757903E-1,3.039574E0,-4.9189076E0,-2.8596027E0,1.1906724E0,-1.7553278E0,-3.6581752E0,-1.1411339E0,4.9083892E-1,6.50697E0,-1.5789692E0,3.4004372E-1,5.570346E-1,2.7384713E0,1.1202806E0,-1.8978846E0,1.4361844E0,3.3870113E0,-1.1789822E-1,-2.4000151E-1,-1.14054345E-1,-6.126842E-2,-8.516928E-2,4.783943E-2,-1.2477988E-1,-3.6908843E-2,-8.6072914E-2,-2.7024332E-1,1.61506E-2,-4.0303137E-2,-8.254866E-4,4.117633E-2,1.2333038E-1,3.5115567E-1,2.3830732E-2,-4.976899E-2,8.2980365E-2,-7.464044E-3,-1.6269578E-4,4.3408014E-2,1.16211034E-1,5.187924E-2,9.205667E-2,1.5603529E-2,-5.0002288E-2,1.3067474E0,2.6364842E-2,1.673937E-1,8.1283584E-2,1.8056174E-1],"categories":[],"categories_nodes":[],"categories_segments":[],"categories_sizes":[],"default_left":[0,0,0,0,0,0,0,0,0,0,0,0,0,0,0,0,0,0,0,0,0,0,0,0,0,0,0,0,0,0,0,0,0,0,0,0,0,0,0,0,0,0,0,0,0,0,0,0,0,0,0,0,0,0,0,0,0,0,0,0,0,0,0],"id":15,"left_children":[1,3,5,7,9,11,13,15,17,19,21,23,25,27,29,31,33,35,37,39,41,43,45,47,49,51,53,55,57,59,61,-1,-1,-1,-1,-1,-1,-1,-1,-1,-1,-1,-1,-1,-1,-1,-1,-1,-1,-1,-1,-1,-1,-1,-1,-1,-1,-1,-1,-1,-1,-1,-1],"loss_changes":[1.6230962E6,9.142674E5,7.1427706E5,3.57399E5,5.213717E5,4.1456972E5,3.5450225E5,1.3689638E5,1.1556995E5,1.6803144E5,1.6787056E5,1.27256984E5,1.7402381E5,1.11412445E5,1.10679125E5,5.5448625E4,5.0128625E4,5.1273586E4,8.802553E4,5.449E4,8.848275E4,1.6201117E5,5.577947E4,1.1757522E5,9.480448E4,7.712984E4,6.7614625E4,8.616291E4,8.289083E4,7.101159E4,8.4903875E4,0E0,0E0,0E0,0E0,0E0,0E0,0E0,0E0,0E0,0E0,0E0,0E0,0E0,0E0,0E0,0E0,0E0,0E0,0E0,0E0,0E0,0E0,0E0,0E0,0E0,0E0,0E0,0E0,0E0,0E0,0E0,0E0],"parents":[2147483647,0,0,1,1,2,2,3,3,4,4,5,5,6,6,7,7,8,8,9,9,10,10,11,11,12,12,13,13,14,14,15,15,16,16,17,17,18,18,19,19,20,20,21,21,22,22,23,23,24,24,25,25,26,26,27,27,28,28,29,29,30,30],"right_children":[2,4,6,8,10,12,14,16,18,20,22,24,26,28,30,32,34,36,38,40,42,44,46,48,50,52,54,56,58,60,62,-1,-1,-1,-1,-1,-1,-1,-1,-1,-1,-1,-1,-1,-1,-1,-1,-1,-1,-1,-1,-1,-1,-1,-1,-1,-1,-1,-1,-1,-1,-1,-1],"split_conditions":[5.662033E0,4.7203217E0,5.7125306E0,5.7125306E0,4.51879E0,5.5613503E0,4.210249E0,1E0,5.773804E0,5.7125306E0,8.892988E0,6.4E1,6.3E1,7.9E1,6E0,8.7E1,2.9557624E0,2E1,2.3257809E0,3E0,5.875421E0,6.4E1,3E0,1.6E1,6.7E1,6.4E1,5.875421E0,5.7808723E0,2E0,8.1E1,8.3E1,-1.1789822E-1,-2.4000151E-1,-1.14054345E-1,-6.126842E-2,-8.516928E-2,4.783943E-2,-1.2477988E-1,-3.6908843E-2,-8.6072914E-2,-2.7024332E-1,1.61506E-2,-4.0303137E-2,-8.254866E-4,4.117633E-2,1.2333038E-1,3.5115567E-1,2.3830732E-2,-4.976899E-2,8.2980365E-2,-7.464044E-3,-1.6269578E-4,4.3408014E-2,1.16211034E-1,5.187924E-2,9.205667E-2,1.5603529E-2,-5.0002288E-2,1.3067474E0,2.6364842E-2,1.673937E-1,8.1283584E-2,1.8056174E-1],"split_indices":[2,0,0,1,1,1,1,25,1,0,0,9,9,8,12,8,2,8,2,20,0,7,19,8,9,8,1,0,27,8,9,0,0,0,0,0,0,0,0,0,0,0,0,0,0,0,0,0,0,0,0,0,0,0,0,0,0,0,0,0,0,0,0],"split_type":[0,0,0,0,0,0,0,0,0,0,0,0,0,0,0,0,0,0,0,0,0,0,0,0,0,0,0,0,0,0,0,0,0,0,0,0,0,0,0,0,0,0,0,0,0,0,0,0,0,0,0,0,0,0,0,0,0,0,0,0,0,0,0],"sum_hessian":[1.2697469E6,6.56307E5,6.134399E5,2.435298E5,4.127772E5,3.320207E5,2.814192E5,1.305725E5,1.129573E5,1.405847E5,2.721925E5,1.625726E5,1.694481E5,8.27109E4,1.987083E5,5.85082E4,7.20643E4,1.5419E4,9.75383E4,3.5473E4,1.051117E5,2.674755E5,4.717E3,1.127473E5,4.98253E4,1.160533E5,5.33948E4,6.77911E4,1.49198E4,3.53926E4,1.633157E5,5.60826E4,2.4256E3,1.39485E4,5.81158E4,2.0934E3,1.33256E4,7.7374E3,8.98009E4,3.44409E4,1.0321E3,2.1923E4,8.31887E4,1.840763E5,8.33992E4,3.9066E3,8.104E2,1.57697E4,9.69776E4,8.7931E3,4.10322E4,7.85291E4,3.75242E4,1.37584E4,3.96364E4,1.09948E4,5.67963E4,1.48946E4,2.52E1,3.3002E4,2.3906E3,1.577418E5,5.5739E3],"tree_param":{"num_deleted":"0","num_feature":"29","num_nodes":"63","size_leaf_vector":"1"}},{"base_weights":[-4.107641E-3,-1.0124377E0,1.1918552E0,-2.5194666E0,-1.2687166E-1,-1.6173793E-1,1.9877099E0,-3.6701632E0,-1.1911454E0,-1.6066976E0,6.3806957E-1,-1.1905574E0,8.1544656E-1,1.687375E-1,2.740928E0,-4.7303004E0,-2.7864833E0,1.268621E0,-1.5841485E0,-3.444131E0,-1.0917895E0,5.215602E-1,7.246561E0,1.0602156E0,-1.7909989E0,1.1900637E0,-1.4296286E0,7.592075E-1,-2.4213955E0,2.2164187E0,4.0504575E0,-1.23027764E-1,1.8192982E-2,-9.004959E-2,-4.651467E-2,-3.840619E-2,6.436893E-2,-1.221106E-1,-3.285806E-2,-8.067085E-2,-2.4527259E-1,1.5880248E-2,-4.1269924E-2,-1.9474076E-2,2.4034973E-2,1.3563058E-1,3.9896208E-1,9.79714E-3,1.595401E-1,-4.864154E-2,8.895763E-2,9.474239E-3,6.2987365E-2,-5.40285E-2,3.3450317E-2,6.5030153E-3,1.00896776E-1,-7.8787535E-2,1.4084803E-2,4.58899E-2,1.11983456E-1,1.7080808E-1,8.015754E-2],"categories":[],"categories_nodes":[],"categories_segments":[],"categories_sizes":[],"default_left":[0,0,0,0,0,0,0,0,0,0,0,0,0,0,0,0,0,0,0,0,0,0,0,0,0,0,0,0,0,0,0,0,0,0,0,0,0,0,0,0,0,0,0,0,0,0,0,0,0,0,0,0,0,0,0,0,0,0,0,0,0,0,0],"id":16,"left_children":[1,3,5,7,9,11,13,15,17,19,21,23,25,27,29,31,33,35,37,39,41,43,45,47,49,51,53,55,57,59,61,-1,-1,-1,-1,-1,-1,-1,-1,-1,-1,-1,-1,-1,-1,-1,-1,-1,-1,-1,-1,-1,-1,-1,-1,-1,-1,-1,-1,-1,-1,-1,-1],"loss_changes":[1.5303671E6,9.1889306E5,6.253626E5,3.8951112E5,4.9093253E5,2.1609377E5,5.0085725E5,1.2787775E5,1.1436341E5,1.398089E5,2.2011538E5,1.41512E5,9.2720234E4,1.6373181E5,1.7753462E5,6.465925E4,5.6213625E4,5.9721812E4,9.080839E4,4.464725E4,1.11453625E5,1.6071447E5,7.831258E4,7.8413055E4,6.8404875E4,1.0186791E5,3.1926943E4,1.4256577E5,4.3318555E4,1.5904756E5,1.7353512E5,0E0,0E0,0E0,0E0,0E0,0E0,0E0,0E0,0E0,0E0,0E0,0E0,0E0,0E0,0E0,0E0,0E0,0E0,0E0,0E0,0E0,0E0,0E0,0E0,0E0,0E0,0E0,0E0,0E0,0E0,0E0,0E0],"parents":[2147483647,0,0,1,1,2,2,3,3,4,4,5,5,6,6,7,7,8,8,9,9,10,10,11,11,12,12,13,13,14,14,15,15,16,16,17,17,18,18,19,19,20,20,21,21,22,22,23,23,24,24,25,25,26,26,27,27,28,28,29,29,30,30],"right_children":[2,4,6,8,10,12,14,16,18,20,22,24,26,28,30,32,34,36,38,40,42,44,46,48,50,52,54,56,58,60,62,-1,-1,-1,-1,-1,-1,-1,-1,-1,-1,-1,-1,-1,-1,-1,-1,-1,-1,-1,-1,-1,-1,-1,-1,-1,-1,-1,-1,-1,-1,-1,-1],"split_conditions":[5.7125306E0,4.7203217E0,4.6774516E0,5.7125306E0,4.51879E0,5.5613503E0,4.210249E0,1E0,5.773804E0,5.662033E0,8.892988E0,5.8892326E0,7.9E1,7.9E1,6.4E1,4.391096E0,5.5E1,7E0,2.3257809E0,8.7E1,5.875421E0,2.9557624E0,3E0,3E0,8.892988E0,7E1,6.8E1,7.481224E0,2.1E1,8.26223E0,5.875421E0,-1.23027764E-1,1.8192982E-2,-9.004959E-2,-4.651467E-2,-3.840619E-2,6.436893E-2,-1.221106E-1,-3.285806E-2,-8.067085E-2,-2.4527259E-1,1.5880248E-2,-4.1269924E-2,-1.9474076E-2,2.4034973E-2,1.3563058E-1,3.9896208E-1,9.79714E-3,1.595401E-1,-4.864154E-2,8.895763E-2,9.474239E-3,6.2987365E-2,-5.40285E-2,3.3450317E-2,6.5030153E-3,1.00896776E-1,-7.8787535E-2,1.4084803E-2,4.58899E-2,1.11983456E-1,1.7080808E-1,8.015754E-2],"split_indices":[2,0,0,1,1,1,1,25,1,0,0,2,7,8,9,0,9,11,2,9,0,2,19,22,2,7,8,0,10,2,2,0,0,0,0,0,0,0,0,0,0,0,0,0,0,0,0,0,0,0,0,0,0,0,0,0,0,0,0,0,0,0,0],"split_type":[0,0,0,0,0,0,0,0,0,0,0,0,0,0,0,0,0,0,0,0,0,0,0,0,0,0,0,0,0,0,0,0,0,0,0,0,0,0,0,0,0,0,0,0,0,0,0,0,0,0,0,0,0,0,0,0,0,0,0,0,0,0,0],"sum_hessian":[1.2690338E6,6.885285E5,5.805052E5,2.548412E5,4.336873E5,2.149384E5,3.655668E5,1.365473E5,1.182939E5,1.477853E5,2.85902E5,1.04703E5,1.102354E5,1.070508E5,2.58516E5,6.20695E4,7.44778E4,1.62952E4,1.019987E5,3.23449E4,1.154404E5,2.809521E5,4.9499E3,2.20488E4,8.26542E4,9.44732E4,1.57622E4,8.71791E4,1.98717E4,1.845903E5,7.39257E4,5.99733E4,2.0962E3,3.95946E4,3.48832E4,5.1769E3,1.11183E4,7.7049E3,9.42938E4,3.12819E4,1.063E3,2.82287E4,8.72117E4,7.10035E4,2.099486E5,4.0981E3,8.518E2,1.95916E4,2.4572E3,8.03336E4,2.3206E3,5.86779E4,3.57953E4,1.24678E4,3.2944E3,7.56586E4,1.15205E4,1.59663E4,3.9054E3,1.580056E5,2.65847E4,1.72051E4,5.67206E4],"tree_param":{"num_deleted":"0","num_feature":"29","num_nodes":"63","size_leaf_vector":"1"}},{"base_weights":[-1.0725138E-2,-1.0153476E0,1.0475938E0,-2.528387E0,-1.3354076E-1,1.3022189E-1,2.0407593E0,-1.6715769E0,-3.8289473E0,-5.225685E-3,-4.0757365E0,-2.3818353E-1,1.7110165E0,2.1408691E0,-3.9094913E0,5.6867666E0,-1.7759621E0,-3.6541376E0,-7.926499E0,-4.5607945E-1,1.0753186E0,-3.4447103E0,-8.3780775E0,-4.1222385E-1,4.4400377E0,1.6327045E1,1.5946093E0,2.0263257E0,7.044519E0,-3.5394976E0,-1.9111254E1,1.625428E-1,-3.278273E-1,1.1739943E-2,-5.100706E-2,-7.900006E-2,-1.2750341E-1,-2.9458073E-1,-1.5549655E-1,5.457704E-3,-6.363729E-2,1.22644E-1,1.3092062E-2,-1.1554221E-1,-3.075066E-2,-3.1647414E-1,-1.4987491E-1,-1.3837593E-2,1.12355165E-1,1.2311926E-1,-2.4054782E-1,3.1578228E-1,8.1862164E-1,2.1782689E-2,7.609519E-2,3.931168E-2,7.519365E-2,6.1423726E-2,2.1908255E-1,-1.6991793E-1,-5.105257E-2,2.3745613E-1,-6.1142737E-1],"categories":[],"categories_nodes":[],"categories_segments":[],"categories_sizes":[],"default_left":[0,0,0,0,0,0,0,0,0,0,0,0,0,0,0,0,0,0,0,0,0,0,0,0,0,0,0,0,0,0,0,0,0,0,0,0,0,0,0,0,0,0,0,0,0,0,0,0,0,0,0,0,0,0,0,0,0,0,0,0,0,0,0],"id":17,"left_children":[1,3,5,7,9,11,13,15,17,19,21,23,25,27,29,31,33,35,37,39,41,43,45,47,49,51,53,55,57,59,61,-1,-1,-1,-1,-1,-1,-1,-1,-1,-1,-1,-1,-1,-1,-1,-1,-1,-1,-1,-1,-1,-1,-1,-1,-1,-1,-1,-1,-1,-1,-1,-1],"loss_changes":[1.349816E6,8.68975E5,5.63295E5,2.672125E5,2.081471E5,1.8717544E5,1.7686038E5,1.11078E5,6.8124625E4,1.9414877E5,3.5119594E4,2.1222662E5,1.0326133E5,1.6393588E5,2.741182E4,3.1243055E4,8.461919E4,6.5216625E4,2.5397484E4,3.9623262E5,2.4790398E5,2.9478578E4,1.6660617E4,1.7420581E5,6.386525E4,2.7823203E4,6.316367E4,1.270605E5,5.2462062E4,2.3362043E4,1.8450121E4,0E0,0E0,0E0,0E0,0E0,0E0,0E0,0E0,0E0,0E0,0E0,0E0,0E0,0E0,0E0,0E0,0E0,0E0,0E0,0E0,0E0,0E0,0E0,0E0,0E0,0E0,0E0,0E0,0E0,0E0,0E0,0E0],"parents":[2147483647,0,0,1,1,2,2,3,3,4,4,5,5,6,6,7,7,8,8,9,9,10,10,11,11,12,12,13,13,14,14,15,15,16,16,17,17,18,18,19,19,20,20,21,21,22,22,23,23,24,24,25,25,26,26,27,27,28,28,29,29,30,30],"right_children":[2,4,6,8,10,12,14,16,18,20,22,24,26,28,30,32,34,36,38,40,42,44,46,48,50,52,54,56,58,60,62,-1,-1,-1,-1,-1,-1,-1,-1,-1,-1,-1,-1,-1,-1,-1,-1,-1,-1,-1,-1,-1,-1,-1,-1,-1,-1,-1,-1,-1,-1,-1,-1],"split_conditions":[5.662033E0,4.7203217E0,5.662033E0,1E0,8.7E1,2.2E1,8.7E1,1.2480112E0,8.7E1,6.4E1,1E0,8.3E1,1.2480112E0,8.892988E0,8.781067E0,2E0,1E0,7.9E1,2.5854635E0,4.4E1,6.5E1,6.3E1,5.8892326E0,8.781067E0,1E0,2E0,1E0,6.4E1,2E1,2E1,5.747442E0,1.625428E-1,-3.278273E-1,1.1739943E-2,-5.100706E-2,-7.900006E-2,-1.2750341E-1,-2.9458073E-1,-1.5549655E-1,5.457704E-3,-6.363729E-2,1.22644E-1,1.3092062E-2,-1.1554221E-1,-3.075066E-2,-3.1647414E-1,-1.4987491E-1,-1.3837593E-2,1.12355165E-1,1.2311926E-1,-2.4054782E-1,3.1578228E-1,8.1862164E-1,2.1782689E-2,7.609519E-2,3.931168E-2,7.519365E-2,6.1423726E-2,2.1908255E-1,-1.6991793E-1,-5.105257E-2,2.3745613E-1,-6.1142737E-1],"split_indices":[0,1,1,24,7,10,9,1,9,8,26,7,1,1,1,26,18,8,1,8,8,9,1,0,23,22,25,8,7,8,0,0,0,0,0,0,0,0,0,0,0,0,0,0,0,0,0,0,0,0,0,0,0,0,0,0,0,0,0,0,0,0,0],"split_type":[0,0,0,0,0,0,0,0,0,0,0,0,0,0,0,0,0,0,0,0,0,0,0,0,0,0,0,0,0,0,0,0,0,0,0,0,0,0,0,0,0,0,0,0,0,0,0,0,0,0,0,0,0,0,0,0,0,0,0,0,0,0,0],"sum_hessian":[1.2695596E6,6.51303E5,6.182566E5,2.39814E5,4.11489E5,3.21394E5,2.968626E5,1.445752E5,9.52388E4,3.985207E5,1.29683E4,2.606511E5,6.07429E4,2.919527E5,4.9099E3,2.0199E3,1.425553E5,9.13476E4,3.8912E3,2.811953E5,1.173254E5,1.13144E4,1.6539E3,2.513049E5,9.3462E3,4.766E2,6.02663E4,2.85293E5,6.6597E3,4.7969E3,1.13E2,1.9379E3,8.2E1,1.50122E4,1.275431E5,6.80897E4,2.32579E4,1.1881E3,2.7031E3,2.125833E5,6.8612E4,1.47663E4,1.025591E5,7.3857E3,3.9287E3,5.867E2,1.0672E3,2.442739E5,7.031E3,9.0367E3,3.095E2,3.934E2,8.32E1,4.02051E4,2.00612E4,1.950846E5,9.02084E4,1.8172E3,4.8425E3,1.5072E3,3.2897E3,1.74E1,9.56E1],"tree_param":{"num_deleted":"0","num_feature":"29","num_nodes":"63","size_leaf_vector":"1"}},{"base_weights":[-1.5073693E-2,-1.4212999E0,7.2068226E-1,-2.4884298E0,-3.1858492E-1,-5.798533E-1,1.4822617E0,-1.6995785E0,-3.642766E0,6.738771E0,-4.0017205E-1,-1.0896138E0,7.1486634E-1,1.0617397E0,2.5988739E0,-2.0298014E0,1.6703706E0,-3.454273E0,-8.32104E0,2.811433E0,1.0277608E1,-1.1476699E0,3.0698544E-1,-4.2644066E-1,-2.3045015E0,4.7065735E0,1.1752873E-1,1.757354E0,-7.9122406E-1,1.3291013E0,3.6411638E0,1.01417676E-1,-5.3093296E-2,7.2707735E-2,-7.2511636E-2,-7.3368445E-2,-1.2175348E-1,-2.4023223E-1,-4.1093268E-2,1.20577894E-1,-2.7065143E-1,7.314444E-1,2.147141E-1,1.1701778E-2,-4.2987917E-2,2.1111974E-3,9.876009E-2,-1.798947E-2,5.5790313E-2,-4.3337345E-2,-1.18310824E-1,1.3109656E-1,-4.532678E-2,-8.6841835E-3,6.829267E-2,3.1802204E-2,7.2052635E-2,2.9711718E-2,-2.932692E-2,4.7355663E-2,-1.329653E-2,1.3930164E-1,7.8004025E-2],"categories":[],"categories_nodes":[],"categories_segments":[],"categories_sizes":[],"default_left":[0,0,0,0,0,0,0,0,0,0,0,0,0,0,0,0,0,0,0,0,0,0,0,0,0,0,0,0,0,0,0,0,0,0,0,0,0,0,0,0,0,0,0,0,0,0,0,0,0,0,0,0,0,0,0,0,0,0,0,0,0,0,0],"id":18,"left_children":[1,3,5,7,9,11,13,15,17,19,21,23,25,27,29,31,33,35,37,39,41,43,45,47,49,51,53,55,57,59,61,-1,-1,-1,-1,-1,-1,-1,-1,-1,-1,-1,-1,-1,-1,-1,-1,-1,-1,-1,-1,-1,-1,-1,-1,-1,-1,-1,-1,-1,-1,-1,-1],"loss_changes":[1.3138451E6,5.132748E5,8.2572075E5,2.0182962E5,1.2352188E5,2.032107E5,2.4687412E5,1.465566E5,7.92555E4,3.397707E4,1.1210281E5,1.779821E5,2.0738958E5,4.92313E5,1.9034688E5,6.859306E4,6.653375E4,6.3583688E4,2.9903672E4,3.2148469E4,4.051983E4,9.526022E4,8.835526E4,1.1135628E5,1.0811741E5,3.9690047E4,9.1957766E4,1.5155406E5,7.881266E4,6.820323E4,7.940825E4,0E0,0E0,0E0,0E0,0E0,0E0,0E0,0E0,0E0,0E0,0E0,0E0,0E0,0E0,0E0,0E0,0E0,0E0,0E0,0E0,0E0,0E0,0E0,0E0,0E0,0E0,0E0,0E0,0E0,0E0,0E0,0E0],"parents":[2147483647,0,0,1,1,2,2,3,3,4,4,5,5,6,6,7,7,8,8,9,9,10,10,11,11,12,12,13,13,14,14,15,15,16,16,17,17,18,18,19,19,20,20,21,21,22,22,23,23,24,24,25,25,26,26,27,27,28,28,29,29,30,30],"right_children":[2,4,6,8,10,12,14,16,18,20,22,24,26,28,30,32,34,36,38,40,42,44,46,48,50,52,54,56,58,60,62,-1,-1,-1,-1,-1,-1,-1,-1,-1,-1,-1,-1,-1,-1,-1,-1,-1,-1,-1,-1,-1,-1,-1,-1,-1,-1,-1,-1,-1,-1,-1,-1],"split_conditions":[4.51879E0,5.662033E0,4.6774516E0,1E0,1.2480112E0,6.4E1,6.4E1,2.4E1,8.7E1,4.3E1,1E0,1E0,6.5E1,4.4E1,1E0,1.2480112E0,7.5E1,7.9E1,4.2804317E0,1E0,5E1,5.875421E0,2.3E1,2.3E1,4.8E1,2.3E1,8.3E1,6.4E1,4.6774516E0,1E0,6.5E1,1.01417676E-1,-5.3093296E-2,7.2707735E-2,-7.2511636E-2,-7.3368445E-2,-1.2175348E-1,-2.4023223E-1,-4.1093268E-2,1.20577894E-1,-2.7065143E-1,7.314444E-1,2.147141E-1,1.1701778E-2,-4.2987917E-2,2.1111974E-3,9.876009E-2,-1.798947E-2,5.5790313E-2,-4.3337345E-2,-1.18310824E-1,1.3109656E-1,-4.532678E-2,-8.6841835E-3,6.829267E-2,3.1802204E-2,7.2052635E-2,2.9711718E-2,-2.932692E-2,4.7355663E-2,-1.329653E-2,1.3930164E-1,7.8004025E-2],"split_indices":[1,0,0,24,1,8,8,12,9,9,25,24,8,8,14,1,8,8,1,24,9,0,12,12,8,12,8,7,1,24,8,0,0,0,0,0,0,0,0,0,0,0,0,0,0,0,0,0,0,0,0,0,0,0,0,0,0,0,0,0,0,0,0],"split_type":[0,0,0,0,0,0,0,0,0,0,0,0,0,0,0,0,0,0,0,0,0,0,0,0,0,0,0,0,0,0,0,0,0,0,0,0,0,0,0,0,0,0,0,0,0,0,0,0,0,0,0,0,0,0,0,0,0,0,0,0,0,0,0],"sum_hessian":[1.2698516E6,4.361846E5,8.33667E5,2.216667E5,2.145179E5,3.078894E5,5.257776E5,1.316843E5,8.99824E4,2.4487E3,2.120692E5,2.209123E5,8.69771E4,3.819426E5,1.43835E5,1.199334E5,1.17509E4,8.65025E4,3.4799E3,1.1633E3,1.2854E3,1.030937E5,1.089755E5,1.429077E5,7.80046E4,1.13186E4,7.56585E4,2.776948E5,1.042478E5,6.4845E4,7.899E4,1.8207E3,1.181127E5,9.2476E3,2.5033E3,6.32891E4,2.32134E4,2.9159E3,5.64E2,1.0155E3,1.478E2,1.01E2,1.1844E3,2.6949E4,7.61447E4,1.027056E5,6.2699E3,1.287151E5,1.41926E4,6.31567E4,1.48479E4,1.04575E4,8.611E2,6.42371E4,1.14214E4,1.940014E5,8.36934E4,1.68551E4,8.73927E4,4.97405E4,1.51045E4,1.6778E4,6.2212E4],"tree_param":{"num_deleted":"0","num_feature":"29","num_nodes":"63","size_leaf_vector":"1"}},{"base_weights":[3.5812978E-2,-9.9889755E-1,1.2621875E0,-2.385245E0,-1.8268171E-1,3.7753913E-1,2.309686E0,-3.4156E0,-1.1897899E0,-1.555345E0,5.27018E-1,-5.583094E-1,1.3504995E0,1.0501697E0,3.0809786E0,-4.4041014E0,-2.593979E0,-9.281719E-1,-5.0816097E0,-2.3710485E0,-7.1783257E-1,-1.6985409E-1,1.3894331E0,-1.1213233E0,7.8952324E-1,1.0283414E0,4.164462E0,9.48957E0,9.411658E-1,2.4225059E0,4.644275E0,-1.376751E-1,-9.343224E-2,-1.2823789E-1,-5.8546066E-2,-1.23265974E-1,-1.5894802E-2,-1.00804105E-1,-2.0812033E-1,-3.9321583E-2,-8.907481E-2,-2.7524538E-3,-9.442056E-2,6.458382E-4,-8.0392085E-2,3.824737E-2,-1.2820645E-1,-3.2760452E-2,1.1036929E-1,-9.398576E-3,5.606064E-2,-1.4146618E-2,4.0368717E-2,1.15949966E-1,-7.254096E-2,-8.1891544E-2,3.1895977E-1,1.3193406E-2,7.077668E-2,1.0990947E-1,4.832548E-2,1.7883651E-1,8.2910046E-2],"categories":[],"categories_nodes":[],"categories_segments":[],"categories_sizes":[],"default_left":[0,0,0,0,0,0,0,0,0,0,0,0,0,0,0,0,0,0,0,0,0,0,0,0,0,0,0,0,0,0,0,0,0,0,0,0,0,0,0,0,0,0,0,0,0,0,0,0,0,0,0,0,0,0,0,0,0,0,0,0,0,0,0],"id":19,"left_children":[1,3,5,7,9,11,13,15,17,19,21,23,25,27,29,31,33,35,37,39,41,43,45,47,49,51,53,55,57,59,61,-1,-1,-1,-1,-1,-1,-1,-1,-1,-1,-1,-1,-1,-1,-1,-1,-1,-1,-1,-1,-1,-1,-1,-1,-1,-1,-1,-1,-1,-1,-1,-1],"loss_changes":[1.6116698E6,7.794987E5,5.385876E5,3.1442262E5,4.224053E5,2.869195E5,2.585035E5,1.113135E5,1.2030528E5,1.0094853E5,1.7177956E5,1.2188713E5,1.4003494E5,9.2945016E4,1.6985288E5,4.5694875E4,4.7829094E4,1.29575055E5,2.5221828E4,7.1202E4,1.3555578E5,9.422709E4,1.1696495E5,1.186168E5,8.01412E4,1.2959742E5,5.3139688E4,5.389436E4,7.796123E4,1.1217706E5,1.62884E5,0E0,0E0,0E0,0E0,0E0,0E0,0E0,0E0,0E0,0E0,0E0,0E0,0E0,0E0,0E0,0E0,0E0,0E0,0E0,0E0,0E0,0E0,0E0,0E0,0E0,0E0,0E0,0E0,0E0,0E0,0E0,0E0],"parents":[2147483647,0,0,1,1,2,2,3,3,4,4,5,5,6,6,7,7,8,8,9,9,10,10,11,11,12,12,13,13,14,14,15,15,16,16,17,17,18,18,19,19,20,20,21,21,22,22,23,23,24,24,25,25,26,26,27,27,28,28,29,29,30,30],"right_children":[2,4,6,8,10,12,14,16,18,20,22,24,26,28,30,32,34,36,38,40,42,44,46,48,50,52,54,56,58,60,62,-1,-1,-1,-1,-1,-1,-1,-1,-1,-1,-1,-1,-1,-1,-1,-1,-1,-1,-1,-1,-1,-1,-1,-1,-1,-1,-1,-1,-1,-1,-1,-1],"split_conditions":[5.7125306E0,4.7203217E0,5.7125306E0,5.7125306E0,4.51879E0,5.662033E0,4.6774516E0,1E0,2.2E1,6.6E1,4.2804317E0,6.4E1,8.26223E0,1.2480112E0,6.3E1,3.8002756E0,2.3412495E0,2.3257809E0,4.210249E0,1.3E1,5E0,8.6E1,2.2E1,8.892988E0,2E0,2.9557624E0,1E0,1E0,2.2E1,5.8892326E0,6.111052E0,-1.376751E-1,-9.343224E-2,-1.2823789E-1,-5.8546066E-2,-1.23265974E-1,-1.5894802E-2,-1.00804105E-1,-2.0812033E-1,-3.9321583E-2,-8.907481E-2,-2.7524538E-3,-9.442056E-2,6.458382E-4,-8.0392085E-2,3.824737E-2,-1.2820645E-1,-3.2760452E-2,1.1036929E-1,-9.398576E-3,5.606064E-2,-1.4146618E-2,4.0368717E-2,1.15949966E-1,-7.254096E-2,-8.1891544E-2,3.1895977E-1,1.3193406E-2,7.077668E-2,1.0990947E-1,4.832548E-2,1.7883651E-1,8.2910046E-2],"split_indices":[2,0,1,1,1,0,0,25,12,8,2,9,2,0,9,2,2,2,0,12,17,9,12,2,20,1,23,20,12,1,2,0,0,0,0,0,0,0,0,0,0,0,0,0,0,0,0,0,0,0,0,0,0,0,0,0,0,0,0,0,0,0,0],"split_type":[0,0,0,0,0,0,0,0,0,0,0,0,0,0,0,0,0,0,0,0,0,0,0,0,0,0,0,0,0,0,0,0,0,0,0,0,0,0,0,0,0,0,0,0,0,0,0,0,0,0,0,0,0,0,0,0,0,0,0,0,0,0,0],"sum_hessian":[1.2700826E6,6.888714E5,5.812112E5,2.552763E5,4.335951E5,3.151018E5,2.661094E5,1.371024E5,1.181739E5,1.477747E5,2.858204E5,1.606143E5,1.544875E5,1.010703E5,1.650391E5,6.22249E4,7.48775E4,1.10734E5,7.4399E3,7.48588E4,7.29159E4,1.580832E5,1.277372E5,1.132915E5,4.73228E4,1.386217E5,1.58658E4,1.2854E3,9.97849E4,1.161317E5,4.89074E4,2.34371E4,3.87878E4,6.7669E3,6.81106E4,7.535E3,1.03199E5,5.6263E3,1.8136E3,4.48396E4,3.00192E4,6.08334E4,1.20825E4,1.485424E5,9.5408E3,1.250448E5,2.6924E3,1.09552E5,3.7395E3,2.62598E4,2.1063E4,3.72776E4,1.013441E5,1.48704E4,9.954E2,2.62E2,1.0234E3,8.18778E4,1.79071E4,2.30711E4,9.30606E4,1.69204E4,3.1987E4],"tree_param":{"num_deleted":"0","num_feature":"29","num_nodes":"63","size_leaf_vector":"1"}},{"base_weights":[3.5409033E-2,-1.3770907E0,8.3330244E-1,-2.3537512E0,-2.5685185E-1,-7.5338736E-2,1.8948519E0,-3.4727361E0,-1.1926129E0,-1.4792483E0,4.2535582E-1,-1.1366816E0,9.370044E-1,8.125533E-1,2.670573E0,-4.462514E0,-2.617731E0,-4.9050564E-1,-2.4364958E0,6.1715713E0,-1.6604967E0,7.9465246E-1,-1.6789088E0,-4.4583535E-1,-2.3688552E0,3.713143E-1,2.3572361E0,1.5875161E0,-3.1810665E-1,2.0550578E0,4.343036E0,-6.914767E-2,-1.2714402E-1,-9.7462915E-2,-4.8120417E-2,-1.7671123E-2,1.5066725E-1,-1.1049453E-1,-4.2520415E-2,6.494596E-1,1.1263453E-1,-1.2362076E-1,-3.0660693E-2,-1.8250555E-3,6.0184445E-2,-6.75539E-2,1.2827604E-2,-4.7505733E-2,1.7208111E-3,-7.282174E-2,-1.8922655E-2,2.1775898E-2,-3.3633694E-2,2.93383E-2,8.4677E-2,2.7216598E-2,1.2324915E-1,2.0314184E-1,-1.2597146E-2,4.7835823E-2,1.974401E-1,5.5495735E-2,1.2989917E-1],"categories":[],"categories_nodes":[],"categories_segments":[],"categories_sizes":[],"default_left":[0,0,0,0,0,0,0,0,0,0,0,0,0,0,0,0,0,0,0,0,0,0,0,0,0,0,0,0,0,0,0,0,0,0,0,0,0,0,0,0,0,0,0,0,0,0,0,0,0,0,0,0,0,0,0,0,0,0,0,0,0,0,0],"id":20,"left_children":[1,3,5,7,9,11,13,15,17,19,21,23,25,27,29,31,33,35,37,39,41,43,45,47,49,51,53,55,57,59,61,-1,-1,-1,-1,-1,-1,-1,-1,-1,-1,-1,-1,-1,-1,-1,-1,-1,-1,-1,-1,-1,-1,-1,-1,-1,-1,-1,-1,-1,-1,-1,-1],"loss_changes":[1.4321985E6,5.0187538E5,7.832905E5,3.183925E5,1.7817798E5,4.701214E5,3.144225E5,1.05568625E5,1.0503136E5,1.061525E5,1.0656666E5,1.818244E5,1.79914E5,1.3701344E5,2.245435E5,6.11055E4,5.940125E4,1.0840598E5,6.3284453E4,5.809068E4,1.0656006E5,1.6324216E5,4.5928066E4,1.02454234E5,6.728269E4,1.3739448E5,7.774566E4,1.5467486E5,9.976116E4,1.3190319E5,1.06236125E5,0E0,0E0,0E0,0E0,0E0,0E0,0E0,0E0,0E0,0E0,0E0,0E0,0E0,0E0,0E0,0E0,0E0,0E0,0E0,0E0,0E0,0E0,0E0,0E0,0E0,0E0,0E0,0E0,0E0,0E0,0E0,0E0],"parents":[2147483647,0,0,1,1,2,2,3,3,4,4,5,5,6,6,7,7,8,8,9,9,10,10,11,11,12,12,13,13,14,14,15,15,16,16,17,17,18,18,19,19,20,20,21,21,22,22,23,23,24,24,25,25,26,26,27,27,28,28,29,29,30,30],"right_children":[2,4,6,8,10,12,14,16,18,20,22,24,26,28,30,32,34,36,38,40,42,44,46,48,50,52,54,56,58,60,62,-1,-1,-1,-1,-1,-1,-1,-1,-1,-1,-1,-1,-1,-1,-1,-1,-1,-1,-1,-1,-1,-1,-1,-1,-1,-1,-1,-1,-1,-1,-1,-1],"split_conditions":[4.6774516E0,5.7125306E0,5.7125306E0,5.662033E0,4.6774516E0,5.5613503E0,4.9564834E0,1E0,1E0,2.2007878E0,7.9E1,1E0,6.3E1,1.3E1,6.4E1,1E0,4.6E1,8.3E1,2.9557624E0,5.7288713E0,2.3257809E0,7E1,6.3E1,5.7125306E0,6.4E1,4.3E1,1E0,2.2E1,1.2480112E0,8.892988E0,5.747442E0,-6.914767E-2,-1.2714402E-1,-9.7462915E-2,-4.8120417E-2,-1.7671123E-2,1.5066725E-1,-1.1049453E-1,-4.2520415E-2,6.494596E-1,1.1263453E-1,-1.2362076E-1,-3.0660693E-2,-1.8250555E-3,6.0184445E-2,-6.75539E-2,1.2827604E-2,-4.7505733E-2,1.7208111E-3,-7.282174E-2,-1.8922655E-2,2.1775898E-2,-3.3633694E-2,2.93383E-2,8.4677E-2,2.7216598E-2,1.2324915E-1,2.0314184E-1,-1.2597146E-2,4.7835823E-2,1.974401E-1,5.5495735E-2,1.2989917E-1],"split_indices":[2,1,0,0,0,1,1,25,24,0,9,24,9,11,9,20,9,7,1,1,2,9,8,2,9,9,15,12,1,0,1,0,0,0,0,0,0,0,0,0,0,0,0,0,0,0,0,0,0,0,0,0,0,0,0,0,0,0,0,0,0,0,0],"split_type":[0,0,0,0,0,0,0,0,0,0,0,0,0,0,0,0,0,0,0,0,0,0,0,0,0,0,0,0,0,0,0,0,0,0,0,0,0,0,0,0,0,0,0,0,0,0,0,0,0,0,0,0,0,0,0,0,0,0,0,0,0,0,0],"sum_hessian":[1.2707731E6,4.587143E5,8.120588E5,2.450595E5,2.136548E5,4.375428E5,3.74516E5,1.247916E5,1.202679E5,7.65279E4,1.371269E5,2.136022E5,2.239406E5,1.56363E5,2.18153E5,5.78311E4,6.69605E4,7.68787E4,4.33892E4,1.7686E3,7.47593E4,1.166561E5,2.04708E4,1.368685E5,7.67337E4,1.601542E5,6.37864E4,9.27743E4,6.35887E4,1.594704E5,5.86826E4,1.55415E4,4.22896E4,2.35028E4,4.34577E4,7.44114E4,2.4673E3,1.17356E4,3.16536E4,1.338E2,1.6348E3,8.7232E3,6.60361E4,7.58505E4,4.08056E4,1.39558E4,6.515E3,3.57726E4,1.010959E5,5.73693E4,1.93644E4,1.240462E5,3.6108E4,2.96797E4,3.41067E4,8.07298E4,1.20445E4,1.3661E3,6.22226E4,1.557003E5,3.7701E3,1.68212E4,4.18614E4],"tree_param":{"num_deleted":"0","num_feature":"29","num_nodes":"63","size_leaf_vector":"1"}},{"base_weights":[-4.4616433E-3,-1.2041968E0,7.1129537E-1,-6.618374E-1,-2.1736453E0,1.2110603E0,-3.7457493E-1,-9.076889E-1,1.4536434E0,-2.0112038E0,-5.539346E0,1.125149E0,5.5283237E0,-1.8026205E-2,-2.13751E0,4.8138475E0,-9.974072E-1,-1.6322358E-1,2.6365917E0,-2.8899252E0,-1.4091486E0,-4.9720507E0,-1.607435E1,7.090532E-1,2.0028582E0,6.3387694E0,6.8975955E-1,-4.5547912E-1,1.6436001E0,-2.175014E0,4.7420578E1,1.456309E-1,-2.1722601E-1,-1.7163433E-2,-6.438694E-2,1.072007E-1,-4.7819346E-2,1.2249023E-1,1.698493E-2,8.938764E-2,-7.731028E-2,-3.0410243E-2,-1.2478577E-1,-1.603589E-1,-5.4731596E-2,-1.9031386E-1,-4.819753E-1,3.022405E-2,-1.2397089E-2,1.131308E-1,4.015199E-2,2.142661E-1,1.17971085E-1,-1.251391E-1,1.4467432E-1,-2.9414091E-2,1.6881954E-2,1.2244739E-2,7.872015E-2,-6.942998E-2,9.920857E-3,4.108503E-2,2.0676677E0],"categories":[],"categories_nodes":[],"categories_segments":[],"categories_sizes":[],"default_left":[0,0,0,0,0,0,0,0,0,0,0,0,0,0,0,0,0,0,0,0,0,0,0,0,0,0,0,0,0,0,0,0,0,0,0,0,0,0,0,0,0,0,0,0,0,0,0,0,0,0,0,0,0,0,0,0,0,0,0,0,0,0,0],"id":21,"left_children":[1,3,5,7,9,11,13,15,17,19,21,23,25,27,29,31,33,35,37,39,41,43,45,47,49,51,53,55,57,59,61,-1,-1,-1,-1,-1,-1,-1,-1,-1,-1,-1,-1,-1,-1,-1,-1,-1,-1,-1,-1,-1,-1,-1,-1,-1,-1,-1,-1,-1,-1,-1,-1],"loss_changes":[1.0902901E6,2.4944638E5,4.315602E5,1.5823527E5,9.301444E4,2.0196612E5,1.5754747E5,1.399252E5,6.059014E4,8.588419E4,4.656539E4,1.9500538E5,4.1644844E4,1.5154547E5,7.864111E4,5.7622273E4,1.3164153E5,1.0427026E5,8.101004E4,8.645419E4,6.650791E4,2.9806375E4,1.0355242E4,2.1820516E5,1.7184062E5,3.27685E4,4.443998E4,1.345708E5,7.545134E4,6.5261516E4,5.121432E4,0E0,0E0,0E0,0E0,0E0,0E0,0E0,0E0,0E0,0E0,0E0,0E0,0E0,0E0,0E0,0E0,0E0,0E0,0E0,0E0,0E0,0E0,0E0,0E0,0E0,0E0,0E0,0E0,0E0,0E0,0E0,0E0],"parents":[2147483647,0,0,1,1,2,2,3,3,4,4,5,5,6,6,7,7,8,8,9,9,10,10,11,11,12,12,13,13,14,14,15,15,16,16,17,17,18,18,19,19,20,20,21,21,22,22,23,23,24,24,25,25,26,26,27,27,28,28,29,29,30,30],"right_children":[2,4,6,8,10,12,14,16,18,20,22,24,26,28,30,32,34,36,38,40,42,44,46,48,50,52,54,56,58,60,62,-1,-1,-1,-1,-1,-1,-1,-1,-1,-1,-1,-1,-1,-1,-1,-1,-1,-1,-1,-1,-1,-1,-1,-1,-1,-1,-1,-1,-1,-1,-1,-1],"split_conditions":[4.7203217E0,1E0,1E0,2.3E1,8.7E1,8.892988E0,7.8E1,1.2480112E0,5.8E1,2.9557624E0,8.2E1,6.4E1,2E1,1.8E1,2E0,1E0,1E0,3.5E1,6.5E1,3E0,8.7E1,4E0,3.6E1,4.3E1,6.5E1,9.726297E0,5.1E1,1E0,5.8E1,1E0,8E1,1.456309E-1,-2.1722601E-1,-1.7163433E-2,-6.438694E-2,1.072007E-1,-4.7819346E-2,1.2249023E-1,1.698493E-2,8.938764E-2,-7.731028E-2,-3.0410243E-2,-1.2478577E-1,-1.603589E-1,-5.4731596E-2,-1.9031386E-1,-4.819753E-1,3.022405E-2,-1.2397089E-2,1.131308E-1,4.015199E-2,2.142661E-1,1.17971085E-1,-1.251391E-1,1.4467432E-1,-2.9414091E-2,1.6881954E-2,1.2244739E-2,7.872015E-2,-6.942998E-2,9.920857E-3,4.108503E-2,2.0676677E0],"split_indices":[0,24,24,11,9,0,8,0,8,0,8,7,11,11,27,27,26,8,8,9,8,17,7,7,7,0,8,25,8,28,8,0,0,0,0,0,0,0,0,0,0,0,0,0,0,0,0,0,0,0,0,0,0,0,0,0,0,0,0,0,0,0,0],"split_type":[0,0,0,0,0,0,0,0,0,0,0,0,0,0,0,0,0,0,0,0,0,0,0,0,0,0,0,0,0,0,0,0,0,0,0,0,0,0,0,0,0,0,0,0,0,0,0,0,0,0,0,0,0,0,0,0,0,0,0,0,0,0,0],"sum_hessian":[1.2696642E6,4.744318E5,7.952324E5,3.042337E5,1.701981E5,5.445891E5,2.506433E5,2.725601E5,3.16736E4,1.623667E5,7.8314E3,5.339674E5,1.06217E4,2.084819E5,4.21614E4,4.2054E3,2.683547E5,1.33832E4,1.82904E4,6.601E4,9.63567E4,7.4355E3,3.959E2,3.622444E5,1.71723E5,9.0969E3,1.5248E3,1.650359E5,4.3446E4,4.21324E4,2.9E1,3.914E3,2.914E2,2.241946E5,4.41601E4,3.7747E3,9.6085E3,8.4802E3,9.8102E3,2.0029E3,6.40071E4,9.14411E4,4.9156E3,4.8945E3,2.541E3,1.116E2,2.843E2,2.560246E5,1.062198E5,2.33365E4,1.483865E5,3.8202E3,5.2767E3,7.201E2,8.047E2,1.007733E5,6.42626E4,2.45963E4,1.88497E4,3.4139E4,7.9934E3,1.4E1,1.5E1],"tree_param":{"num_deleted":"0","num_feature":"29","num_nodes":"63","size_leaf_vector":"1"}},{"base_weights":[1.8796355E-2,-9.444224E-1,1.159405E0,-2.181312E0,-2.1563785E-1,3.1823838E-1,2.0656006E0,-3.43455E0,-1.760754E0,-8.769217E-1,6.021885E-1,2.2502096E0,-1.2217838E-1,2.5003428E0,8.360053E-1,7.817747E0,-3.6209145E0,-2.282691E0,-5.348069E-1,-5.139156E-1,-2.4553192E0,8.9164786E-2,2.0477593E0,1.0979033E0,3.9924288E0,-2.569731E-1,4.4136395E0,2.3799484E0,7.370532E0,1.0689665E0,-2.7437968E0,5.3627354E-1,1.3447319E-1,-1.01892054E-1,-7.0548863E-3,-2.4983417E-2,-8.0868654E-2,-2.9465714E-2,6.3983515E-2,-3.1154392E-2,2.850467E-2,-5.417311E-2,-1.9042942E-1,3.778527E-2,-3.0861655E-2,2.3555173E-2,1.0860167E-1,-2.1844387E-2,6.264659E-2,1.6846517E-1,7.898168E-2,-2.2219326E-2,1.816561E-2,3.2074828E-2,1.6680887E-1,9.512431E-2,4.9575087E-2,3.030128E-1,1.4749922E-1,-2.3009745E-2,3.8304117E-2,-7.5345E-2,2.0944793E0],"categories":[],"categories_nodes":[],"categories_segments":[],"categories_sizes":[],"default_left":[0,0,0,0,0,0,0,0,0,0,0,0,0,0,0,0,0,0,0,0,0,0,0,0,0,0,0,0,0,0,0,0,0,0,0,0,0,0,0,0,0,0,0,0,0,0,0,0,0,0,0,0,0,0,0,0,0,0,0,0,0,0,0],"id":22,"left_children":[1,3,5,7,9,11,13,15,17,19,21,23,25,27,29,31,33,35,37,39,41,43,45,47,49,51,53,55,57,59,61,-1,-1,-1,-1,-1,-1,-1,-1,-1,-1,-1,-1,-1,-1,-1,-1,-1,-1,-1,-1,-1,-1,-1,-1,-1,-1,-1,-1,-1,-1,-1,-1],"loss_changes":[1.395763E6,6.208751E5,4.4336888E5,1.3457062E5,2.3439692E5,2.5667211E5,1.4966862E5,1.3462612E5,1.223425E5,1.3730114E5,1.4370097E5,1.1240772E5,1.5019586E5,1.21231375E5,6.100687E4,3.4417395E4,9.582525E4,1.6384656E5,1.1375863E5,2.3599831E5,6.664528E4,2.6924412E5,1.2883433E5,9.3591695E4,5.093322E4,1.482585E5,5.010092E4,1.14165E5,3.4618562E4,6.328908E4,1.0511398E5,0E0,0E0,0E0,0E0,0E0,0E0,0E0,0E0,0E0,0E0,0E0,0E0,0E0,0E0,0E0,0E0,0E0,0E0,0E0,0E0,0E0,0E0,0E0,0E0,0E0,0E0,0E0,0E0,0E0,0E0,0E0,0E0],"parents":[2147483647,0,0,1,1,2,2,3,3,4,4,5,5,6,6,7,7,8,8,9,9,10,10,11,11,12,12,13,13,14,14,15,15,16,16,17,17,18,18,19,19,20,20,21,21,22,22,23,23,24,24,25,25,26,26,27,27,28,28,29,29,30,30],"right_children":[2,4,6,8,10,12,14,16,18,20,22,24,26,28,30,32,34,36,38,40,42,44,46,48,50,52,54,56,58,60,62,-1,-1,-1,-1,-1,-1,-1,-1,-1,-1,-1,-1,-1,-1,-1,-1,-1,-1,-1,-1,-1,-1,-1,-1,-1,-1,-1,-1,-1,-1,-1,-1],"split_conditions":[5.7125306E0,4.7203217E0,5.662033E0,2.9557624E0,4.2804317E0,5.875421E0,1E0,1.2480112E0,7E1,7.9E1,6.1E1,5.3E1,8.892988E0,8.892988E0,8.7E1,2.281116E0,3E0,2.6E1,2.1E1,7.2E1,3E0,2.6E1,6.3E1,1E0,2.4E1,1.5E1,3.94736E0,5.7808723E0,2.2E1,6E0,2E0,5.3627354E-1,1.3447319E-1,-1.01892054E-1,-7.0548863E-3,-2.4983417E-2,-8.0868654E-2,-2.9465714E-2,6.3983515E-2,-3.1154392E-2,2.850467E-2,-5.417311E-2,-1.9042942E-1,3.778527E-2,-3.0861655E-2,2.3555173E-2,1.0860167E-1,-2.1844387E-2,6.264659E-2,1.6846517E-1,7.898168E-2,-2.2219326E-2,1.816561E-2,3.2074828E-2,1.6680887E-1,9.512431E-2,4.9575087E-2,3.030128E-1,1.4749922E-1,-2.3009745E-2,3.8304117E-2,-7.5345E-2,2.0944793E0],"split_indices":[2,0,0,2,2,2,24,0,9,9,9,9,2,0,8,2,22,9,11,9,20,9,7,25,7,12,0,0,8,12,27,0,0,0,0,0,0,0,0,0,0,0,0,0,0,0,0,0,0,0,0,0,0,0,0,0,0,0,0,0,0,0,0],"split_type":[0,0,0,0,0,0,0,0,0,0,0,0,0,0,0,0,0,0,0,0,0,0,0,0,0,0,0,0,0,0,0,0,0,0,0,0,0,0,0,0,0,0,0,0,0,0,0,0,0,0,0,0,0,0,0,0,0,0,0,0,0,0,0],"sum_hessian":[1.270422E6,6.887704E5,5.816516E5,2.553628E5,4.334076E5,3.016516E5,2.8E5,6.41566E4,1.912062E5,2.396392E5,1.937684E5,5.59975E4,2.456541E5,2.068583E5,7.31417E4,1.0432E3,6.31134E4,1.341077E5,5.70985E4,1.948348E5,4.48044E4,1.430165E5,5.07519E4,3.37082E4,2.22893E4,2.385674E5,7.0867E3,2.018725E5,4.9858E3,6.86749E4,4.4668E3,1.547E2,8.885E2,5.55465E4,7.5669E3,5.71191E4,7.69886E4,4.72657E4,9.8328E3,1.350502E5,5.97846E4,4.24378E4,2.3666E3,6.89402E4,7.40763E4,3.42614E4,1.64905E4,1.40431E4,1.96651E4,5.1831E3,1.71062E4,1.452617E5,9.33057E4,2.9722E3,4.1145E3,4.39751E4,1.578974E5,1.1734E3,3.8124E3,1.29693E4,5.57056E4,4.4558E3,1.1E1],"tree_param":{"num_deleted":"0","num_feature":"29","num_nodes":"63","size_leaf_vector":"1"}},{"base_weights":[1.9941485E-2,-8.4611183E-1,1.0185932E0,-2.5821993E-1,-1.8951267E0,1.4322267E0,4.8381217E-2,5.624268E0,-3.2121864E-1,-3.1397126E0,-1.4100833E0,1.238509E0,3.533349E0,2.7856764E-1,-3.744177E0,3.543096E0,9.108217E0,-5.2105296E-1,1.407318E0,4.168435E0,-3.3566248E0,-2.6130524E0,-7.283074E-1,1.1391745E0,4.9611516E0,6.378579E0,2.9084625E0,-2.0172122E-1,1.9343282E0,-3.5481668E0,-1.7994762E1,2.1158992E-1,1.4643473E-2,-2.3123394E-1,2.6116857E-1,-1.8126667E-2,3.9681103E-2,2.427804E-3,7.233142E-2,8.520554E-3,2.4042948E-1,-7.9527035E-2,-1.6842604E-1,-5.792084E-2,-1.8400054E-1,2.6092304E-2,-2.9505288E-2,5.803148E-2,1.9900655E-2,1.4181547E-1,-8.611128E-2,1.786149E-1,-1.0125887E-1,-1.7242149E-2,8.247826E-2,-2.3761787E-2,2.6122976E-2,4.4743195E-2,3.0923495E-1,-9.900796E-2,6.5155216E-2,1.5242915E-1,-7.312801E-1],"categories":[],"categories_nodes":[],"categories_segments":[],"categories_sizes":[],"default_left":[0,0,0,0,0,0,0,0,0,0,0,0,0,0,0,0,0,0,0,0,0,0,0,0,0,0,0,0,0,0,0,0,0,0,0,0,0,0,0,0,0,0,0,0,0,0,0,0,0,0,0,0,0,0,0,0,0,0,0,0,0,0,0],"id":23,"left_children":[1,3,5,7,9,11,13,15,17,19,21,23,25,27,29,31,33,35,37,39,41,43,45,47,49,51,53,55,57,59,61,-1,-1,-1,-1,-1,-1,-1,-1,-1,-1,-1,-1,-1,-1,-1,-1,-1,-1,-1,-1,-1,-1,-1,-1,-1,-1,-1,-1,-1,-1,-1,-1],"loss_changes":[1.0984858E6,4.194839E5,2.3672838E5,1.6154628E5,1.4745744E5,1.6831612E5,1.5392908E5,3.3384047E4,1.4898088E5,1.0863675E5,1.4416788E5,1.40003E5,6.200378E4,1.3220072E5,2.7973547E4,4.212973E4,4.2685E4,1.6629031E5,8.7013234E4,4.1190938E4,3.9408375E4,8.935494E4,8.985567E4,1.4959894E5,5.8909625E4,5.0287375E4,4.0251766E4,1.20284055E5,5.6323562E4,2.528654E4,3.7462445E4,0E0,0E0,0E0,0E0,0E0,0E0,0E0,0E0,0E0,0E0,0E0,0E0,0E0,0E0,0E0,0E0,0E0,0E0,0E0,0E0,0E0,0E0,0E0,0E0,0E0,0E0,0E0,0E0,0E0,0E0,0E0,0E0],"parents":[2147483647,0,0,1,1,2,2,3,3,4,4,5,5,6,6,7,7,8,8,9,9,10,10,11,11,12,12,13,13,14,14,15,15,16,16,17,17,18,18,19,19,20,20,21,21,22,22,23,23,24,24,25,25,26,26,27,27,28,28,29,29,30,30],"right_children":[2,4,6,8,10,12,14,16,18,20,22,24,26,28,30,32,34,36,38,40,42,44,46,48,50,52,54,56,58,60,62,-1,-1,-1,-1,-1,-1,-1,-1,-1,-1,-1,-1,-1,-1,-1,-1,-1,-1,-1,-1,-1,-1,-1,-1,-1,-1,-1,-1,-1,-1,-1,-1],"split_conditions":[5.7125306E0,1E0,1E0,1.2480112E0,2.9557624E0,2.4E1,8.7E1,2E0,2.3E1,3E0,2E0,8.892988E0,5.816499E0,2.2E1,2E0,3.4E1,1.1E1,2.4E1,1E0,5.6E1,8.6E1,2.3E1,1.5E1,5.875421E0,2E1,2.5E1,3E0,1E0,8.6E1,8.426636E0,2.2E1,2.1158992E-1,1.4643473E-2,-2.3123394E-1,2.6116857E-1,-1.8126667E-2,3.9681103E-2,2.427804E-3,7.233142E-2,8.520554E-3,2.4042948E-1,-7.9527035E-2,-1.6842604E-1,-5.792084E-2,-1.8400054E-1,2.6092304E-2,-2.9505288E-2,5.803148E-2,1.9900655E-2,1.4181547E-1,-8.611128E-2,1.786149E-1,-1.0125887E-1,-1.7242149E-2,8.247826E-2,-2.3761787E-2,2.6122976E-2,4.4743195E-2,3.0923495E-1,-9.900796E-2,6.5155216E-2,1.5242915E-1,-7.312801E-1],"split_indices":[0,24,24,0,0,11,9,14,11,9,20,0,0,10,25,9,9,12,17,8,9,12,8,0,11,11,12,25,9,0,8,0,0,0,0,0,0,0,0,0,0,0,0,0,0,0,0,0,0,0,0,0,0,0,0,0,0,0,0,0,0,0,0],"split_type":[0,0,0,0,0,0,0,0,0,0,0,0,0,0,0,0,0,0,0,0,0,0,0,0,0,0,0,0,0,0,0,0,0,0,0,0,0,0,0,0,0,0,0,0,0,0,0,0,0,0,0,0,0,0,0,0,0,0,0,0,0,0,0],"sum_hessian":[1.2700876E6,6.802013E5,5.898863E5,4.359112E5,2.442901E5,4.135668E5,1.763195E5,4.616E3,4.312952E5,6.85017E4,1.757884E5,3.786605E5,3.49063E4,1.662331E5,1.00864E4,2.8937E3,1.7223E3,3.86603E5,4.46922E4,1.9729E3,6.65288E4,6.35851E4,1.122033E5,3.68823E5,9.8375E3,6.2806E3,2.86257E4,1.288574E5,3.73757E4,9.9533E3,1.331E2,1.0841E3,1.8096E3,1.158E2,1.6065E3,3.524954E5,3.41076E4,2.37525E4,2.09397E4,1.1608E3,8.121E2,6.32503E4,3.2785E3,5.98547E4,3.7304E3,2.27989E4,8.94044E4,8.29737E4,2.858493E5,9.0708E3,7.667E2,5.8518E3,4.288E2,2.8032E3,2.58225E4,8.05058E4,4.83516E4,3.68684E4,5.073E2,9.3297E3,6.236E2,4.28E1,9.03E1],"tree_param":{"num_deleted":"0","num_feature":"29","num_nodes":"63","size_leaf_vector":"1"}},{"base_weights":[-2.2474567E-3,-1.1792328E0,8.045459E-1,-2.0816927E0,-8.3975464E-2,-3.568487E-1,1.616154E0,-3.1619074E0,-9.6126044E-1,-1.2061346E0,5.51459E-1,-1.1987975E0,5.8679587E-1,4.3259987E-1,2.350605E0,-2.5977235E0,-4.2767277E0,-1.0832392E0,4.7729383E0,-9.117026E-1,-4.4121356E0,2.551958E-2,1.6463878E0,-1.5470506E0,9.3194723E-1,4.5709047E-1,7.9634933E0,7.779983E-1,-1.6102166E0,1.7243903E0,3.9596913E0,-9.80383E-2,-4.1692566E-2,2.7466241E-2,-1.1001944E-1,-4.0479567E-2,-1.3522137E-3,4.3742258E-2,3.0707583E-1,-1.0330007E-1,-1.4601046E-2,3.4543026E-2,-1.3012716E-1,4.198074E-3,-1.4107792E-1,6.88499E-2,1.2443844E-2,-2.3331882E-2,-6.463569E-2,3.4512183E-1,1.8495094E-2,5.6815684E-2,1.5514663E-4,1.6458677E-1,4.7865674E-1,2.51887E-3,5.303895E-2,-2.8928876E-2,-1.20506875E-1,3.6540266E-2,1.0455892E-1,8.9495115E-2,1.5789284E-1],"categories":[],"categories_nodes":[],"categories_segments":[],"categories_sizes":[],"default_left":[0,0,0,0,0,0,0,0,0,0,0,0,0,0,0,0,0,0,0,0,0,0,0,0,0,0,0,0,0,0,0,0,0,0,0,0,0,0,0,0,0,0,0,0,0,0,0,0,0,0,0,0,0,0,0,0,0,0,0,0,0,0,0],"id":24,"left_children":[1,3,5,7,9,11,13,15,17,19,21,23,25,27,29,31,33,35,37,39,41,43,45,47,49,51,53,55,57,59,61,-1,-1,-1,-1,-1,-1,-1,-1,-1,-1,-1,-1,-1,-1,-1,-1,-1,-1,-1,-1,-1,-1,-1,-1,-1,-1,-1,-1,-1,-1,-1,-1],"loss_changes":[1.2066166E6,5.107958E5,7.1062625E5,3.4289925E5,1.6647053E5,2.4639598E5,3.8575488E5,9.0689375E4,9.729126E4,7.9657164E4,8.5834234E4,1.2162094E5,1.3989688E5,1.19908766E5,2.7590912E5,1.1790594E5,3.2335E4,7.511322E4,6.570715E4,8.15627E4,3.2636875E4,8.1281234E4,6.1524766E4,8.9771875E4,5.6910617E4,1.1763766E5,3.859142E4,1.322656E5,3.5723742E4,1.27305875E5,6.8585E4,0E0,0E0,0E0,0E0,0E0,0E0,0E0,0E0,0E0,0E0,0E0,0E0,0E0,0E0,0E0,0E0,0E0,0E0,0E0,0E0,0E0,0E0,0E0,0E0,0E0,0E0,0E0,0E0,0E0,0E0,0E0,0E0],"parents":[2147483647,0,0,1,1,2,2,3,3,4,4,5,5,6,6,7,7,8,8,9,9,10,10,11,11,12,12,13,13,14,14,15,15,16,16,17,17,18,18,19,19,20,20,21,21,22,22,23,23,24,24,25,25,