{"learner":{"attributes":{"best_iteration":"863","best_score":"58.50592304518619","scikit_learn":"{\"_estimator_type\": \"regressor\"}"},"feature_names":["characterNum_1_avg_getmmr","characterNum_2_avg_getmmr","characterNum_3_avg_getmmr","character_synergy_1","character_synergy_2","character_synergy_3","character_synergy_mean","characterNum_1","characterNum_2","characterNum_3","weaponCode_1","weaponCode_2","weaponCode_3","position_main_1","position_main_2","position_main_3","position_sub_1","position_sub_2","position_sub_3","main_melee_cnt","main_ranged_cnt","main_support_cnt","sub_bruiser_cnt","sub_assassin_cnt","sub_poke_cnt","sub_sustain_cnt","sub_util_cnt","sub_tank_cnt","sub_nuker_cnt"],"feature_types":["float","float","float","float","float","float","float","int","int","int","int","int","int","int","int","int","int","int","int","int","int","int","int","int","int","int","int","int","int"],"gradient_booster":{"model":{"gbtree_model_param":{"num_parallel_tree":"1","num_trees":"914"},"iteration_indptr":[0,1,2,3,4,5,6,7,8,9,10,11,12,13,14,15,16,17,18,19,20,21,22,23,24,25,26,27,28,29,30,31,32,33,34,35,36,37,38,39,40,41,42,43,44,45,46,47,48,49,50,51,52,53,54,55,56,57,58,59,60,61,62,63,64,65,66,67,68,69,70,71,72,73,74,75,76,77,78,79,80,81,82,83,84,85,86,87,88,89,90,91,92,93,94,95,96,97,98,99,100,101,102,103,104,105,106,107,108,109,110,111,112,113,114,115,116,117,118,119,120,121,122,123,124,125,126,127,128,129,130,131,132,133,134,135,136,137,138,139,140,141,142,143,144,145,146,147,148,149,150,151,152,153,154,155,156,157,158,159,160,161,162,163,164,165,166,167,168,169,170,171,172,173,174,175,176,177,178,179,180,181,182,183,184,185,186,187,188,189,190,191,192,193,194,195,196,197,198,199,200,201,202,203,204,205,206,207,208,209,210,211,212,213,214,215,216,217,218,219,220,221,222,223,224,225,226,227,228,229,230,231,232,233,234,235,236,237,238,239,240,241,242,243,244,245,246,247,248,249,250,251,252,253,254,255,256,257,258,259,260,261,262,263,264,265,266,267,268,269,270,271,272,273,274,275,276,277,278,279,280,281,282,283,284,285,286,287,288,289,290,291,292,293,294,295,296,297,298,299,300,301,302,303,304,305,306,307,308,309,310,311,312,313,314,315,316,317,318,319,320,321,322,323,324,325,326,327,328,329,330,331,332,333,334,335,336,337,338,339,340,341,342,343,344,345,346,347,348,349,350,351,352,353,354,355,356,357,358,359,360,361,362,363,364,365,366,367,368,369,370,371,372,373,374,375,376,377,378,379,380,381,382,383,384,385,386,387,388,389,390,391,392,393,394,395,396,397,398,399,400,401,402,403,404,405,406,407,408,409,410,411,412,413,414,415,416,417,418,419,420,421,422,423,424,425,426,427,428,429,430,431,432,433,434,435,436,437,438,439,440,441,442,443,444,445,446,447,448,449,450,451,452,453,454,455,456,457,458,459,460,461,462,463,464,465,466,467,468,469,470,471,472,473,474,475,476,477,478,479,480,481,482,483,484,485,486,487,488,489,490,491,492,493,494,495,496,497,498,499,500,501,502,503,504,505,506,507,508,509,510,511,512,513,514,515,516,517,518,519,520,521,522,523,524,525,526,527,528,529,530,531,532,533,534,535,536,537,538,539,540,541,542,543,544,545,546,547,548,549,550,551,552,553,554,555,556,557,558,559,560,561,562,563,564,565,566,567,568,569,570,571,572,573,574,575,576,577,578,579,580,581,582,583,584,585,586,587,588,589,590,591,592,593,594,595,596,597,598,599,600,601,602,603,604,605,606,607,608,609,610,611,612,613,614,615,616,617,618,619,620,621,622,623,624,625,626,627,628,629,630,631,632,633,634,635,636,637,638,639,640,641,642,643,644,645,646,647,648,649,650,651,652,653,654,655,656,657,658,659,660,661,662,663,664,665,666,667,668,669,670,671,672,673,674,675,676,677,678,679,680,681,682,683,684,685,686,687,688,689,690,691,692,693,694,695,696,697,698,699,700,701,702,703,704,705,706,707,708,709,710,711,712,713,714,715,716,717,718,719,720,721,722,723,724,725,726,727,728,729,730,731,732,733,734,735,736,737,738,739,740,741,742,743,744,745,746,747,748,749,750,751,752,753,754,755,756,757,758,759,760,761,762,763,764,765,766,767,768,769,770,771,772,773,774,775,776,777,778,779,780,781,782,783,784,785,786,787,788,789,790,791,792,793,794,795,796,797,798,799,800,801,802,803,804,805,806,807,808,809,810,811,812,813,814,815,816,817,818,819,820,821,822,823,824,825,826,827,828,829,830,831,832,833,834,835,836,837,838,839,840,841,842,843,844,845,846,847,848,849,850,851,852,853,854,855,856,857,858,859,860,861,862,863,864,865,866,867,868,869,870,871,872,873,874,875,876,877,878,879,880,881,882,883,884,885,886,887,888,889,890,891,892,893,894,895,896,897,898,899,900,901,902,903,904,905,906,907,908,909,910,911,912,913,914],"tree_info":[0,0,0,0,0,0,0,0,0,0,0,0,0,0,0,0,0,0,0,0,0,0,0,0,0,0,0,0,0,0,0,0,0,0,0,0,0,0,0,0,0,0,0,0,0,0,0,0,0,0,0,0,0,0,0,0,0,0,0,0,0,0,0,0,0,0,0,0,0,0,0,0,0,0,0,0,0,0,0,0,0,0,0,0,0,0,0,0,0,0,0,0,0,0,0,0,0,0,0,0,0,0,0,0,0,0,0,0,0,0,0,0,0,0,0,0,0,0,0,0,0,0,0,0,0,0,0,0,0,0,0,0,0,0,0,0,0,0,0,0,0,0,0,0,0,0,0,0,0,0,0,0,0,0,0,0,0,0,0,0,0,0,0,0,0,0,0,0,0,0,0,0,0,0,0,0,0,0,0,0,0,0,0,0,0,0,0,0,0,0,0,0,0,0,0,0,0,0,0,0,0,0,0,0,0,0,0,0,0,0,0,0,0,0,0,0,0,0,0,0,0,0,0,0,0,0,0,0,0,0,0,0,0,0,0,0,0,0,0,0,0,0,0,0,0,0,0,0,0,0,0,0,0,0,0,0,0,0,0,0,0,0,0,0,0,0,0,0,0,0,0,0,0,0,0,0,0,0,0,0,0,0,0,0,0,0,0,0,0,0,0,0,0,0,0,0,0,0,0,0,0,0,0,0,0,0,0,0,0,0,0,0,0,0,0,0,0,0,0,0,0,0,0,0,0,0,0,0,0,0,0,0,0,0,0,0,0,0,0,0,0,0,0,0,0,0,0,0,0,0,0,0,0,0,0,0,0,0,0,0,0,0,0,0,0,0,0,0,0,0,0,0,0,0,0,0,0,0,0,0,0,0,0,0,0,0,0,0,0,0,0,0,0,0,0,0,0,0,0,0,0,0,0,0,0,0,0,0,0,0,0,0,0,0,0,0,0,0,0,0,0,0,0,0,0,0,0,0,0,0,0,0,0,0,0,0,0,0,0,0,0,0,0,0,0,0,0,0,0,0,0,0,0,0,0,0,0,0,0,0,0,0,0,0,0,0,0,0,0,0,0,0,0,0,0,0,0,0,0,0,0,0,0,0,0,0,0,0,0,0,0,0,0,0,0,0,0,0,0,0,0,0,0,0,0,0,0,0,0,0,0,0,0,0,0,0,0,0,0,0,0,0,0,0,0,0,0,0,0,0,0,0,0,0,0,0,0,0,0,0,0,0,0,0,0,0,0,0,0,0,0,0,0,0,0,0,0,0,0,0,0,0,0,0,0,0,0,0,0,0,0,0,0,0,0,0,0,0,0,0,0,0,0,0,0,0,0,0,0,0,0,0,0,0,0,0,0,0,0,0,0,0,0,0,0,0,0,0,0,0,0,0,0,0,0,0,0,0,0,0,0,0,0,0,0,0,0,0,0,0,0,0,0,0,0,0,0,0,0,0,0,0,0,0,0,0,0,0,0,0,0,0,0,0,0,0,0,0,0,0,0,0,0,0,0,0,0,0,0,0,0,0,0,0,0,0,0,0,0,0,0,0,0,0,0,0,0,0,0,0,0,0,0,0,0,0,0,0,0,0,0,0,0,0,0,0,0,0,0,0,0,0,0,0,0,0,0,0,0,0,0,0,0,0,0,0,0,0,0,0,0,0,0,0,0,0,0,0,0,0,0,0,0,0,0,0,0,0,0,0,0,0,0,0,0,0,0,0,0,0,0,0,0,0,0,0,0,0,0,0,0,0,0,0,0,0,0,0,0,0,0,0,0,0,0,0,0,0,0,0,0,0,0,0,0,0,0,0,0,0,0,0,0,0,0,0,0,0,0,0,0,0,0,0,0,0,0,0,0,0,0,0,0,0,0,0,0,0,0,0,0,0,0,0,0,0,0,0,0,0,0,0,0,0,0,0,0,0,0,0,0,0,0,0,0,0,0,0,0,0,0,0,0,0,0,0,0,0,0,0,0,0,0,0,0,0,0,0,0,0,0,0,0,0,0,0,0,0,0,0,0,0,0,0,0,0,0,0,0,0,0,0,0,0,0,0,0,0,0,0,0,0,0,0],"trees":[{"base_weights":[-1.0976268E-2,-1.4198948E0,1.4982606E0,-3.5098562E0,-1.8612307E-1,9.526737E-2,2.893798E0,-4.924798E0,-1.8765926E0,-2.3507218E0,9.354981E-1,-1.3477376E0,1.5899515E0,1.2795949E0,3.875784E0,-1.3944636E-1,-2.6733837E-1,-1.9022362E-1,-4.456747E-2,-1.3389121E-1,-5.305936E-2,3.3095617E-2,-1.10703096E-1,-4.4970296E-2,1.630432E-1,3.651539E-2,1.5221542E-1,1.4294902E-2,9.0102814E-2,9.28362E-2,1.7199747E-1],"categories":[],"categories_nodes":[],"categories_segments":[],"categories_sizes":[],"default_left":[0,0,0,0,0,0,0,0,0,0,0,0,0,0,0,0,0,0,0,0,0,0,0,0,0,0,0,0,0,0,0],"id":0,"left_children":[1,3,5,7,9,11,13,15,17,19,21,23,25,27,29,-1,-1,-1,-1,-1,-1,-1,-1,-1,-1,-1,-1,-1,-1,-1,-1],"loss_changes":[2.3348555E6,1.4643245E6,1.037981E6,4.8712225E5,8.6698175E5,5.7020806E5,4.21271E5,1.24399E5,1.7077744E5,1.4982662E5,1.8245775E5,1.3802998E5,1.6862544E5,1.391708E5,2.397345E5,0E0,0E0,0E0,0E0,0E0,0E0,0E0,0E0,0E0,0E0,0E0,0E0,0E0,0E0,0E0,0E0],"parents":[2147483647,0,0,1,1,2,2,3,3,4,4,5,5,6,6,7,7,8,8,9,9,10,10,11,11,12,12,13,13,14,14],"right_children":[2,4,6,8,10,12,14,16,18,20,22,24,26,28,30,-1,-1,-1,-1,-1,-1,-1,-1,-1,-1,-1,-1,-1,-1,-1,-1],"split_conditions":[5.662033E0,4.7203217E0,5.5613503E0,5.7125306E0,4.51879E0,5.662033E0,4.6774516E0,2.2E1,2.3257809E0,5.662033E0,8.7E1,8.892988E0,8.26223E0,6.3E1,6.4E1,-1.3944636E-1,-2.6733837E-1,-1.9022362E-1,-4.456747E-2,-1.3389121E-1,-5.305936E-2,3.3095617E-2,-1.10703096E-1,-4.4970296E-2,1.630432E-1,3.651539E-2,1.5221542E-1,1.4294902E-2,9.0102814E-2,9.28362E-2,1.7199747E-1],"split_indices":[2,0,1,1,1,0,0,12,2,0,9,2,2,9,9,0,0,0,0,0,0,0,0,0,0,0,0,0,0,0,0],"split_type":[0,0,0,0,0,0,0,0,0,0,0,0,0,0,0,0,0,0,0,0,0,0,0,0,0,0,0,0,0,0,0],"sum_hessian":[1.0980304E6,5.678893E5,5.301411E5,2.107985E5,3.570908E5,2.643663E5,2.657748E5,1.129447E5,9.78538E4,1.21878E5,2.352128E5,1.345083E5,1.29858E5,1.0053E5,1.652448E5,1.056232E5,7.3215E3,7.8767E3,8.99771E4,2.63249E4,9.55531E4,2.269865E5,8.2263E3,1.315762E5,2.9321E3,1.173103E5,1.25477E4,6.8583E4,3.1947E4,1.163267E5,4.89181E4],"tree_param":{"num_deleted":"0","num_feature":"29","num_nodes":"31","size_leaf_vector":"1"}},{"base_weights":[-3.944733E-2,-1.4444621E0,1.464146E0,-3.3451443E0,-3.2298973E-1,-4.8735894E-2,2.527353E0,-4.526564E0,-2.3886359E0,-1.175211E0,8.5900986E-1,6.339528E-1,-1.4499948E0,2.7822878E0,-1.8045083E0,-1.2656565E-1,-2.5363132E-1,-1.6205157E-1,-6.1788503E-2,-8.808023E-3,-7.9381086E-2,8.660934E-3,8.110789E-2,1.0006192E-2,1.0951665E-1,-2.4248546E-2,-1.0030175E-1,6.3621804E-2,1.270437E-1,3.1662636E-2,-1.2475298E-1],"categories":[],"categories_nodes":[],"categories_segments":[],"categories_sizes":[],"default_left":[0,0,0,0,0,0,0,0,0,0,0,0,0,0,0,0,0,0,0,0,0,0,0,0,0,0,0,0,0,0,0],"id":1,"left_children":[1,3,5,7,9,11,13,15,17,19,21,23,25,27,29,-1,-1,-1,-1,-1,-1,-1,-1,-1,-1,-1,-1,-1,-1,-1,-1],"loss_changes":[2.3196822E6,1.2099249E6,8.5317275E5,2.3798775E5,3.596115E5,2.0942245E5,3.44018E5,1.13774875E5,1.1535819E5,2.6897506E5,1.5733111E5,1.3338994E5,8.7124125E4,2.8265725E5,1.1658052E5,0E0,0E0,0E0,0E0,0E0,0E0,0E0,0E0,0E0,0E0,0E0,0E0,0E0,0E0,0E0,0E0],"parents":[2147483647,0,0,1,1,2,2,3,3,4,4,5,5,6,6,7,7,8,8,9,9,10,10,11,11,12,12,13,13,14,14],"right_children":[2,4,6,8,10,12,14,16,18,20,22,24,26,28,30,-1,-1,-1,-1,-1,-1,-1,-1,-1,-1,-1,-1,-1,-1,-1,-1],"split_conditions":[5.662033E0,4.7203217E0,4.9564834E0,1E0,4.2804317E0,1E0,8.4E1,2.3E1,2.3412495E0,1E0,6.1E1,2.4E1,7.9E1,6.3E1,1.4E1,-1.2656565E-1,-2.5363132E-1,-1.6205157E-1,-6.1788503E-2,-8.808023E-3,-7.9381086E-2,8.660934E-3,8.110789E-2,1.0006192E-2,1.0951665E-1,-2.4248546E-2,-1.0030175E-1,6.3621804E-2,1.270437E-1,3.1662636E-2,-1.2475298E-1],"split_indices":[2,0,0,25,2,24,8,12,2,24,9,11,7,9,11,0,0,0,0,0,0,0,0,0,0,0,0,0,0,0,0],"split_type":[0,0,0,0,0,0,0,0,0,0,0,0,0,0,0,0,0,0,0,0,0,0,0,0,0,0,0,0,0,0,0],"sum_hessian":[1.0980318E6,5.676235E5,5.304082E5,2.106333E5,3.569902E5,2.189116E5,3.114966E5,9.42318E4,1.164015E5,2.074324E5,1.495578E5,1.471981E5,7.17135E4,2.941848E5,1.73118E4,8.73919E4,6.8399E3,1.14545E4,1.04947E5,1.296967E5,7.77357E4,1.142407E5,3.53171E4,1.338701E5,1.3328E4,5.35643E4,1.81492E4,2.021301E5,9.20547E4,7.8164E3,9.4954E3],"tree_param":{"num_deleted":"0","num_feature":"29","num_nodes":"31","size_leaf_vector":"1"}},{"base_weights":[1.0474397E-2,-1.3776778E0,1.4787054E0,-2.7737658E0,2.5470158E-1,-4.8899564E-1,2.3265767E0,-5.0390654E0,-1.6045932E0,-1.0824232E0,1.6419517E0,-1.7527639E0,1.0209904E0,6.709451E-1,3.3499637E0,-1.4416693E-1,-2.602841E-1,-5.9906308E-2,1.6649099E-2,-5.5498295E-2,1.9133301E-2,1.9016596E-2,8.7183595E-2,-1.4619924E-1,-3.8032684E-2,4.7501486E-2,-4.835752E-2,-2.0697834E-4,6.945742E-2,7.9851925E-2,1.5217555E-1],"categories":[],"categories_nodes":[],"categories_segments":[],"categories_sizes":[],"default_left":[0,0,0,0,0,0,0,0,0,0,0,0,0,0,0,0,0,0,0,0,0,0,0,0,0,0,0,0,0,0,0],"id":2,"left_children":[1,3,5,7,9,11,13,15,17,19,21,23,25,27,29,-1,-1,-1,-1,-1,-1,-1,-1,-1,-1,-1,-1,-1,-1,-1,-1],"loss_changes":[2.2384755E6,1.2865715E6,8.904989E5,8.0590775E5,4.8275238E5,3.0673244E5,6.32021E5,8.783475E4,1.7004028E5,1.7497073E5,1.627691E5,1.3241006E5,1.0844882E5,1.5882903E5,2.732455E5,0E0,0E0,0E0,0E0,0E0,0E0,0E0,0E0,0E0,0E0,0E0,0E0,0E0,0E0,0E0,0E0],"parents":[2147483647,0,0,1,1,2,2,3,3,4,4,5,5,6,6,7,7,8,8,9,9,10,10,11,11,12,12,13,13,14,14],"right_children":[2,4,6,8,10,12,14,16,18,20,22,24,26,28,30,-1,-1,-1,-1,-1,-1,-1,-1,-1,-1,-1,-1,-1,-1,-1,-1],"split_conditions":[5.662033E0,5.7125306E0,4.2804317E0,4.391096E0,5.662033E0,5.7280283E0,4.7203217E0,2.2E1,1E0,6.3E1,4.210249E0,2.3257809E0,7.9E1,6.3E1,6.3E1,-1.4416693E-1,-2.602841E-1,-5.9906308E-2,1.6649099E-2,-5.5498295E-2,1.9133301E-2,1.9016596E-2,8.7183595E-2,-1.4619924E-1,-3.8032684E-2,4.7501486E-2,-4.835752E-2,-2.0697834E-4,6.945742E-2,7.9851925E-2,1.5217555E-1],"split_indices":[1,2,2,0,0,0,0,12,28,9,1,2,9,9,9,0,0,0,0,0,0,0,0,0,0,0,0,0,0,0,0],"split_type":[0,0,0,0,0,0,0,0,0,0,0,0,0,0,0,0,0,0,0,0,0,0,0,0,0,0,0,0,0,0,0],"sum_hessian":[1.0982936E6,5.645419E5,5.337517E5,3.042939E5,2.60248E5,1.607321E5,3.730196E5,1.035849E5,2.00709E5,1.325181E5,1.277299E5,8.75E4,7.32321E4,1.42496E5,2.305236E5,9.73427E4,6.2422E3,1.698555E5,3.08535E4,9.16334E4,4.08847E4,7.10661E4,5.66638E4,1.17663E4,7.57337E4,6.03441E4,1.2888E4,1.009025E5,4.15935E4,1.647195E5,6.58041E4],"tree_param":{"num_deleted":"0","num_feature":"29","num_nodes":"31","size_leaf_vector":"1"}},{"base_weights":[-3.1364E-2,-1.2133871E0,1.2136803E0,-1.0215892E0,-4.4858503E0,1.3186145E0,-4.8602242E0,-9.1840655E-1,-6.780946E0,-3.3381896E0,-7.119571E0,1.4147534E0,-4.533492E0,-4.43528E0,-1.4901438E1,-3.5595156E-2,4.254247E-2,-1.5260552E-1,-2.9686055E-1,-1.8732473E-1,-5.196443E-2,-1.8594639E-1,-3.5093877E-1,3.6497228E-2,1.14571616E-1,2.3975076E-2,-1.7382425E-1,-1.4688537E-1,6.736793E-2,-9.218358E-1,-3.6696315E-1],"categories":[],"categories_nodes":[],"categories_segments":[],"categories_sizes":[],"default_left":[0,0,0,0,0,0,0,0,0,0,0,0,0,0,0,0,0,0,0,0,0,0,0,0,0,0,0,0,0,0,0],"id":3,"left_children":[1,3,5,7,9,11,13,15,17,19,21,23,25,27,29,-1,-1,-1,-1,-1,-1,-1,-1,-1,-1,-1,-1,-1,-1,-1,-1],"loss_changes":[1.6164365E6,3.536278E5,3.4095475E5,3.162737E5,9.420519E4,2.9586275E5,3.8547688E4,3.275478E5,4.925628E4,1.01386516E5,3.9689E4,2.4648669E5,5.715778E4,2.6887938E4,1.4354836E4,0E0,0E0,0E0,0E0,0E0,0E0,0E0,0E0,0E0,0E0,0E0,0E0,0E0,0E0,0E0,0E0],"parents":[2147483647,0,0,1,1,2,2,3,3,4,4,5,5,6,6,7,7,8,8,9,9,10,10,11,11,12,12,13,13,14,14],"right_children":[2,4,6,8,10,12,14,16,18,20,22,24,26,28,30,-1,-1,-1,-1,-1,-1,-1,-1,-1,-1,-1,-1,-1,-1,-1,-1],"split_conditions":[5.662033E0,8.4E1,8.7E1,8.7E1,8.7E1,8.7E1,8.4E1,2.2E1,2E0,8.5E1,5E0,2.3E1,5.816499E0,8.426636E0,5.7288713E0,-3.5595156E-2,4.254247E-2,-1.5260552E-1,-2.9686055E-1,-1.8732473E-1,-5.196443E-2,-1.8594639E-1,-3.5093877E-1,3.6497228E-2,1.14571616E-1,2.3975076E-2,-1.7382425E-1,-1.4688537E-1,6.736793E-2,-9.218358E-1,-3.6696315E-1],"split_indices":[0,8,9,9,8,8,8,12,19,8,18,12,0,0,0,0,0,0,0,0,0,0,0,0,0,0,0,0,0,0,0],"split_type":[0,0,0,0,0,0,0,0,0,0,0,0,0,0,0,0,0,0,0,0,0,0,0,0,0,0,0,0,0,0,0],"sum_hessian":[1.0983621E6,5.634415E5,5.349206E5,5.322507E5,3.11908E4,5.258386E5,9.082E3,5.228865E5,9.3642E3,2.17293E4,9.4615E3,5.173421E5,8.4965E3,8.7175E3,3.645E2,4.690658E5,5.38207E4,6.0704E3,3.2938E3,7.7312E3,1.39981E4,7.8825E3,1.579E3,4.77951E5,3.93911E4,1.6246E3,6.8719E3,8.1558E3,5.617E2,4.8E1,3.165E2],"tree_param":{"num_deleted":"0","num_feature":"29","num_nodes":"31","size_leaf_vector":"1"}},{"base_weights":[-3.0575674E-2,-1.280375E0,1.2915692E0,-2.8636527E0,-2.0654233E-1,-3.570079E-1,2.260959E0,-1.9704525E0,-4.18627E0,5.1064694E-1,-1.5926526E0,-1.0592796E0,1.1210257E0,1.6584299E0,3.5962093E0,1.8320099E-1,-6.175662E-2,-1.5014715E-1,-6.623577E-2,4.8163645E-3,7.434314E-2,-1.1453325E-1,-2.0991791E-2,-1.0503439E-2,-9.797694E-2,1.4754081E-1,1.2634773E-2,7.202002E-2,-2.068399E-2,1.5492657E-1,7.477503E-2],"categories":[],"categories_nodes":[],"categories_segments":[],"categories_sizes":[],"default_left":[0,0,0,0,0,0,0,0,0,0,0,0,0,0,0,0,0,0,0,0,0,0,0,0,0,0,0,0,0,0,0],"id":4,"left_children":[1,3,5,7,9,11,13,15,17,19,21,23,25,27,29,-1,-1,-1,-1,-1,-1,-1,-1,-1,-1,-1,-1,-1,-1,-1,-1],"loss_changes":[1.8144435E6,9.596953E5,8.5273144E5,2.69464E5,3.343722E5,2.0508719E5,2.7030388E5,9.693475E4,1.48887E5,1.5268017E5,2.2786456E5,2.0959219E5,1.6910738E5,4.0350356E5,1.8075962E5,0E0,0E0,0E0,0E0,0E0,0E0,0E0,0E0,0E0,0E0,0E0,0E0,0E0,0E0,0E0,0E0],"parents":[2147483647,0,0,1,1,2,2,3,3,4,4,5,5,6,6,7,7,8,8,9,9,10,10,11,11,12,12,13,13,14,14],"right_children":[2,4,6,8,10,12,14,16,18,20,22,24,26,28,30,-1,-1,-1,-1,-1,-1,-1,-1,-1,-1,-1,-1,-1,-1,-1,-1],"split_conditions":[5.662033E0,4.9564834E0,4.6774516E0,1E0,1E0,6.4E1,6.4E1,1.2480112E0,4.7203217E0,2.2E1,2.9557624E0,4.4E1,6.5E1,4.4E1,6.111052E0,1.8320099E-1,-6.175662E-2,-1.5014715E-1,-6.623577E-2,4.8163645E-3,7.434314E-2,-1.1453325E-1,-2.0991791E-2,-1.0503439E-2,-9.797694E-2,1.4754081E-1,1.2634773E-2,7.202002E-2,-2.068399E-2,1.5492657E-1,7.477503E-2],"split_indices":[1,0,0,24,24,8,8,1,1,10,1,8,8,8,1,0,0,0,0,0,0,0,0,0,0,0,0,0,0,0,0],"split_type":[0,0,0,0,0,0,0,0,0,0,0,0,0,0,0,0,0,0,0,0,0,0,0,0,0,0,0,0,0,0,0],"sum_hessian":[1.098049E6,5.644683E5,5.335807E5,2.281193E5,3.36349E5,1.975764E5,3.360043E5,1.361689E5,9.19504E4,2.216605E5,1.146885E5,1.339385E5,6.36379E4,2.31533E5,1.044713E5,1.4669E3,1.34702E5,6.50349E4,2.69155E4,1.881786E5,3.34819E4,3.28406E4,8.18479E4,1.013655E5,3.2573E4,9.9012E3,5.37367E4,1.7592E5,5.5613E4,4.3153E4,6.13183E4],"tree_param":{"num_deleted":"0","num_feature":"29","num_nodes":"31","size_leaf_vector":"1"}},{"base_weights":[2.377656E-2,-1.5293543E0,1.089666E0,-2.8256192E0,-6.1313793E-2,-4.4789743E-1,2.0181181E0,-2.156507E0,-3.8194027E0,1.2791039E-1,-4.455582E0,2.5374147E-1,-1.8628035E0,1.3627692E0,3.7441747E0,-1.0122039E-1,-3.7037738E-2,-1.8095028E-1,-8.859094E-2,-2.0140324E-2,2.8934665E-2,-9.969068E-2,-2.4651037E-1,-1.0954452E-3,8.426298E-2,-7.4595034E-2,-4.676507E-3,3.075515E-2,1.23486854E-1,1.21438116E-1,-4.2037684E-2],"categories":[],"categories_nodes":[],"categories_segments":[],"categories_sizes":[],"default_left":[0,0,0,0,0,0,0,0,0,0,0,0,0,0,0,0,0,0,0,0,0,0,0,0,0,0,0,0,0,0,0],"id":5,"left_children":[1,3,5,7,9,11,13,15,17,19,21,23,25,27,29,-1,-1,-1,-1,-1,-1,-1,-1,-1,-1,-1,-1,-1,-1,-1,-1],"loss_changes":[1.8182938E6,8.506422E5,9.298392E5,1.5782438E5,1.7430505E5,2.4345984E5,4.5936712E5,1.5923319E5,1.8301062E5,1.3437752E5,3.6773812E4,1.215834E5,8.65445E4,2.7360906E5,1.74698E5,0E0,0E0,0E0,0E0,0E0,0E0,0E0,0E0,0E0,0E0,0E0,0E0,0E0,0E0,0E0,0E0],"parents":[2147483647,0,0,1,1,2,2,3,3,4,4,5,5,6,6,7,7,8,8,9,9,10,10,11,11,12,12,13,13,14,14],"right_children":[2,4,6,8,10,12,14,16,18,20,22,24,26,28,30,-1,-1,-1,-1,-1,-1,-1,-1,-1,-1,-1,-1,-1,-1,-1,-1],"split_conditions":[4.9564834E0,5.7125306E0,4.7203217E0,1E0,8.7E1,1E0,6.4E1,5.2E1,2.862956E0,1.4E1,2.1E1,2.3E1,6.3E1,8.26223E0,8.4E1,-1.0122039E-1,-3.7037738E-2,-1.8095028E-1,-8.859094E-2,-2.0140324E-2,2.8934665E-2,-9.969068E-2,-2.4651037E-1,-1.0954452E-3,8.426298E-2,-7.4595034E-2,-4.676507E-3,3.075515E-2,1.23486854E-1,1.21438116E-1,-4.2037684E-2],"split_indices":[2,0,0,24,9,24,9,9,2,10,10,11,9,2,8,0,0,0,0,0,0,0,0,0,0,0,0,0,0,0,0],"split_type":[0,0,0,0,0,0,0,0,0,0,0,0,0,0,0,0,0,0,0,0,0,0,0,0,0,0,0,0,0,0,0],"sum_hessian":[1.098352E6,4.470066E5,6.513454E5,2.373901E5,2.096165E5,2.45231E5,4.061144E5,1.418759E5,9.55142E4,2.009653E5,8.6512E3,1.639376E5,8.12934E4,2.943584E5,1.11756E5,6.1133E4,8.07429E4,2.68736E4,6.86406E4,1.02775E5,9.81903E4,6.6537E3,1.9975E3,1.472161E5,1.67215E4,5.9537E4,2.17564E4,2.622133E5,3.21451E4,1.05527E5,6.229E3],"tree_param":{"num_deleted":"0","num_feature":"29","num_nodes":"31","size_leaf_vector":"1"}},{"base_weights":[-1.205881E-3,-1.2471162E0,1.3178729E0,-2.4255629E0,-3.152877E-2,-1.9497694E-1,2.20628E0,-1.5513804E0,-3.7247846E0,6.332395E-1,-1.3948573E0,8.342167E0,-3.006117E-1,2.5034783E0,1.22187994E-1,-5.4436572E-2,3.518805E-2,-1.3609466E-1,-5.04497E-2,5.979833E-2,4.059434E-3,-1.5183157E-2,-9.002439E-2,5.683101E-1,2.2174641E-1,-1.4449432E-4,-8.5467026E-2,7.238124E-2,2.353178E-1,2.1247132E-2,-1.05586134E-1],"categories":[],"categories_nodes":[],"categories_segments":[],"categories_sizes":[],"default_left":[0,0,0,0,0,0,0,0,0,0,0,0,0,0,0,0,0,0,0,0,0,0,0,0,0,0,0,0,0,0,0],"id":6,"left_children":[1,3,5,7,9,11,13,15,17,19,21,23,25,27,29,-1,-1,-1,-1,-1,-1,-1,-1,-1,-1,-1,-1,-1,-1,-1,-1],"loss_changes":[1.8058174E6,8.094621E5,7.173435E5,3.25846E5,2.5209461E5,1.7807956E5,2.08272E5,1.2298044E5,1.9135325E5,1.2662147E5,1.3012555E5,2.387686E4,1.4702562E5,1.4259225E5,8.957991E4,0E0,0E0,0E0,0E0,0E0,0E0,0E0,0E0,0E0,0E0,0E0,0E0,0E0,0E0,0E0,0E0],"parents":[2147483647,0,0,1,1,2,2,3,3,4,4,5,5,6,6,7,7,8,8,9,9,10,10,11,11,12,12,13,13,14,14],"right_children":[2,4,6,8,10,12,14,16,18,20,22,24,26,28,30,-1,-1,-1,-1,-1,-1,-1,-1,-1,-1,-1,-1,-1,-1,-1,-1],"split_conditions":[5.662033E0,5.662033E0,4.6774516E0,1E0,1E0,1.2480112E0,6E0,2.4E1,4.7203217E0,5.875421E0,2E0,5.7288713E0,1.8E1,8.892988E0,2.3E1,-5.4436572E-2,3.518805E-2,-1.3609466E-1,-5.04497E-2,5.979833E-2,4.059434E-3,-1.5183157E-2,-9.002439E-2,5.683101E-1,2.2174641E-1,-1.4449432E-4,-8.5467026E-2,7.238124E-2,2.353178E-1,2.1247132E-2,-1.05586134E-1],"split_indices":[1,0,0,24,24,0,18,12,1,0,19,1,10,0,12,0,0,0,0,0,0,0,0,0,0,0,0,0,0,0,0],"split_type":[0,0,0,0,0,0,0,0,0,0,0,0,0,0,0,0,0,0,0,0,0,0,0,0,0,0,0,0,0,0,0],"sum_hessian":[1.0987882E6,5.650665E5,5.337217E5,2.869145E5,2.78152E5,1.974646E5,3.362571E5,1.715167E5,1.153978E5,1.869801E5,9.11719E4,2.4105E3,1.950541E5,2.942894E5,4.19677E4,1.564088E5,1.51079E4,8.25842E4,3.28136E4,5.01068E4,1.368733E5,5.86944E4,3.24775E4,1.936E2,2.2169E3,1.747708E5,2.02833E4,2.893755E5,4.9139E3,3.61525E4,5.8152E3],"tree_param":{"num_deleted":"0","num_feature":"29","num_nodes":"31","size_leaf_vector":"1"}},{"base_weights":[5.0955895E-2,-1.2532558E0,1.3411267E0,-2.484422E0,1.607974E-1,-1.5040238E-1,2.3746562E0,-1.7478461E0,-3.6817098E0,3.3743405E-1,-4.9100566E0,6.392865E-1,-1.6287796E0,1.6620787E0,3.9325593E0,-6.997536E-2,-1.9497082E-2,-1.3947654E-1,-6.701697E-2,-7.922619E-2,1.8480733E-2,-1.5528569E-1,5.399499E-1,9.426034E-3,1.0478971E-1,-9.719554E-2,-1.2810112E-2,6.926781E-2,3.1533134E-3,1.7147966E-1,9.233806E-2],"categories":[],"categories_nodes":[],"categories_segments":[],"categories_sizes":[],"default_left":[0,0,0,0,0,0,0,0,0,0,0,0,0,0,0,0,0,0,0,0,0,0,0,0,0,0,0,0,0,0,0],"id":7,"left_children":[1,3,5,7,9,11,13,15,17,19,21,23,25,27,29,-1,-1,-1,-1,-1,-1,-1,-1,-1,-1,-1,-1,-1,-1,-1,-1],"loss_changes":[1.850045E6,9.518835E5,8.52035E5,2.5773838E5,2.2794055E5,2.641225E5,3.6241375E5,1.1615881E5,1.558995E5,2.0404939E5,5.249203E4,1.3679675E5,1.5250386E5,2.2561712E5,1.56108E5,0E0,0E0,0E0,0E0,0E0,0E0,0E0,0E0,0E0,0E0,0E0,0E0,0E0,0E0,0E0,0E0],"parents":[2147483647,0,0,1,1,2,2,3,3,4,4,5,5,6,6,7,7,8,8,9,9,10,10,11,11,12,12,13,13,14,14],"right_children":[2,4,6,8,10,12,14,16,18,20,22,24,26,28,30,-1,-1,-1,-1,-1,-1,-1,-1,-1,-1,-1,-1,-1,-1,-1,-1],"split_conditions":[5.5613503E0,5.7125306E0,4.9564834E0,1E0,8.7E1,1E0,6.3E1,7.2E1,4.2804317E0,2.3257809E0,8.6E1,2.3E1,3.5901067E0,1E0,5.875421E0,-6.997536E-2,-1.9497082E-2,-1.3947654E-1,-6.701697E-2,-7.922619E-2,1.8480733E-2,-1.5528569E-1,5.399499E-1,9.426034E-3,1.0478971E-1,-9.719554E-2,-1.2810112E-2,6.926781E-2,3.1533134E-3,1.7147966E-1,9.233806E-2],"split_indices":[2,1,1,24,9,24,9,9,1,2,7,10,1,24,2,0,0,0,0,0,0,0,0,0,0,0,0,0,0,0,0],"split_type":[0,0,0,0,0,0,0,0,0,0,0,0,0,0,0,0,0,0,0,0,0,0,0,0,0,0,0,0,0,0,0],"sum_hessian":[1.0994729E6,5.467609E5,5.52712E5,2.922808E5,2.544801E5,2.262307E5,3.264813E5,1.809611E5,1.113197E5,2.459169E5,8.5632E3,1.47463E5,7.87677E4,2.240217E5,1.024596E5,1.180787E5,6.28824E4,6.67238E4,4.45959E4,2.10329E4,2.24884E5,8.4672E3,9.6E1,1.323857E5,1.50773E4,3.36506E4,4.51171E4,1.58267E5,6.57547E4,3.31869E4,6.92727E4],"tree_param":{"num_deleted":"0","num_feature":"29","num_nodes":"31","size_leaf_vector":"1"}},{"base_weights":[-1.8584982E-2,6.305223E-1,-1.3312814E0,1.479788E-1,1.8546175E0,-1.100973E0,-5.618553E0,-1.1550113E-2,2.4370363E0,1.0361155E0,3.2208533E0,-8.788082E-1,-5.1160626E0,-5.3042083E0,-1.3598203E1,-4.7733546E-3,6.572184E-2,2.5114188E-2,1.17360845E-1,1.6499305E-2,9.3280114E-2,2.0054813E-1,7.881593E-2,-3.912554E-2,3.4525517E-2,-1.6448274E-1,1.8077614E-2,-2.141343E-1,-1.2980495E-1,-5.0965035E-1,-3.935895E-3],"categories":[],"categories_nodes":[],"categories_segments":[],"categories_sizes":[],"default_left":[0,0,0,0,0,0,0,0,0,0,0,0,0,0,0,0,0,0,0,0,0,0,0,0,0,0,0,0,0,0,0],"id":8,"left_children":[1,3,5,7,9,11,13,15,17,19,21,23,25,27,29,-1,-1,-1,-1,-1,-1,-1,-1,-1,-1,-1,-1,-1,-1,-1,-1],"loss_changes":[9.360103E5,4.34167E5,3.588568E5,1.9252473E5,2.3239138E5,3.076694E5,4.6241125E4,1.6016644E5,8.104341E4,1.3098472E5,1.6005381E5,2.822024E5,3.7938406E4,3.1851875E4,3.1943898E4,0E0,0E0,0E0,0E0,0E0,0E0,0E0,0E0,0E0,0E0,0E0,0E0,0E0,0E0,0E0,0E0],"parents":[2147483647,0,0,1,1,2,2,3,3,4,4,5,5,6,6,7,7,8,8,9,9,10,10,11,11,12,12,13,13,14,14],"right_children":[2,4,6,8,10,12,14,16,18,20,22,24,26,28,30,-1,-1,-1,-1,-1,-1,-1,-1,-1,-1,-1,-1,-1,-1,-1,-1],"split_conditions":[1E0,2E0,8.7E1,2.3E1,6.4E1,8.7E1,8.4E1,2.4E1,5.8E1,2.3E1,6.5E1,2E1,2.4E1,2E0,2.1E1,-4.7733546E-3,6.572184E-2,2.5114188E-2,1.17360845E-1,1.6499305E-2,9.3280114E-2,2.0054813E-1,7.881593E-2,-3.912554E-2,3.4525517E-2,-1.6448274E-1,1.8077614E-2,-2.141343E-1,-1.2980495E-1,-5.0965035E-1,-3.935895E-3],"split_indices":[24,20,9,11,9,8,8,10,8,10,9,11,10,20,10,0,0,0,0,0,0,0,0,0,0,0,0,0,0,0,0],"split_type":[0,0,0,0,0,0,0,0,0,0,0,0,0,0,0,0,0,0,0,0,0,0,0,0,0,0,0,0,0,0,0],"sum_hessian":[1.0984928E6,7.35032E5,3.634607E5,5.272084E5,2.078236E5,3.449351E5,1.85256E4,4.928624E5,3.4346E4,1.299672E5,7.78564E4,3.268534E5,1.80817E4,1.78284E4,6.972E2,4.619154E5,3.0947E4,1.6478E4,1.7868E4,1.05284E5,2.46832E4,1.13858E4,6.64706E4,2.702218E5,5.66316E4,1.69924E4,1.0893E3,6.192E3,1.16364E4,5.563E2,1.409E2],"tree_param":{"num_deleted":"0","num_feature":"29","num_nodes":"31","size_leaf_vector":"1"}},{"base_weights":[-8.003748E-3,-1.578984E0,1.0694073E0,-2.7972448E0,-1.862499E-1,-4.1613925E-1,2.104567E0,-4.4247847E0,-1.6815443E0,-1.6329112E0,6.3120234E-1,-1.4538603E0,7.450648E-1,4.8024464E-1,3.0838864E0,-1.2357441E-1,-2.348837E-1,-5.4535504E-2,1.781484E-1,-1.5487833E-1,-3.681242E-2,-4.3012734E-4,6.3381985E-2,-5.468221E-2,5.4057173E-2,4.592107E-2,-1.2131307E-2,2.6953196E-2,-5.8088023E-2,7.634647E-2,1.3377976E-1],"categories":[],"categories_nodes":[],"categories_segments":[],"categories_sizes":[],"default_left":[0,0,0,0,0,0,0,0,0,0,0,0,0,0,0,0,0,0,0,0,0,0,0,0,0,0,0,0,0,0,0],"id":9,"left_children":[1,3,5,7,9,11,13,15,17,19,21,23,25,27,29,-1,-1,-1,-1,-1,-1,-1,-1,-1,-1,-1,-1,-1,-1,-1,-1],"loss_changes":[1.8603774E6,7.5867225E5,1.0026112E6,4.3307212E5,2.4673261E5,3.226414E5,6.112136E5,1.00831625E5,1.4700647E5,1.0788022E5,1.2749862E5,1.6982119E5,1.1410944E5,1.4606214E5,1.7767425E5,0E0,0E0,0E0,0E0,0E0,0E0,0E0,0E0,0E0,0E0,0E0,0E0,0E0,0E0,0E0,0E0],"parents":[2147483647,0,0,1,1,2,2,3,3,4,4,5,5,6,6,7,7,8,8,9,9,10,10,11,11,12,12,13,13,14,14],"right_children":[2,4,6,8,10,12,14,16,18,20,22,24,26,28,30,-1,-1,-1,-1,-1,-1,-1,-1,-1,-1,-1,-1,-1,-1,-1,-1],"split_conditions":[4.9564834E0,5.7125306E0,4.9564834E0,4.9564834E0,4.6774516E0,5.7125306E0,4.6774516E0,2.2E1,8.892988E0,2.3257809E0,6.4E1,2.4E1,1.3E1,7.9E1,6.4E1,-1.2357441E-1,-2.348837E-1,-5.4535504E-2,1.781484E-1,-1.5487833E-1,-3.681242E-2,-4.3012734E-4,6.3381985E-2,-5.468221E-2,5.4057173E-2,4.592107E-2,-1.2131307E-2,2.6953196E-2,-5.8088023E-2,7.634647E-2,1.3377976E-1],"split_indices":[2,1,1,0,0,0,0,12,0,2,7,12,11,7,8,0,0,0,0,0,0,0,0,0,0,0,0,0,0,0,0],"split_type":[0,0,0,0,0,0,0,0,0,0,0,0,0,0,0,0,0,0,0,0,0,0,0,0,0,0,0,0,0,0,0],"sum_hessian":[1.0991232E6,4.47142E5,6.519812E5,2.385086E5,2.086334E5,2.677446E5,3.842366E5,9.69996E4,1.41509E5,7.53259E4,1.333075E5,1.413901E5,1.263545E5,1.445267E5,2.397099E5,8.90156E4,7.984E3,1.390245E5,2.4845E3,7.7637E3,6.75622E4,9.28519E4,4.04556E4,1.270023E5,1.43878E4,7.50548E4,5.12997E4,1.232071E5,2.13196E4,1.722272E5,6.74827E4],"tree_param":{"num_deleted":"0","num_feature":"29","num_nodes":"31","size_leaf_vector":"1"}},{"base_weights":[8.891879E-3,-1.1463053E0,1.2441609E0,-2.8830264E0,-2.0133956E-1,-7.390136E-2,2.1600165E0,-2.0743804E0,-4.0643244E0,2.637475E-2,-3.4463618E0,-2.1066648E-1,6.195084E0,3.7012472E0,1.7203052E0,-7.2286814E-2,1.8420275E-2,-1.821923E-1,-9.893032E-2,-8.6387835E-2,7.2547374E-3,1.0643428E-1,-1.2803431E-1,1.1458267E-2,-4.212365E-2,5.622783E-1,1.6750705E-1,7.0716694E-2,1.6728416E-1,-2.9264148E-2,6.073829E-2],"categories":[],"categories_nodes":[],"categories_segments":[],"categories_sizes":[],"default_left":[0,0,0,0,0,0,0,0,0,0,0,0,0,0,0,0,0,0,0,0,0,0,0,0,0,0,0,0,0,0,0],"id":10,"left_children":[1,3,5,7,9,11,13,15,17,19,21,23,25,27,29,-1,-1,-1,-1,-1,-1,-1,-1,-1,-1,-1,-1,-1,-1,-1,-1],"loss_changes":[1.5683681E6,9.320793E5,6.4116375E5,1.9114475E5,2.7179978E5,1.8669673E5,2.1235312E5,1.0706666E5,1.25168375E5,2.1518925E5,1.3861828E5,1.5072461E5,3.5334297E4,1.7523294E5,2.0002675E5,0E0,0E0,0E0,0E0,0E0,0E0,0E0,0E0,0E0,0E0,0E0,0E0,0E0,0E0,0E0,0E0],"parents":[2147483647,0,0,1,1,2,2,3,3,4,4,5,5,6,6,7,7,8,8,9,9,10,10,11,11,12,12,13,13,14,14],"right_children":[2,4,6,8,10,12,14,16,18,20,22,24,26,28,30,-1,-1,-1,-1,-1,-1,-1,-1,-1,-1,-1,-1,-1,-1,-1,-1],"split_conditions":[5.662033E0,4.673775E0,4.9564834E0,1E0,2.2E1,8.892988E0,5.875421E0,2.3E1,2.9557624E0,2.3257809E0,1.2480112E0,1E0,3E0,5.747442E0,5.9646525E0,-7.2286814E-2,1.8420275E-2,-1.821923E-1,-9.893032E-2,-8.6387835E-2,7.2547374E-3,1.0643428E-1,-1.2803431E-1,1.1458267E-2,-4.212365E-2,5.622783E-1,1.6750705E-1,7.0716694E-2,1.6728416E-1,-2.9264148E-2,6.073829E-2],"split_indices":[2,1,1,24,12,2,2,10,2,2,2,24,7,2,2,0,0,0,0,0,0,0,0,0,0,0,0,0,0,0,0],"split_type":[0,0,0,0,0,0,0,0,0,0,0,0,0,0,0,0,0,0,0,0,0,0,0,0,0,0,0,0,0,0,0],"sum_hessian":[1.0990766E6,5.679455E5,5.311311E5,2.001286E5,3.678169E5,2.177524E5,3.133787E5,1.188085E5,8.13201E4,3.437009E5,2.4116E4,2.131063E5,4.6461E3,6.95555E4,2.438232E5,1.056385E5,1.317E4,2.24569E4,5.88632E4,2.37204E4,3.199805E5,2.5335E3,2.15825E4,1.423993E5,7.0707E4,2.117E2,4.4344E3,4.05176E4,2.90379E4,2.47305E4,2.190927E5],"tree_param":{"num_deleted":"0","num_feature":"29","num_nodes":"31","size_leaf_vector":"1"}},{"base_weights":[4.5419065E-3,-1.4412327E0,9.9622947E-1,-2.9786234E0,-5.360215E-1,-4.4581103E-1,1.8660784E0,-2.226099E0,-4.1130385E0,-6.4101684E-1,5.9005423E0,-1.06962286E-1,-2.414929E0,2.3679101E0,6.120336E-1,1.8318771E-1,-7.077464E-2,-1.9246258E-1,-9.619573E-2,-3.651527E-2,1.8719293E-2,5.073915E-2,2.7459687E-1,-5.3580202E-2,8.03301E-3,-8.5225575E-2,-7.470513E-3,1.070152E-1,5.374722E-2,3.3631288E-2,-5.552028E-2],"categories":[],"categories_nodes":[],"categories_segments":[],"categories_sizes":[],"default_left":[0,0,0,0,0,0,0,0,0,0,0,0,0,0,0,0,0,0,0,0,0,0,0,0,0,0,0,0,0,0,0],"id":11,"left_children":[1,3,5,7,9,11,13,15,17,19,21,23,25,27,29,-1,-1,-1,-1,-1,-1,-1,-1,-1,-1,-1,-1,-1,-1,-1,-1],"loss_changes":[1.5744926E6,6.2177075E5,8.170556E5,1.41314E5,1.9005442E5,1.6352248E5,2.5568112E5,1.1040716E5,1.3773962E5,2.0167569E5,6.1742625E4,1.3156725E5,3.3188094E4,2.005365E5,1.455716E5,0E0,0E0,0E0,0E0,0E0,0E0,0E0,0E0,0E0,0E0,0E0,0E0,0E0,0E0,0E0,0E0],"parents":[2147483647,0,0,1,1,2,2,3,3,4,4,5,5,6,6,7,7,8,8,9,9,10,10,11,11,12,12,13,13,14,14],"right_children":[2,4,6,8,10,12,14,16,18,20,22,24,26,28,30,-1,-1,-1,-1,-1,-1,-1,-1,-1,-1,-1,-1,-1,-1,-1,-1],"split_conditions":[4.9564834E0,4.7203217E0,4.7203217E0,1E0,8.892988E0,7.9E1,1E0,1.2480112E0,2.862956E0,6.4E1,1E1,5.662033E0,2E1,2E0,7.8E1,1.8318771E-1,-7.077464E-2,-1.9246258E-1,-9.619573E-2,-3.651527E-2,1.8719293E-2,5.073915E-2,2.7459687E-1,-5.3580202E-2,8.03301E-3,-8.5225575E-2,-7.470513E-3,1.070152E-1,5.374722E-2,3.3631288E-2,-5.552028E-2],"split_indices":[2,0,0,24,0,7,24,0,2,7,11,2,11,19,8,0,0,0,0,0,0,0,0,0,0,0,0,0,0,0,0],"split_type":[0,0,0,0,0,0,0,0,0,0,0,0,0,0,0,0,0,0,0,0,0,0,0,0,0,0,0,0,0,0,0],"sum_hessian":[1.0981532E6,4.467854E5,6.513678E5,1.655726E5,2.812128E5,2.450774E5,4.062904E5,9.9547E4,6.60256E4,2.76702E5,4.5108E3,2.09099E5,3.59784E4,2.901696E5,1.161208E5,1.5624E3,9.79846E4,1.86468E4,4.73788E4,1.901132E5,8.65888E4,1.9684E3,2.5424E3,3.81504E4,1.709486E5,3.00648E4,5.9136E3,9.41796E4,1.9599E5,9.62328E4,1.9888E4],"tree_param":{"num_deleted":"0","num_feature":"29","num_nodes":"31","size_leaf_vector":"1"}},{"base_weights":[-1.6611124E-3,-1.7767881E0,7.5775886E-1,-2.8540287E0,-4.6190816E-1,-3.5812816E-1,1.9412166E0,4.909971E0,-2.915214E0,2.6289742E0,-8.2673806E-1,-1.4078647E0,1.9314599E-1,1.2853149E0,3.5621464E0,2.7669176E-1,-5.8776274E-2,-8.226536E-2,-1.8394285E-1,-2.623001E-1,1.1958916E-1,-1.8244319E-2,-1.3308957E-1,-9.5434524E-2,-2.32342E-2,2.0190105E-3,1.6492338E-1,2.0260613E-2,7.846852E-2,1.8785259E-1,9.610318E-2],"categories":[],"categories_nodes":[],"categories_segments":[],"categories_sizes":[],"default_left":[0,0,0,0,0,0,0,0,0,0,0,0,0,0,0,0,0,0,0,0,0,0,0,0,0,0,0,0,0,0,0],"id":12,"left_children":[1,3,5,7,9,11,13,15,17,19,21,23,25,27,29,-1,-1,-1,-1,-1,-1,-1,-1,-1,-1,-1,-1,-1,-1,-1,-1],"loss_changes":[1.4803355E6,4.6603938E5,1.0156681E6,8.5954875E4,1.6709256E5,2.2907627E5,3.9680488E5,4.198717E4,9.9804375E4,2.4157422E5,1.0456007E5,1.5308181E5,1.7324761E5,2.1561116E5,1.04050375E5,0E0,0E0,0E0,0E0,0E0,0E0,0E0,0E0,0E0,0E0,0E0,0E0,0E0,0E0,0E0,0E0],"parents":[2147483647,0,0,1,1,2,2,3,3,4,4,5,5,6,6,7,7,8,8,9,9,10,10,11,11,12,12,13,13,14,14],"right_children":[2,4,6,8,10,12,14,16,18,20,22,24,26,28,30,-1,-1,-1,-1,-1,-1,-1,-1,-1,-1,-1,-1,-1,-1,-1,-1],"split_conditions":[4.2804317E0,5.7280283E0,5.662033E0,1.2480112E0,5.773804E0,5.7125306E0,6.3E1,2E0,2.2E1,7E0,8.6E1,2.9557624E0,8.892988E0,6.4E1,6.5E1,2.7669176E-1,-5.8776274E-2,-8.226536E-2,-1.8394285E-1,-2.623001E-1,1.1958916E-1,-1.8244319E-2,-1.3308957E-1,-9.5434524E-2,-2.32342E-2,2.0190105E-3,1.6492338E-1,2.0260613E-2,7.846852E-2,1.8785259E-1,9.610318E-2],"split_indices":[2,1,1,1,1,2,9,16,11,11,9,1,2,8,9,0,0,0,0,0,0,0,0,0,0,0,0,0,0,0,0],"split_type":[0,0,0,0,0,0,0,0,0,0,0,0,0,0,0,0,0,0,0,0,0,0,0,0,0,0,0,0,0,0,0],"sum_hessian":[1.0981105E6,3.290233E5,7.690872E5,1.808523E5,1.48171E5,3.958448E5,3.732424E5,1.4121E3,1.794402E5,1.56406E4,1.325304E5,1.362998E5,2.59545E5,2.657243E5,1.075181E5,8.669E2,5.452E2,1.702846E5,9.1556E3,1.6659E3,1.39747E4,1.249663E5,7.5641E3,3.58679E4,1.004319E5,2.535331E5,6.0119E3,1.821921E5,8.35322E4,1.26046E4,9.49135E4],"tree_param":{"num_deleted":"0","num_feature":"29","num_nodes":"31","size_leaf_vector":"1"}},{"base_weights":[1.4099796E-2,-1.7271982E0,7.5830925E-1,-3.2967043E0,-9.3628657E-1,-6.843771E-1,1.6179247E0,-2.3316622E0,-4.603567E0,-1.3751675E0,2.1098387E-1,-2.6342353E-1,-3.0855315E0,1.0369496E0,3.0526683E0,2.3229128E-1,-7.5578414E-2,-1.6641133E-1,-8.507675E-2,-2.1686682E-2,-9.2843965E-2,1.22750185E-1,-1.1499073E-2,-4.5555927E-2,1.1786933E-2,-9.3691915E-2,1.6309538E0,6.115789E-2,5.9643993E-3,6.702031E-2,1.2552018E-1],"categories":[],"categories_nodes":[],"categories_segments":[],"categories_sizes":[],"default_left":[0,0,0,0,0,0,0,0,0,0,0,0,0,0,0,0,0,0,0,0,0,0,0,0,0,0,0,0,0,0,0],"id":13,"left_children":[1,3,5,7,9,11,13,15,17,19,21,23,25,27,29,-1,-1,-1,-1,-1,-1,-1,-1,-1,-1,-1,-1,-1,-1,-1,-1],"loss_changes":[1.4221176E6,4.078717E5,9.534629E5,1.3881412E5,1.10014734E5,2.901455E5,4.0156288E5,1.1977478E5,7.7934125E4,1.7725428E5,1.394368E5,2.011995E5,9.278422E4,2.8787994E5,1.28569E5,0E0,0E0,0E0,0E0,0E0,0E0,0E0,0E0,0E0,0E0,0E0,0E0,0E0,0E0,0E0,0E0],"parents":[2147483647,0,0,1,1,2,2,3,3,4,4,5,5,6,6,7,7,8,8,9,9,10,10,11,11,12,12,13,13,14,14],"right_children":[2,4,6,8,10,12,14,16,18,20,22,24,26,28,30,-1,-1,-1,-1,-1,-1,-1,-1,-1,-1,-1,-1,-1,-1,-1,-1],"split_conditions":[4.2804317E0,4.391096E0,4.7203217E0,1E0,6.4E1,7.9E1,6.3E1,1.2480112E0,1E0,4.4E1,6.5E1,5.7125306E0,2E0,2.4E1,2E0,2.3229128E-1,-7.5578414E-2,-1.6641133E-1,-8.507675E-2,-2.1686682E-2,-9.2843965E-2,1.22750185E-1,-1.1499073E-2,-4.5555927E-2,1.1786933E-2,-9.3691915E-2,1.6309538E0,6.115789E-2,5.9643993E-3,6.702031E-2,1.2552018E-1],"split_indices":[2,1,1,24,8,8,9,1,25,8,8,2,27,9,20,0,0,0,0,0,0,0,0,0,0,0,0,0,0,0,0],"split_type":[0,0,0,0,0,0,0,0,0,0,0,0,0,0,0,0,0,0,0,0,0,0,0,0,0,0,0,0,0,0,0],"sum_hessian":[1.0974004E6,3.285815E5,7.688189E5,1.100951E5,2.184864E5,2.870554E5,4.817635E5,6.3335E4,4.67601E4,1.580324E5,6.0454E4,2.442406E5,4.28148E4,3.429127E5,1.388508E5,1.1556E3,6.21794E4,3.04831E4,1.6277E4,1.145768E5,4.34556E4,8.0263E3,5.24277E4,8.38633E4,1.603773E5,4.27897E4,2.51E1,1.562157E5,1.86697E5,8.05634E4,5.82874E4],"tree_param":{"num_deleted":"0","num_feature":"29","num_nodes":"31","size_leaf_vector":"1"}},{"base_weights":[-5.9465844E-2,-1.5443501E0,8.118189E-1,-3.298923E0,-6.423754E-1,-6.275866E-1,1.6444409E0,-4.4743366E0,-2.2853885E0,-1.2012178E-1,-1.8262556E0,-1.4281295E-1,-3.34092E0,1.1046647E0,3.000463E0,-9.614083E-2,-1.6593711E-1,-7.4179076E-2,4.623057E-2,-1.7503679E-2,3.2300513E-2,-6.711458E-2,6.467201E-2,-2.3768708E-2,3.7724767E-2,-1.0138315E-1,1.6859688E0,5.181634E-2,-2.6058428E-2,4.9319554E-2,1.232854E-1],"categories":[],"categories_nodes":[],"categories_segments":[],"categories_sizes":[],"default_left":[0,0,0,0,0,0,0,0,0,0,0,0,0,0,0,0,0,0,0,0,0,0,0,0,0,0,0,0,0,0,0],"id":14,"left_children":[1,3,5,7,9,11,13,15,17,19,21,23,25,27,29,-1,-1,-1,-1,-1,-1,-1,-1,-1,-1,-1,-1,-1,-1,-1,-1],"loss_changes":[1.4202905E6,6.4244675E5,8.2916975E5,1.641655E5,1.6577581E5,3.3349034E5,3.2080612E5,8.5572E4,5.3046188E4,1.03173E5,1.3430216E5,1.9563967E5,8.865509E4,3.8514962E5,1.8771475E5,0E0,0E0,0E0,0E0,0E0,0E0,0E0,0E0,0E0,0E0,0E0,0E0,0E0,0E0,0E0,0E0],"parents":[2147483647,0,0,1,1,2,2,3,3,4,4,5,5,6,6,7,7,8,8,9,9,10,10,11,11,12,12,13,13,14,14],"right_children":[2,4,6,8,10,12,14,16,18,20,22,24,26,28,30,-1,-1,-1,-1,-1,-1,-1,-1,-1,-1,-1,-1,-1,-1,-1,-1],"split_conditions":[4.7203217E0,4.51879E0,4.6774516E0,1E0,1.5E1,7.9E1,6.4E1,1E0,1E0,1.1E1,3E0,7.2E1,2E0,4.4E1,1E0,-9.614083E-2,-1.6593711E-1,-7.4179076E-2,4.623057E-2,-1.7503679E-2,3.2300513E-2,-6.711458E-2,6.467201E-2,-2.3768708E-2,3.7724767E-2,-1.0138315E-1,1.6859688E0,5.181634E-2,-2.6058428E-2,4.9319554E-2,1.232854E-1],"split_indices":[2,1,1,25,12,8,8,24,21,12,19,8,27,8,14,0,0,0,0,0,0,0,0,0,0,0,0,0,0,0,0],"split_type":[0,0,0,0,0,0,0,0,0,0,0,0,0,0,0,0,0,0,0,0,0,0,0,0,0,0,0,0,0,0,0],"sum_hessian":[1.0977968E6,4.059524E5,6.918443E5,1.378295E5,2.681229E5,2.535376E5,4.383067E5,6.38131E4,7.40164E4,1.860524E5,8.20705E4,2.15109E5,3.84286E4,3.135154E5,1.247913E5,2.89949E4,3.48182E4,7.05646E4,3.4518E3,1.341281E5,5.19243E4,7.43953E4,7.6752E3,1.469527E5,6.81563E4,3.84066E4,2.2E1,2.383269E5,7.51885E4,5.61377E4,6.86536E4],"tree_param":{"num_deleted":"0","num_feature":"29","num_nodes":"31","size_leaf_vector":"1"}},{"base_weights":[-3.0972354E-2,-1.050162E0,1.1444579E0,-2.6629043E0,-1.7674209E-1,1.1453654E-1,2.1884704E0,-3.9305844E0,-1.1732496E0,-1.4471974E0,6.988997E-1,-8.9694566E-1,1.1716224E0,5.826415E-1,2.8573666E0,-1.5152743E-1,-8.716661E-2,-1.7901238E-2,-1.277244E-1,-6.1448578E-2,-4.260139E-3,1.2908594E-3,6.889514E-2,-3.1373248E-2,1.6347036E-1,1.8604252E-2,7.109817E-2,3.4899745E-2,-6.1558135E-2,7.06891E-2,1.2484065E-1],"categories":[],"categories_nodes":[],"categories_segments":[],"categories_sizes":[],"default_left":[0,0,0,0,0,0,0,0,0,0,0,0,0,0,0,0,0,0,0,0,0,0,0,0,0,0,0,0,0,0,0],"id":15,"left_children":[1,3,5,7,9,11,13,15,17,19,21,23,25,27,29,-1,-1,-1,-1,-1,-1,-1,-1,-1,-1,-1,-1,-1,-1,-1,-1],"loss_changes":[1.3158331E6,8.286529E5,5.484683E5,3.9025925E5,4.2453766E5,2.7455862E5,2.7208025E5,1.2816675E5,1.6895297E5,1.2215459E5,2.3671325E5,1.2394695E5,8.296958E4,1.13967586E5,1.1680275E5,0E0,0E0,0E0,0E0,0E0,0E0,0E0,0E0,0E0,0E0,0E0,0E0,0E0,0E0,0E0,0E0],"parents":[2147483647,0,0,1,1,2,2,3,3,4,4,5,5,6,6,7,7,8,8,9,9,10,10,11,11,12,12,13,13,14,14],"right_children":[2,4,6,8,10,12,14,16,18,20,22,24,26,28,30,-1,-1,-1,-1,-1,-1,-1,-1,-1,-1,-1,-1,-1,-1,-1,-1],"split_conditions":[5.7125306E0,4.673775E0,5.5613503E0,5.7125306E0,5.0555735E0,5.662033E0,4.210249E0,1E0,7.9E1,4.6774516E0,6.3E1,8.892988E0,6.4E1,7.9E1,6.4E1,-1.5152743E-1,-8.716661E-2,-1.7901238E-2,-1.277244E-1,-6.1448578E-2,-4.260139E-3,1.2908594E-3,6.889514E-2,-3.1373248E-2,1.6347036E-1,1.8604252E-2,7.109817E-2,3.4899745E-2,-6.1558135E-2,7.06891E-2,1.2484065E-1],"split_indices":[0,1,2,2,2,1,1,25,8,0,9,0,8,8,8,0,0,0,0,0,0,0,0,0,0,0,0,0,0,0,0],"split_type":[0,0,0,0,0,0,0,0,0,0,0,0,0,0,0,0,0,0,0,0,0,0,0,0,0,0,0,0,0,0,0],"sum_hessian":[1.0983648E6,5.882807E5,5.10084E5,2.066678E5,3.816129E5,2.56777E5,2.53307E5,1.116496E5,9.50182E4,1.557038E5,2.259091E5,1.312187E5,1.255583E5,7.44885E4,1.788185E5,5.33389E4,5.83107E4,8.00569E4,1.49613E4,1.066056E5,4.90982E4,1.601612E5,6.57479E4,1.282144E5,3.0043E3,8.599E4,3.95683E4,6.10374E4,1.34511E4,1.29187E5,4.96315E4],"tree_param":{"num_deleted":"0","num_feature":"29","num_nodes":"31","size_leaf_vector":"1"}},{"base_weights":[-1.9971643E-2,-1.4414109E0,8.2830316E-1,-2.5390604E0,-2.8672656E-1,-7.0203483E-1,1.4894967E0,-2.3276644E0,-5.5757675E0,8.0946065E-2,-2.4461195E0,-8.9121545E-3,-1.8605398E0,9.751009E-1,2.7531662E0,-1.6205548E-1,-6.319422E-2,-1.4607589E-1,-3.5379854E-1,5.3695552E-2,-1.307057E-2,-9.332154E-2,-3.0288365E-2,-2.9066972E-2,3.7199248E-2,-3.0766642E-2,-1.0501297E-1,2.0218564E-2,1.3013749E-1,5.7748266E-2,1.16996035E-1],"categories":[],"categories_nodes":[],"categories_segments":[],"categories_sizes":[],"default_left":[0,0,0,0,0,0,0,0,0,0,0,0,0,0,0,0,0,0,0,0,0,0,0,0,0,0,0,0,0,0,0],"id":16,"left_children":[1,3,5,7,9,11,13,15,17,19,21,23,25,27,29,-1,-1,-1,-1,-1,-1,-1,-1,-1,-1,-1,-1,-1,-1,-1,-1],"loss_changes":[1.3227151E6,5.196247E5,6.9514675E5,1.34879E5,1.586381E5,1.6643528E5,3.1182688E5,1.3358012E5,5.9894875E4,1.5074319E5,2.7740453E4,1.554878E5,1.0622509E5,3.4526947E5,1.3177912E5,0E0,0E0,0E0,0E0,0E0,0E0,0E0,0E0,0E0,0E0,0E0,0E0,0E0,0E0,0E0,0E0],"parents":[2147483647,0,0,1,1,2,2,3,3,4,4,5,5,6,6,7,7,8,8,9,9,10,10,11,11,12,12,13,13,14,14],"right_children":[2,4,6,8,10,12,14,16,18,20,22,24,26,28,30,-1,-1,-1,-1,-1,-1,-1,-1,-1,-1,-1,-1,-1,-1,-1,-1],"split_conditions":[4.7203217E0,5.662033E0,4.2804317E0,2.2E1,7.9E1,1E0,6.3E1,2.3257809E0,7.9E1,5.875421E0,6.3E1,7.2E1,1.5E1,8.26223E0,2E0,-1.6205548E-1,-6.319422E-2,-1.4607589E-1,-3.5379854E-1,5.3695552E-2,-1.307057E-2,-9.332154E-2,-3.0288365E-2,-2.9066972E-2,3.7199248E-2,-3.0766642E-2,-1.0501297E-1,2.0218564E-2,1.3013749E-1,5.7748266E-2,1.16996035E-1],"split_indices":[0,2,2,12,7,24,9,2,8,2,9,9,12,2,20,0,0,0,0,0,0,0,0,0,0,0,0,0,0,0,0],"split_type":[0,0,0,0,0,0,0,0,0,0,0,0,0,0,0,0,0,0,0,0,0,0,0,0,0,0,0,0,0,0,0],"sum_hessian":[1.0969804E6,4.099812E5,6.869992E5,2.101792E5,1.99802E5,2.072698E5,4.797294E5,1.965054E5,1.36738E4,1.707341E5,2.90679E4,1.296846E5,7.75852E4,3.409476E5,1.387818E5,1.31847E4,1.833207E5,1.22834E4,1.3904E3,3.96326E4,1.311015E5,1.98706E4,9.1973E3,7.33239E4,5.63607E4,5.14128E4,2.61724E4,3.12928E5,2.80196E4,8.05861E4,5.81957E4],"tree_param":{"num_deleted":"0","num_feature":"29","num_nodes":"31","size_leaf_vector":"1"}},{"base_weights":[-3.501385E-2,-1.0265404E0,1.1198173E0,-2.1613233E0,1.4570981E-1,2.8534624E-1,2.1058779E0,-3.1504426E0,-1.3136132E0,-2.4047452E-1,1.8088201E0,2.221048E0,-5.328887E-3,2.2039275E0,-3.6543574E0,-6.4854935E-2,-1.1982114E-1,-4.655172E-2,7.164159E-2,-1.22509245E-2,1.2960993E-1,4.9746653E-1,5.0906412E-2,1.8093927E-2,1.4515117E-1,3.5789628E-3,-1.2719737E-1,4.9060553E-2,9.625796E-2,-3.6805294E-2,-2.071752E-1],"categories":[],"categories_nodes":[],"categories_segments":[],"categories_sizes":[],"default_left":[0,0,0,0,0,0,0,0,0,0,0,0,0,0,0,0,0,0,0,0,0,0,0,0,0,0,0,0,0,0,0],"id":17,"left_children":[1,3,5,7,9,11,13,15,17,19,21,23,25,27,29,-1,-1,-1,-1,-1,-1,-1,-1,-1,-1,-1,-1,-1,-1,-1,-1],"loss_changes":[1.2575426E6,7.860523E5,4.174575E5,2.5173912E5,1.8668161E5,1.546202E5,1.3136338E5,1.15529625E5,1.4252366E5,1.8062112E5,9.047905E4,1.5191527E5,1.2609634E5,1.3059625E5,3.0694773E4,0E0,0E0,0E0,0E0,0E0,0E0,0E0,0E0,0E0,0E0,0E0,0E0,0E0,0E0,0E0,0E0],"parents":[2147483647,0,0,1,1,2,2,3,3,4,4,5,5,6,6,7,7,8,8,9,9,10,10,11,11,12,12,13,13,14,14],"right_children":[2,4,6,8,10,12,14,16,18,20,22,24,26,28,30,-1,-1,-1,-1,-1,-1,-1,-1,-1,-1,-1,-1,-1,-1,-1,-1],"split_conditions":[5.7125306E0,5.662033E0,5.7125306E0,1E0,2.2E1,5.773804E0,8.7E1,1E0,1E0,8.3E1,1.2480112E0,5.747442E0,8.7E1,6.3E1,6.8169236E0,-6.4854935E-2,-1.1982114E-1,-4.655172E-2,7.164159E-2,-1.22509245E-2,1.2960993E-1,4.9746653E-1,5.0906412E-2,1.8093927E-2,1.4515117E-1,3.5789628E-3,-1.2719737E-1,4.9060553E-2,9.625796E-2,-3.6805294E-2,-2.071752E-1],"split_indices":[1,0,0,25,10,1,9,24,28,7,1,1,7,9,1,0,0,0,0,0,0,0,0,0,0,0,0,0,0,0,0],"split_type":[0,0,0,0,0,0,0,0,0,0,0,0,0,0,0,0,0,0,0,0,0,0,0,0,0,0,0,0,0,0,0],"sum_hessian":[1.0982408E6,5.909006E5,5.073402E5,3.002477E5,2.906529E5,2.74795E5,2.325452E5,1.385622E5,1.616855E5,2.358817E5,5.47712E4,3.5875E4,2.3892E5,2.286551E5,3.8901E3,6.38031E4,7.47591E4,1.519155E5,9.77E3,2.275097E5,8.372E3,4.085E2,5.43627E4,2.21728E4,1.37022E4,2.32092E5,6.828E3,1.460242E5,8.26309E4,2.2298E3,1.6603E3],"tree_param":{"num_deleted":"0","num_feature":"29","num_nodes":"31","size_leaf_vector":"1"}},{"base_weights":[-1.0845795E-3,-1.423115E0,7.433539E-1,-7.344988E-1,-2.5986001E0,2.7583143E-1,1.9582355E0,6.678058E0,-8.4848446E-1,-3.7460852E0,-1.7659158E0,9.3686086E-1,-1.4871082E0,5.093828E0,1.5209424E0,-3.5400357E-2,2.5285318E-1,-3.317794E-2,4.590939E-2,-1.0671138E-1,-2.639053E-1,-9.237585E-2,-3.2848243E-2,4.51489E-2,-4.741299E-3,-2.892371E-2,-8.918265E-2,1.5763783E-1,-2.7287605E-1,9.650513E-2,3.4108467E-2],"categories":[],"categories_nodes":[],"categories_segments":[],"categories_sizes":[],"default_left":[0,0,0,0,0,0,0,0,0,0,0,0,0,0,0,0,0,0,0,0,0,0,0,0,0,0,0,0,0,0,0],"id":18,"left_children":[1,3,5,7,9,11,13,15,17,19,21,23,25,27,29,-1,-1,-1,-1,-1,-1,-1,-1,-1,-1,-1,-1,-1,-1,-1,-1],"loss_changes":[1.1631268E6,3.0559588E5,4.0961666E5,2.0117061E5,1.3323344E5,6.0689444E5,2.7476412E5,4.963353E4,1.4360148E5,5.5886438E4,7.120691E4,2.3559816E5,1.1033244E5,5.6090812E4,1.1452269E5,0E0,0E0,0E0,0E0,0E0,0E0,0E0,0E0,0E0,0E0,0E0,0E0,0E0,0E0,0E0,0E0],"parents":[2147483647,0,0,1,1,2,2,3,3,4,4,5,5,6,6,7,7,8,8,9,9,10,10,11,11,12,12,13,13,14,14],"right_children":[2,4,6,8,10,12,14,16,18,20,22,24,26,28,30,-1,-1,-1,-1,-1,-1,-1,-1,-1,-1,-1,-1,-1,-1,-1,-1],"split_conditions":[4.51879E0,1E0,6.4E1,1.2480112E0,2.9557624E0,4.4E1,6.5E1,2.1E1,2.3E1,8.7E1,2E0,1E0,1E0,2E0,1.5E1,-3.5400357E-2,2.5285318E-1,-3.317794E-2,4.590939E-2,-1.0671138E-1,-2.639053E-1,-9.237585E-2,-3.2848243E-2,4.51489E-2,-4.741299E-3,-2.892371E-2,-8.918265E-2,1.5763783E-1,-2.7287605E-1,9.650513E-2,3.4108467E-2],"split_indices":[1,24,8,1,1,8,8,7,12,9,20,24,24,24,9,0,0,0,0,0,0,0,0,0,0,0,0,0,0,0,0],"split_type":[0,0,0,0,0,0,0,0,0,0,0,0,0,0,0,0,0,0,0,0,0,0,0,0,0,0,0,0,0,0,0],"sum_hessian":[1.0987192E6,3.775396E5,7.211796E5,2.380766E5,1.39463E5,5.207746E5,2.00405E5,3.6028E3,2.344738E5,5.86409E4,8.08221E4,3.78758E5,1.420166E5,2.45238E4,1.758812E5,6.564E2,2.9464E3,2.115777E5,2.28961E4,5.65304E4,2.1105E3,2.73258E4,5.34963E4,2.493697E5,1.293883E5,1.050441E5,3.69725E4,2.4251E4,2.728E2,3.2467E4,1.434142E5],"tree_param":{"num_deleted":"0","num_feature":"29","num_nodes":"31","size_leaf_vector":"1"}},{"base_weights":[3.625774E-2,-9.521236E-1,1.2082368E0,-2.369176E0,-1.779098E-1,3.682396E-2,2.0252666E0,-3.5309873E0,-1.0570616E0,-1.5186824E0,5.871386E-1,4.3181902E-1,-2.06333E0,6.0988563E-1,2.8856728E0,-9.915462E-2,-2.1126302E-1,-1.867688E-2,-9.5331475E-2,-9.276299E-2,-2.9816065E-2,1.4271882E-2,2.0793706E-1,6.652631E-2,3.616402E-4,-8.700633E-2,6.2846124E-2,3.4274948E-3,8.5822746E-2,1.3748841E-1,7.585883E-2],"categories":[],"categories_nodes":[],"categories_segments":[],"categories_sizes":[],"default_left":[0,0,0,0,0,0,0,0,0,0,0,0,0,0,0,0,0,0,0,0,0,0,0,0,0,0,0,0,0,0,0],"id":19,"left_children":[1,3,5,7,9,11,13,15,17,19,21,23,25,27,29,-1,-1,-1,-1,-1,-1,-1,-1,-1,-1,-1,-1,-1,-1,-1,-1],"loss_changes":[1.272805E6,6.539658E5,4.811293E5,3.2104138E5,3.954155E5,1.7135378E5,3.6064375E5,8.8489875E4,9.112904E4,1.1563156E5,1.734562E5,1.3032344E5,1.1381172E5,1.2491092E5,1.11573875E5,0E0,0E0,0E0,0E0,0E0,0E0,0E0,0E0,0E0,0E0,0E0,0E0,0E0,0E0,0E0,0E0],"parents":[2147483647,0,0,1,1,2,2,3,3,4,4,5,5,6,6,7,7,8,8,9,9,10,10,11,11,12,12,13,13,14,14],"right_children":[2,4,6,8,10,12,14,16,18,20,22,24,26,28,30,-1,-1,-1,-1,-1,-1,-1,-1,-1,-1,-1,-1,-1,-1,-1,-1],"split_conditions":[5.7125306E0,4.673775E0,4.9564834E0,5.7125306E0,4.6774516E0,7.9E1,4.6774516E0,2.2E1,5E0,2.9557624E0,8.892988E0,5.875421E0,4.210249E0,2.2E1,5.875421E0,-9.915462E-2,-2.1126302E-1,-1.867688E-2,-9.5331475E-2,-9.276299E-2,-2.9816065E-2,1.4271882E-2,2.0793706E-1,6.652631E-2,3.616402E-4,-8.700633E-2,6.2846124E-2,3.4274948E-3,8.5822746E-2,1.3748841E-1,7.585883E-2],"split_indices":[2,1,1,0,0,8,0,12,16,2,0,2,1,12,2,0,0,0,0,0,0,0,0,0,0,0,0,0,0,0,0],"split_type":[0,0,0,0,0,0,0,0,0,0,0,0,0,0,0,0,0,0,0,0,0,0,0,0,0,0,0,0,0,0,0],"sum_hessian":[1.0987908E6,5.960855E5,5.027053E5,2.106051E5,3.854804E5,2.06558E5,2.961473E5,1.116971E5,9.8908E4,1.400451E5,2.454353E5,1.738612E5,3.26968E4,1.119667E5,1.841806E5,1.049527E5,6.7444E3,8.20925E4,1.68155E4,3.50242E4,1.050209E5,2.412029E5,4.2324E3,3.30876E4,1.407736E5,2.72197E4,5.4771E3,9.17641E4,2.02026E4,3.20043E4,1.521763E5],"tree_param":{"num_deleted":"0","num_feature":"29","num_nodes":"31","size_leaf_vector":"1"}},{"base_weights":[5.429905E-2,-9.1829807E-1,1.0936265E0,-2.3199654E0,-8.811363E-2,-1.20139375E-1,1.9398926E0,-3.3598542E0,-1.1162845E0,-1.4200884E0,6.3450617E-1,-1.0429817E0,9.206107E-1,6.982175E-1,2.691981E0,-1.3350554E-1,-7.421937E-2,-1.2865624E-1,-2.5096474E-2,-8.109882E-2,-6.936146E-3,-2.6361411E-3,4.5484133E-2,-5.295951E-2,1.7255232E-2,5.5296548E-2,-1.1726306E-2,8.020493E-3,8.421945E-2,6.5289624E-2,1.2066599E-1],"categories":[],"categories_nodes":[],"categories_segments":[],"categories_sizes":[],"default_left":[0,0,0,0,0,0,0,0,0,0,0,0,0,0,0,0,0,0,0,0,0,0,0,0,0,0,0,0,0,0,0],"id":20,"left_children":[1,3,5,7,9,11,13,15,17,19,21,23,25,27,29,-1,-1,-1,-1,-1,-1,-1,-1,-1,-1,-1,-1,-1,-1,-1,-1],"loss_changes":[1.1113312E6,6.6087E5,5.459132E5,2.6441075E5,3.433149E5,2.0969961E5,2.9241875E5,1.0943175E5,8.687846E4,1.9137964E5,1.4726925E5,1.3526722E5,1.2416295E5,1.07342734E5,1.3373775E5,0E0,0E0,0E0,0E0,0E0,0E0,0E0,0E0,0E0,0E0,0E0,0E0,0E0,0E0,0E0,0E0],"parents":[2147483647,0,0,1,1,2,2,3,3,4,4,5,5,6,6,7,7,8,8,9,9,10,10,11,11,12,12,13,13,14,14],"right_children":[2,4,6,8,10,12,14,16,18,20,22,24,26,28,30,-1,-1,-1,-1,-1,-1,-1,-1,-1,-1,-1,-1,-1,-1,-1,-1],"split_conditions":[5.662033E0,4.7203217E0,4.9564834E0,5.7125306E0,4.673775E0,5.7125306E0,4.6774516E0,1E0,2.3257809E0,1E0,4.210249E0,6.4E1,1.3E1,2.2E1,6.4E1,-1.3350554E-1,-7.421937E-2,-1.2865624E-1,-2.5096474E-2,-8.109882E-2,-6.936146E-3,-2.6361411E-3,4.5484133E-2,-5.295951E-2,1.7255232E-2,5.5296548E-2,-1.1726306E-2,8.020493E-3,8.421945E-2,6.5289624E-2,1.2066599E-1],"split_indices":[2,0,1,1,1,0,0,25,2,25,2,9,11,12,8,0,0,0,0,0,0,0,0,0,0,0,0,0,0,0,0],"split_type":[0,0,0,0,0,0,0,0,0,0,0,0,0,0,0,0,0,0,0,0,0,0,0,0,0,0,0,0,0,0,0],"sum_hessian":[1.0994E6,5.679318E5,5.314682E5,2.112518E5,3.5668E5,2.18329E5,3.131392E5,1.133338E5,9.7918E4,1.254471E5,2.312329E5,1.1572E5,1.02609E5,1.181252E5,1.95014E5,5.07983E4,6.25355E4,7.9311E3,8.99869E4,6.03281E4,6.5119E4,1.270963E5,1.041366E5,8.00061E4,3.57139E4,6.02346E4,4.23744E4,9.80902E4,2.0035E4,1.405416E5,5.44724E4],"tree_param":{"num_deleted":"0","num_feature":"29","num_nodes":"31","size_leaf_vector":"1"}},{"base_weights":[2.1071568E-2,-1.17255E0,7.3417777E-1,-6.3488525E-1,-2.135027E0,1.2104893E0,-3.0203792E-1,5.4995136E0,-7.2750974E-1,-1.5660442E0,-3.185156E0,1.1265496E0,5.4559608E0,-1.330589E0,3.0985034E-1,1.8962091E-1,-1.881435E-1,-2.9436415E-2,4.359814E-2,-4.9980126E-2,1.3182491E-1,-8.617165E-2,-2.7703542E-1,2.0940663E-2,5.929732E-2,2.4925901E-1,1.0344735E-1,-4.2615138E-2,3.1883073E-1,1.6808754E-2,-1.1877704E-1],"categories":[],"categories_nodes":[],"categories_segments":[],"categories_sizes":[],"default_left":[0,0,0,0,0,0,0,0,0,0,0,0,0,0,0,0,0,0,0,0,0,0,0,0,0,0,0,0,0,0,0],"id":21,"left_children":[1,3,5,7,9,11,13,15,17,19,21,23,25,27,29,-1,-1,-1,-1,-1,-1,-1,-1,-1,-1,-1,-1,-1,-1,-1,-1],"loss_changes":[9.345411E5,2.1248612E5,3.392344E5,1.4970203E5,8.791456E4,1.6777712E5,1.3622366E5,3.8000516E4,1.4360062E5,5.689139E4,9.775369E4,1.6818962E5,5.2183906E4,8.684591E4,1.4510077E5,0E0,0E0,0E0,0E0,0E0,0E0,0E0,0E0,0E0,0E0,0E0,0E0,0E0,0E0,0E0,0E0],"parents":[2147483647,0,0,1,1,2,2,3,3,4,4,5,5,6,6,7,7,8,8,9,9,10,10,11,11,12,12,13,13,14,14],"right_children":[2,4,6,8,10,12,14,16,18,20,22,24,26,28,30,-1,-1,-1,-1,-1,-1,-1,-1,-1,-1,-1,-1,-1,-1,-1,-1],"split_conditions":[4.7203217E0,1E0,1E0,1.2480112E0,2E0,8.892988E0,2E0,1E0,2.3E1,1E0,2.3E1,6.3E1,9.726297E0,8.781067E0,8.7E1,1.8962091E-1,-1.881435E-1,-2.9436415E-2,4.359814E-2,-4.9980126E-2,1.3182491E-1,-8.617165E-2,-2.7703542E-1,2.0940663E-2,5.929732E-2,2.4925901E-1,1.0344735E-1,-4.2615138E-2,3.1883073E-1,1.6808754E-2,-1.1877704E-1],"split_indices":[0,24,24,0,19,0,20,27,11,23,12,7,0,0,8,0,0,0,0,0,0,0,0,0,0,0,0,0,0,0,0],"split_type":[0,0,0,0,0,0,0,0,0,0,0,0,0,0,0,0,0,0,0,0,0,0,0,0,0,0,0,0,0,0,0],"sum_hessian":[1.0979318E6,4.106195E5,6.873123E5,2.634535E5,1.47166E5,4.708704E5,2.164419E5,3.916E3,2.595375E5,9.54549E4,5.17111E4,4.61745E5,9.1254E3,8.07327E4,1.357092E5,3.662E3,2.54E2,2.324923E5,2.70452E4,9.38827E4,1.5722E3,4.91733E4,2.5378E3,3.069885E5,1.547565E5,3.7654E3,5.36E3,8.01329E4,5.998E2,1.281918E5,7.5174E3],"tree_param":{"num_deleted":"0","num_feature":"29","num_nodes":"31","size_leaf_vector":"1"}},{"base_weights":[2.8772525E-2,-8.7917626E-1,1.1048065E0,-2.0780954E0,-1.7189644E-1,2.9034517E0,7.018527E-1,-1.5018896E0,-2.9862225E0,-7.891084E-1,5.9333766E-1,1.79234E0,4.6399884E0,-4.5252237E-1,1.3939416E0,1.7967476E-1,-4.838833E-2,-1.5444608E-1,-7.155678E-2,-1.1873212E-2,-7.533725E-2,1.6717712E-3,5.1166624E-2,3.993567E-3,9.049861E-2,1.4480604E-1,-2.3581886E-1,-1.7210025E-2,1.1500083E-1,-3.287782E-2,5.027248E-2],"categories":[],"categories_nodes":[],"categories_segments":[],"categories_sizes":[],"default_left":[0,0,0,0,0,0,0,0,0,0,0,0,0,0,0,0,0,0,0,0,0,0,0,0,0,0,0,0,0,0,0],"id":22,"left_children":[1,3,5,7,9,11,13,15,17,19,21,23,25,27,29,-1,-1,-1,-1,-1,-1,-1,-1,-1,-1,-1,-1,-1,-1,-1,-1],"loss_changes":[1.0733608E6,5.0527097E5,3.6439406E5,1.15671E5,1.7701281E5,1.7752425E5,3.281759E5,1.1255872E5,1.11466875E5,1.4051844E5,1.0004841E5,1.1399856E5,8.398519E4,7.994375E4,1.8019656E5,0E0,0E0,0E0,0E0,0E0,0E0,0E0,0E0,0E0,0E0,0E0,0E0,0E0,0E0,0E0,0E0],"parents":[2147483647,0,0,1,1,2,2,3,3,4,4,5,5,6,6,7,7,8,8,9,9,10,10,11,11,12,12,13,13,14,14],"right_children":[2,4,6,8,10,12,14,16,18,20,22,24,26,28,30,-1,-1,-1,-1,-1,-1,-1,-1,-1,-1,-1,-1,-1,-1,-1,-1],"split_conditions":[5.7125306E0,4.7203217E0,5.875421E0,1E0,4.2804317E0,5.3E1,4.7203217E0,1.2480112E0,2.862956E0,7.9E1,5.5E1,1E0,8.7E1,8.892988E0,5.9646525E0,1.7967476E-1,-4.838833E-2,-1.5444608E-1,-7.155678E-2,-1.1873212E-2,-7.533725E-2,1.6717712E-3,5.1166624E-2,3.993567E-3,9.049861E-2,1.4480604E-1,-2.3581886E-1,-1.7210025E-2,1.1500083E-1,-3.287782E-2,5.027248E-2],"split_indices":[2,0,2,24,2,9,0,0,2,9,9,25,8,2,2,0,0,0,0,0,0,0,0,0,0,0,0,0,0,0,0],"split_type":[0,0,0,0,0,0,0,0,0,0,0,0,0,0,0,0,0,0,0,0,0,0,0,0,0,0,0,0,0,0,0],"sum_hessian":[1.0986412E6,5.958595E5,5.027818E5,2.210862E5,3.747733E5,9.20192E4,4.107626E5,1.352679E5,8.58183E4,2.074513E5,1.67322E5,5.61187E4,3.59005E4,1.539613E5,2.568013E5,1.9736E3,1.332943E5,1.86617E4,6.71566E4,1.688828E5,3.85685E4,1.128013E5,5.45207E4,2.38287E4,3.229E4,3.53736E4,5.269E2,1.497318E5,4.2295E3,2.61088E4,2.306925E5],"tree_param":{"num_deleted":"0","num_feature":"29","num_nodes":"31","size_leaf_vector":"1"}},{"base_weights":[6.2157214E-2,-8.0825686E-1,1.0663733E0,-2.3012461E-1,-1.8395981E0,1.511731E0,1.9374985E-2,5.9997473E0,-2.9700634E-1,-3.366396E0,-1.2461257E0,2.9129498E0,1.1205622E0,-4.9391687E-1,1.8340329E0,1.2612234E-1,2.6923376E-1,-1.5256652E-2,4.5935027E-2,1.5631932E-1,-1.0860945E-1,-3.0726789E-2,-1.4583808E-1,4.1976415E-2,1.07191525E-1,1.4195399E-2,6.4867675E-2,-3.7735403E-2,2.3526523E-2,3.640772E-2,1.2319461E-1],"categories":[],"categories_nodes":[],"categories_segments":[],"categories_sizes":[],"default_left":[0,0,0,0,0,0,0,0,0,0,0,0,0,0,0,0,0,0,0,0,0,0,0,0,0,0,0,0,0,0,0],"id":23,"left_children":[1,3,5,7,9,11,13,15,17,19,21,23,25,27,29,-1,-1,-1,-1,-1,-1,-1,-1,-1,-1,-1,-1,-1,-1,-1,-1],"loss_changes":[9.604466E5,3.5095928E5,2.378935E5,1.5715931E5,1.9156475E5,1.9617475E5,1.418239E5,2.1273672E4,1.4432856E5,1.28938875E5,1.2211967E5,7.8031875E4,1.8870075E5,1.1589081E5,4.7314344E4,0E0,0E0,0E0,0E0,0E0,0E0,0E0,0E0,0E0,0E0,0E0,0E0,0E0,0E0,0E0,0E0],"parents":[2147483647,0,0,1,1,2,2,3,3,4,4,5,5,6,6,7,7,8,8,9,9,10,10,11,11,12,12,13,13,14,14],"right_children":[2,4,6,8,10,12,14,16,18,20,22,24,26,28,30,-1,-1,-1,-1,-1,-1,-1,-1,-1,-1,-1,-1,-1,-1,-1,-1],"split_conditions":[5.7125306E0,1E0,1E0,1.2480112E0,2.9557624E0,5.875421E0,2.2E1,2E0,2.3E1,3E0,8.6E1,1E0,7.129925E0,1E0,1E0,1.2612234E-1,2.6923376E-1,-1.5256652E-2,4.5935027E-2,1.5631932E-1,-1.0860945E-1,-3.0726789E-2,-1.4583808E-1,4.1976415E-2,1.07191525E-1,1.4195399E-2,6.4867675E-2,-3.7735403E-2,2.3526523E-2,3.640772E-2,1.2319461E-1],"split_indices":[0,24,24,0,0,0,10,14,11,9,8,16,0,25,25,0,0,0,0,0,0,0,0,0,0,0,0,0,0,0,0],"split_type":[0,0,0,0,0,0,0,0,0,0,0,0,0,0,0,0,0,0,0,0,0,0,0,0,0,0,0,0,0,0,0],"sum_hessian":[1.0987976E6,5.88612E5,5.101856E5,3.771821E5,2.114299E5,3.579314E5,1.522542E5,4.0033E3,3.731788E5,5.91757E4,1.522542E5,7.81098E4,2.798216E5,1.186848E5,3.35694E4,2.5011E3,1.5022E3,3.344772E5,3.87016E4,1.6997E3,5.7476E4,1.434531E5,8.8011E3,2.37219E4,5.43879E4,1.72576E5,1.072456E5,7.42857E4,4.43991E4,2.63737E4,7.1957E3],"tree_param":{"num_deleted":"0","num_feature":"29","num_nodes":"31","size_leaf_vector":"1"}},{"base_weights":[5.3246677E-2,-8.173274E-1,1.08444E0,-2.2040536E0,-9.921127E-2,1.915224E-1,2.1436412E0,-2.4951644E0,2.7302828E-1,-1.4643815E0,3.6166117E-1,4.8890222E-2,6.1729126E0,1.4977585E0,3.6336741E0,-5.664948E-2,-1.0013624E-1,2.7904872E-2,-1.344128E-1,1.3392429E-1,-4.854036E-2,-5.960703E-3,4.4552926E-2,-1.6678486E-2,3.2157797E-2,2.0476817E-1,1.3853352E-3,9.7735286E-2,3.280695E-2,1.9698481E-1,8.333428E-2],"categories":[],"categories_nodes":[],"categories_segments":[],"categories_sizes":[],"default_left":[0,0,0,0,0,0,0,0,0,0,0,0,0,0,0,0,0,0,0,0,0,0,0,0,0,0,0,0,0,0,0],"id":24,"left_children":[1,3,5,7,9,11,13,15,17,19,21,23,25,27,29,-1,-1,-1,-1,-1,-1,-1,-1,-1,-1,-1,-1,-1,-1,-1,-1],"loss_changes":[9.870104E5,5.93665E5,4.760045E5,1.4667056E5,2.4711869E5,2.329749E5,2.215315E5,9.30515E4,6.682868E4,9.030734E4,1.8485275E5,1.6504823E5,2.5425828E4,1.14240625E5,1.7464806E5,0E0,0E0,0E0,0E0,0E0,0E0,0E0,0E0,0E0,0E0,0E0,0E0,0E0,0E0,0E0,0E0],"parents":[2147483647,0,0,1,1,2,2,3,3,4,4,5,5,6,6,7,7,8,8,9,9,10,10,11,11,12,12,13,13,14,14],"right_children":[2,4,6,8,10,12,14,16,18,20,22,24,26,28,30,-1,-1,-1,-1,-1,-1,-1,-1,-1,-1,-1,-1,-1,-1,-1,-1],"split_conditions":[5.7125306E0,4.51879E0,5.7125306E0,1E0,2.9557624E0,8.892988E0,6.3E1,1E0,1.8E1,1.2480112E0,6.1E1,1.5E1,6E0,5.875421E0,5.875421E0,-5.664948E-2,-1.0013624E-1,2.7904872E-2,-1.344128E-1,1.3392429E-1,-4.854036E-2,-5.960703E-3,4.4552926E-2,-1.6678486E-2,3.2157797E-2,2.0476817E-1,1.3853352E-3,9.7735286E-2,3.280695E-2,1.9698481E-1,8.333428E-2],"split_indices":[2,1,1,28,2,2,9,24,12,2,9,12,16,1,2,0,0,0,0,0,0,0,0,0,0,0,0,0,0,0,0],"split_type":[0,0,0,0,0,0,0,0,0,0,0,0,0,0,0,0,0,0,0,0,0,0,0,0,0,0,0,0,0,0,0],"sum_hessian":[1.0994448E6,5.961506E5,5.032942E5,2.033881E5,3.927625E5,2.730851E5,2.302091E5,1.819996E5,2.13885E4,9.91277E4,2.936348E5,2.667279E5,6.3572E3,1.606005E5,6.96086E4,1.05813E5,7.61866E4,1.87931E4,2.5954E3,2.5016E3,9.66261E4,1.959165E5,9.77183E4,1.67625E5,9.91029E4,5.7447E3,6.125E2,2.99888E4,1.306117E5,1.57212E4,5.38874E4],"tree_param":{"num_deleted":"0","num_feature":"29","num_nodes":"31","size_leaf_vector":"1"}},{"base_weights":[1.6533172E-2,-1.0866755E0,6.749406E-1,-5.583122E-1,-2.0305858E0,1.1191683E0,-2.9203853E-1,-7.6736295E-1,1.6345817E0,-3.0520418E0,-1.3426578E0,2.0907688E0,6.853611E-1,-8.113417E-2,-3.8994594E0,1.22094125E-1,-2.5276892E-2,-1.1834271E-1,7.636209E-2,-1.10965714E-1,-6.7187555E-2,-2.2881482E-2,-8.166901E-2,4.2353407E-2,9.721724E-2,1.7484928E-2,1.7586292E-1,4.520834E-3,-1.1769857E-1,-1.2981921E-1,1.5660575E-1],"categories":[],"categories_nodes":[],"categories_segments":[],"categories_sizes":[],"default_left":[0,0,0,0,0,0,0,0,0,0,0,0,0,0,0,0,0,0,0,0,0,0,0,0,0,0,0,0,0,0,0],"id":25,"left_children":[1,3,5,7,9,11,13,15,17,19,21,23,25,27,29,-1,-1,-1,-1,-1,-1,-1,-1,-1,-1,-1,-1,-1,-1,-1,-1],"loss_changes":[7.9827E5,2.0484778E5,2.956445E5,1.207287E5,1.0356481E5,1.9876556E5,1.6482842E5,8.7465E4,1.165072E5,3.11425E4,7.04725E4,1.1362575E5,1.7303345E5,1.8232595E5,4.6757656E4,0E0,0E0,0E0,0E0,0E0,0E0,0E0,0E0,0E0,0E0,0E0,0E0,0E0,0E0,0E0,0E0],"parents":[2147483647,0,0,1,1,2,2,3,3,4,4,5,5,6,6,7,7,8,8,9,9,10,10,11,11,12,12,13,13,14,14],"right_children":[2,4,6,8,10,12,14,16,18,20,22,24,26,28,30,-1,-1,-1,-1,-1,-1,-1,-1,-1,-1,-1,-1,-1,-1,-1,-1],"split_conditions":[4.7203217E0,1E0,1E0,2.4E1,2.9557624E0,2E0,8.7E1,1.2480112E0,2E0,5.6E1,2E0,6.4E1,8.892988E0,8.7E1,8.426636E0,1.22094125E-1,-2.5276892E-2,-1.1834271E-1,7.636209E-2,-1.10965714E-1,-6.7187555E-2,-2.2881482E-2,-8.166901E-2,4.2353407E-2,9.721724E-2,1.7484928E-2,1.7586292E-1,4.520834E-3,-1.1769857E-1,-1.2981921E-1,1.5660575E-1],"split_indices":[0,24,24,12,0,19,9,0,15,8,19,7,0,8,0,0,0,0,0,0,0,0,0,0,0,0,0,0,0,0,0],"split_type":[0,0,0,0,0,0,0,0,0,0,0,0,0,0,0,0,0,0,0,0,0,0,0,0,0,0,0,0,0,0,0],"sum_hessian":[1.0989939E6,4.107498E5,6.882441E5,2.633454E5,1.474044E5,4.715951E5,2.16649E5,2.404276E5,2.29178E4,5.9317E4,8.80874E4,1.45563E5,3.260321E5,2.046856E5,1.19634E4,3.6779E3,2.367497E5,3.2147E3,1.97031E4,3.30184E4,2.62986E4,6.20216E4,2.60658E4,9.15236E4,5.40394E4,3.197036E5,6.3285E3,1.930405E5,1.16451E4,1.14289E4,5.345E2],"tree_param":{"num_deleted":"0","num_feature":"29","num_nodes":"31","size_leaf_vector":"1"}},{"base_weights":[-9.350962E-3,-8.5863227E-1,9.7946554E-1,-1.8162937E0,1.321261E-1,-3.801784E-1,1.565915E0,-3.0122354E0,-9.998052E-1,-6.694093E-1,1.132701E0,1.9286953E0,-7.406364E-1,5.0925916E-1,2.2008953E0,-1.1753052E-1,-6.692518E-2,-3.3121098E-2,1.3716172E-1,-2.4256933E-2,1.6272749E-1,2.454483E-2,1.1349257E-1,-7.872377E-2,1.2277222E-1,-5.534888E-2,-3.8403922E-3,6.790802E-2,2.5373432E-3,6.255805E-2,1.9909133E-1],"categories":[],"categories_nodes":[],"categories_segments":[],"categories_sizes":[],"default_left":[0,0,0,0,0,0,0,0,0,0,0,0,0,0,0,0,0,0,0,0,0,0,0,0,0,0,0,0,0,0,0],"id":26,"left_children":[1,3,5,7,9,11,13,15,17,19,21,23,25,27,29,-1,-1,-1,-1,-1,-1,-1,-1,-1,-1,-1,-1,-1,-1,-1,-1],"loss_changes":[9.221004E5,5.60454E5,4.045316E5,2.93282E5,2.3284597E5,1.27242195E5,2.3781488E5,8.6186375E4,1.0367964E5,1.3669978E5,1.0763836E5,2.0341338E5,8.946426E4,9.91262E4,1.13497875E5,0E0,0E0,0E0,0E0,0E0,0E0,0E0,0E0,0E0,0E0,0E0,0E0,0E0,0E0,0E0,0E0],"parents":[2147483647,0,0,1,1,2,2,3,3,4,4,5,5,6,6,7,7,8,8,9,9,10,10,11,11,12,12,13,13,14,14],"right_children":[2,4,6,8,10,12,14,16,18,20,22,24,26,28,30,-1,-1,-1,-1,-1,-1,-1,-1,-1,-1,-1,-1,-1,-1,-1,-1],"split_conditions":[5.7125306E0,5.662033E0,4.2804317E0,4.9564834E0,5.7280283E0,5.773804E0,4.6774516E0,1E0,8.892988E0,8.892988E0,8.26223E0,7E0,4.6774516E0,5.875421E0,8.892988E0,-1.1753052E-1,-6.692518E-2,-3.3121098E-2,1.3716172E-1,-2.4256933E-2,1.6272749E-1,2.454483E-2,1.1349257E-1,-7.872377E-2,1.2277222E-1,-5.534888E-2,-3.8403922E-3,6.790802E-2,2.5373432E-3,6.255805E-2,1.9909133E-1],"split_indices":[1,0,2,2,2,1,0,25,2,0,2,11,0,1,1,0,0,0,0,0,0,0,0,0,0,0,0,0,0,0,0],"split_type":[0,0,0,0,0,0,0,0,0,0,0,0,0,0,0,0,0,0,0,0,0,0,0,0,0,0,0,0,0,0,0],"sum_hessian":[1.0980158E6,5.906854E5,5.073304E5,3.003588E5,2.903266E5,1.528823E5,3.544481E5,1.218586E5,1.785002E5,1.611963E5,1.291303E5,2.06426E4,1.322397E5,1.330499E5,2.213982E5,5.64423E4,6.54163E4,1.752249E5,3.2753E3,1.576001E5,3.5962E3,1.154351E5,1.36952E4,6.6496E3,1.3993E4,4.71816E4,8.50581E4,2.59278E4,1.071221E5,2.157778E5,5.6204E3],"tree_param":{"num_deleted":"0","num_feature":"29","num_nodes":"31","size_leaf_vector":"1"}},{"base_weights":[-7.884517E-3,-8.508193E-1,9.742636E-1,-1.7095863E0,3.4050874E-2,-9.694394E-2,1.6051023E0,-2.5138066E0,-1.0206399E0,-7.059085E-1,7.36056E-1,2.4128802E0,-4.881764E-1,1.508504E0,7.268027E0,-5.985888E-2,-1.125791E-1,-3.709192E-2,7.016603E-2,-3.9422266E-2,1.092462E-2,4.570624E-2,-5.0138226E-3,-2.643964E-2,1.2005044E-1,-9.432637E-3,-1.0009482E-1,3.109624E-2,7.7908844E-2,2.1000554E-1,1.5173637E0],"categories":[],"categories_nodes":[],"categories_segments":[],"categories_sizes":[],"default_left":[0,0,0,0,0,0,0,0,0,0,0,0,0,0,0,0,0,0,0,0,0,0,0,0,0,0,0,0,0,0,0],"id":27,"left_children":[1,3,5,7,9,11,13,15,17,19,21,23,25,27,29,-1,-1,-1,-1,-1,-1,-1,-1,-1,-1,-1,-1,-1,-1,-1,-1],"loss_changes":[9.092964E5,4.491443E5,3.427993E5,1.6618225E5,1.5121844E5,1.8462033E5,1.7460456E5,8.886969E4,1.17112984E5,9.223243E4,1.0625239E5,1.327222E5,8.049738E4,1.6124869E5,6.0985594E4,0E0,0E0,0E0,0E0,0E0,0E0,0E0,0E0,0E0,0E0,0E0,0E0,0E0,0E0,0E0,0E0],"parents":[2147483647,0,0,1,1,2,2,3,3,4,4,5,5,6,6,7,7,8,8,9,9,10,10,11,11,12,12,13,13,14,14],"right_children":[2,4,6,8,10,12,14,16,18,20,22,24,26,28,30,-1,-1,-1,-1,-1,-1,-1,-1,-1,-1,-1,-1,-1,-1,-1,-1],"split_conditions":[5.7125306E0,5.662033E0,4.6774516E0,1E0,1E0,5.773804E0,8.892988E0,2E0,1E0,1E0,2E0,7E0,8.4E1,6.4E1,9.726297E0,-5.985888E-2,-1.125791E-1,-3.709192E-2,7.016603E-2,-3.9422266E-2,1.092462E-2,4.570624E-2,-5.0138226E-3,-2.643964E-2,1.2005044E-1,-9.432637E-3,-1.0009482E-1,3.109624E-2,7.7908844E-2,2.1000554E-1,1.5173637E0],"split_indices":[1,0,0,25,25,1,0,13,28,28,19,11,9,8,1,0,0,0,0,0,0,0,0,0,0,0,0,0,0,0,0],"split_type":[0,0,0,0,0,0,0,0,0,0,0,0,0,0,0,0,0,0,0,0,0,0,0,0,0,0,0,0,0,0,0],"sum_hessian":[1.0983282E6,5.910539E5,5.072743E5,2.999503E5,2.911036E5,1.880142E5,3.192601E5,1.383926E5,1.615577E5,1.4172E5,1.493836E5,2.53529E4,1.626613E5,3.139094E5,5.3507E3,9.75654E4,4.08272E4,1.518102E5,9.7475E3,9.03628E4,5.13572E4,7.98027E4,6.95809E4,8.2494E3,1.71035E4,1.533125E5,9.3488E3,2.189695E5,9.49399E4,5.3213E3,2.94E1],"tree_param":{"num_deleted":"0","num_feature":"29","num_nodes":"31","size_leaf_vector":"1"}},{"base_weights":[4.073382E-2,-1.1172683E0,6.9576913E-1,-2.2170954E0,-4.742258E-1,-3.8565406E-1,1.3489132E0,-1.9157898E0,-4.481656E0,-1.6425009E-1,-2.17201E0,-8.494884E-1,7.699495E-1,8.8725805E-1,2.5718043E0,-8.433637E-2,-1.7531795E-2,-1.5141855E-1,-7.6434106E-2,-3.581416E-2,2.017445E-2,-5.7041507E-2,-2.1294892E-1,-1.0399676E-2,-7.958406E-2,8.87635E-2,1.224329E-2,5.3173057E-3,5.0573938E-2,1.0516427E-1,4.686984E-2],"categories":[],"categories_nodes":[],"categories_segments":[],"categories_sizes":[],"default_left":[0,0,0,0,0,0,0,0,0,0,0,0,0,0,0,0,0,0,0,0,0,0,0,0,0,0,0,0,0,0,0],"id":28,"left_children":[1,3,5,7,9,11,13,15,17,19,21,23,25,27,29,-1,-1,-1,-1,-1,-1,-1,-1,-1,-1,-1,-1,-1,-1,-1,-1],"loss_changes":[8.3319244E5,2.806621E5,4.955428E5,9.987369E4,1.3179375E5,1.4160317E5,2.4692631E5,1.5405656E5,1.8758312E4,1.824388E5,5.1496297E4,1.7093236E5,5.9920785E4,1.800318E5,1.12957375E5,0E0,0E0,0E0,0E0,0E0,0E0,0E0,0E0,0E0,0E0,0E0,0E0,0E0,0E0,0E0,0E0],"parents":[2147483647,0,0,1,1,2,2,3,3,4,4,5,5,6,6,7,7,8,8,9,9,10,10,11,11,12,12,13,13,14,14],"right_children":[2,4,6,8,10,12,14,16,18,20,22,24,26,28,30,-1,-1,-1,-1,-1,-1,-1,-1,-1,-1,-1,-1,-1,-1,-1,-1],"split_conditions":[4.6774516E0,4.7203217E0,4.7203217E0,1.8E1,7.9E1,6.3E1,6.4E1,7E1,7.5E1,5.2E1,3E0,4.4E1,6.5E1,6.3511276E0,6.111052E0,-8.433637E-2,-1.7531795E-2,-1.5141855E-1,-7.6434106E-2,-3.581416E-2,2.017445E-2,-5.7041507E-2,-2.1294892E-1,-1.0399676E-2,-7.958406E-2,8.87635E-2,1.224329E-2,5.3173057E-3,5.0573938E-2,1.0516427E-1,4.686984E-2],"split_indices":[2,0,0,12,9,9,9,9,7,9,20,9,9,2,2,0,0,0,0,0,0,0,0,0,0,0,0,0,0,0,0],"split_type":[0,0,0,0,0,0,0,0,0,0,0,0,0,0,0,0,0,0,0,0,0,0,0,0,0,0,0,0,0,0,0],"sum_hessian":[1.0984215E6,3.968492E5,7.015723E5,1.464167E5,2.504325E5,2.64174E5,4.373983E5,1.292285E5,1.71882E4,2.117718E5,3.86607E4,1.885113E5,7.56627E4,3.175323E5,1.19866E5,7.72622E4,5.19663E4,1.32944E4,3.8938E3,9.49458E4,1.16826E5,3.66516E4,2.0091E3,1.474115E5,4.10998E4,1.07301E4,6.49326E4,1.680855E5,1.494468E5,6.22667E4,5.75993E4],"tree_param":{"num_deleted":"0","num_feature":"29","num_nodes":"31","size_leaf_vector":"1"}},{"base_weights":[4.9678E-3,-8.0160934E-1,9.45835E-1,-1.6239868E0,4.7585875E-2,-5.500907E-2,1.5372865E0,-2.3903925E0,-9.7009426E-1,-7.9650104E-2,4.3595653E0,1.647796E0,-4.7694743E-1,1.796256E0,-2.810615E-1,-4.922359E-2,-9.082323E-2,-5.283582E-2,-9.297971E-3,2.3066862E-1,-4.173818E-3,1.694523E-1,-4.9043942E-2,7.4511014E-2,-3.0181546E-2,-9.391727E-2,-5.693361E-3,5.0666396E-2,1.8011685E-1,5.725476E-2,-3.1914197E-2],"categories":[],"categories_nodes":[],"categories_segments":[],"categories_sizes":[],"default_left":[0,0,0,0,0,0,0,0,0,0,0,0,0,0,0,0,0,0,0,0,0,0,0,0,0,0,0,0,0,0,0],"id":29,"left_children":[1,3,5,7,9,11,13,15,17,19,21,23,25,27,29,-1,-1,-1,-1,-1,-1,-1,-1,-1,-1,-1,-1,-1,-1,-1,-1],"loss_changes":[8.339513E5,4.1321078E5,3.0026003E5,1.5062931E5,1.5971344E5,1.353717E5,1.5013688E5,6.606481E4,8.470936E4,1.3064533E5,6.4493516E4,8.301081E4,1.1506272E5,1.26050125E5,6.812888E4,0E0,0E0,0E0,0E0,0E0,0E0,0E0,0E0,0E0,0E0,0E0,0E0,0E0,0E0,0E0,0E0],"parents":[2147483647,0,0,1,1,2,2,3,3,4,4,5,5,6,6,7,7,8,8,9,9,10,10,11,11,12,12,13,13,14,14],"right_children":[2,4,6,8,10,12,14,16,18,20,22,24,26,28,30,-1,-1,-1,-1,-1,-1,-1,-1,-1,-1,-1,-1,-1,-1,-1,-1],"split_conditions":[5.7125306E0,5.662033E0,4.6774516E0,1E0,8.3E1,5.875421E0,6E0,1E0,3.8002756E0,1.2480112E0,5E0,1E0,5.9646525E0,8.892988E0,1.5E1,-4.922359E-2,-9.082323E-2,-5.283582E-2,-9.297971E-3,2.3066862E-1,-4.173818E-3,1.694523E-1,-4.9043942E-2,7.4511014E-2,-3.0181546E-2,-9.391727E-2,-5.693361E-3,5.0666396E-2,1.8011685E-1,5.725476E-2,-3.1914197E-2],"split_indices":[1,0,0,25,7,1,18,24,0,1,18,24,1,1,9,0,0,0,0,0,0,0,0,0,0,0,0,0,0,0,0],"split_type":[0,0,0,0,0,0,0,0,0,0,0,0,0,0,0,0,0,0,0,0,0,0,0,0,0,0,0,0,0,0,0],"sum_hessian":[1.0989149E6,5.916826E5,5.072323E5,3.005868E5,2.910958E5,1.884097E5,3.188226E5,1.383831E5,1.622037E5,2.827551E5,8.3407E3,3.74128E4,1.509969E5,2.79077E5,3.97456E4,6.35808E4,7.48023E4,7.37816E4,8.84221E4,2.1453E3,2.806098E5,6.865E3,1.4757E3,2.84517E4,8.9611E3,1.47416E4,1.362553E5,2.721367E5,6.9403E3,1.04654E4,2.92802E4],"tree_param":{"num_deleted":"0","num_feature":"29","num_nodes":"31","size_leaf_vector":"1"}},{"base_weights":[2.821943E-2,-1.2858766E0,5.8943343E-1,-2.0805843E0,-3.7454662E-1,-5.269746E-1,1.2311239E0,-1.5680326E0,-2.9197602E0,2.0799594E0,-7.5808614E-1,-1.6410868E-1,-2.545393E0,7.199914E-1,2.5476456E0,-7.883926E-2,-6.27373E-3,-6.186791E-2,-1.3933691E-1,-5.9879705E-2,1.2080064E-1,-1.6504318E-2,-1.2534706E-1,-1.9681187E-2,2.9827299E-2,4.2350218E-2,-8.5297786E-2,3.4622606E-2,-1.7662829E-2,7.3611304E-2,3.155132E-1],"categories":[],"categories_nodes":[],"categories_segments":[],"categories_sizes":[],"default_left":[0,0,0,0,0,0,0,0,0,0,0,0,0,0,0,0,0,0,0,0,0,0,0,0,0,0,0,0,0,0,0],"id":30,"left_children":[1,3,5,7,9,11,13,15,17,19,21,23,25,27,29,-1,-1,-1,-1,-1,-1,-1,-1,-1,-1,-1,-1,-1,-1,-1,-1],"loss_changes":[8.101477E5,2.3808825E5,5.5145994E5,7.5515125E4,1.441714E5,2.0577712E5,3.2892306E5,1.570365E5,9.844294E4,1.642473E5,9.418502E4,1.3570769E5,5.0476312E4,2.0004725E5,1.0224756E5,0E0,0E0,0E0,0E0,0E0,0E0,0E0,0E0,0E0,0E0,0E0,0E0,0E0,0E0,0E0,0E0],"parents":[2147483647,0,0,1,1,2,2,3,3,4,4,5,5,6,6,7,7,8,8,9,9,10,10,11,11,12,12,13,13,14,14],"right_children":[2,4,6,8,10,12,14,16,18,20,22,24,26,28,30,-1,-1,-1,-1,-1,-1,-1,-1,-1,-1,-1,-1,-1,-1,-1,-1],"split_conditions":[4.2804317E0,5.7125306E0,4.6774516E0,1.5E1,5.773804E0,7.9E1,6.4E1,1E1,2E0,7E0,8.6E1,6.3E1,3E0,4.4E1,9.726297E0,-7.883926E-2,-6.27373E-3,-6.186791E-2,-1.3933691E-1,-5.9879705E-2,1.2080064E-1,-1.6504318E-2,-1.2534706E-1,-1.9681187E-2,2.9827299E-2,4.2350218E-2,-8.5297786E-2,3.4622606E-2,-1.7662829E-2,7.3611304E-2,3.155132E-1],"split_indices":[2,1,1,12,1,8,9,12,15,11,9,9,9,9,1,0,0,0,0,0,0,0,0,0,0,0,0,0,0,0,0],"split_type":[0,0,0,0,0,0,0,0,0,0,0,0,0,0,0,0,0,0,0,0,0,0,0,0,0,0,0,0,0,0,0],"sum_hessian":[1.0985166E6,3.287455E5,7.697711E5,1.756064E5,1.531391E5,2.809593E5,4.888118E5,1.090256E5,6.65808E4,2.06934E4,1.324457E5,2.381492E5,4.28101E4,3.521117E5,1.367001E5,6.12485E4,4.77771E4,4.44763E4,2.21045E4,6.6886E3,1.40048E4,1.248582E5,7.5875E3,1.671611E5,7.09881E4,2.9959E3,3.98142E4,2.644112E5,8.77005E4,1.351116E5,1.5885E3],"tree_param":{"num_deleted":"0","num_feature":"29","num_nodes":"31","size_leaf_vector":"1"}},{"base_weights":[-5.4641943E-2,-1.1110139E0,5.7590836E-1,-1.9832673E0,-1.9346559E-1,-3.9606833E-1,1.2544694E0,-3.1662216E0,-1.2859032E0,1.5136675E0,-7.090786E-1,-1.6149673E0,1.16638444E-1,1.891898E-1,1.8792355E0,-7.7798724E-2,-1.1836468E-1,-3.2024913E-2,-1.299426E-1,6.1621375E-2,-5.249942E-2,-4.8707142E-2,9.455195E-3,1.5104996E-1,-5.1154435E-2,3.859482E-4,2.049599E-1,2.3359409E-1,3.4946317E-3,5.3111892E-2,2.3714997E-1],"categories":[],"categories_nodes":[],"categories_segments":[],"categories_sizes":[],"default_left":[0,0,0,0,0,0,0,0,0,0,0,0,0,0,0,0,0,0,0,0,0,0,0,0,0,0,0,0,0,0,0],"id":31,"left_children":[1,3,5,7,9,11,13,15,17,19,21,23,25,27,29,-1,-1,-1,-1,-1,-1,-1,-1,-1,-1,-1,-1,-1,-1,-1,-1],"loss_changes":[7.317957E5,3.286589E5,4.537551E5,1.7365456E5,1.7616578E5,1.7675934E5,2.696387E5,3.4820812E4,8.808178E4,8.188856E4,1.4398078E5,5.024472E4,1.3873867E5,8.271533E4,1.6742969E5,0E0,0E0,0E0,0E0,0E0,0E0,0E0,0E0,0E0,0E0,0E0,0E0,0E0,0E0,0E0,0E0],"parents":[2147483647,0,0,1,1,2,2,3,3,4,4,5,5,6,6,7,7,8,8,9,9,10,10,11,11,12,12,13,13,14,14],"right_children":[2,4,6,8,10,12,14,16,18,20,22,24,26,28,30,-1,-1,-1,-1,-1,-1,-1,-1,-1,-1,-1,-1,-1,-1,-1,-1],"split_conditions":[4.7203217E0,5.662033E0,4.9564834E0,4.7203217E0,5.875421E0,4.2804317E0,4.6774516E0,1E0,2.2E1,7.9E1,5.7125306E0,1.2480112E0,8.892988E0,1.2480112E0,8.892988E0,-7.7798724E-2,-1.1836468E-1,-3.2024913E-2,-1.299426E-1,6.1621375E-2,-5.249942E-2,-4.8707142E-2,9.455195E-3,1.5104996E-1,-5.1154435E-2,3.859482E-4,2.049599E-1,2.3359409E-1,3.4946317E-3,5.3111892E-2,2.3714997E-1],"split_indices":[0,2,1,1,2,2,2,24,12,7,1,2,2,2,0,0,0,0,0,0,0,0,0,0,0,0,0,0,0,0,0],"split_type":[0,0,0,0,0,0,0,0,0,0,0,0,0,0,0,0,0,0,0,0,0,0,0,0,0,0,0,0,0,0,0],"sum_hessian":[1.0986279E6,4.10653E5,6.879749E5,2.105204E5,2.001326E5,2.828368E5,4.051381E5,7.80724E4,1.32448E5,4.64232E4,1.537094E5,8.37431E4,1.990937E5,1.497711E5,2.55367E5,4.50011E4,3.30713E4,1.235893E5,8.8587E3,3.98298E4,6.5934E3,8.12053E4,7.25041E4,1.1181E3,8.2625E4,1.96067E5,3.0267E3,1.4165E3,1.483546E5,2.508403E5,4.5267E3],"tree_param":{"num_deleted":"0","num_feature":"29","num_nodes":"31","size_leaf_vector":"1"}},{"base_weights":[1.6976422E-2,-7.458938E-1,9.0530056E-1,-1.7785408E0,-4.5413952E-2,-3.4569997E-1,1.4454244E0,-2.3646011E0,-1.2528019E0,-2.4291824E-1,2.3160007E0,-2.1771078E0,-5.3250737E-2,9.206867E-1,2.745485E0,-5.8447827E-2,-1.1558124E-1,-5.8489986E-2,-1.1874743E-2,-1.6715553E-2,4.758528E-2,9.980271E-2,-3.63153E-2,-8.987982E-2,1.4064604E-1,1.0881608E-2,-8.201026E-2,3.9384972E-2,-7.980557E-3,7.0339106E-2,1.5784317E-1],"categories":[],"categories_nodes":[],"categories_segments":[],"categories_sizes":[],"default_left":[0,0,0,0,0,0,0,0,0,0,0,0,0,0,0,0,0,0,0,0,0,0,0,0,0,0,0,0,0,0,0],"id":32,"left_children":[1,3,5,7,9,11,13,15,17,19,21,23,25,27,29,-1,-1,-1,-1,-1,-1,-1,-1,-1,-1,-1,-1,-1,-1,-1,-1],"loss_changes":[7.4478925E5,4.2769034E5,3.43098E5,7.36185E4,1.6430766E5,8.20085E4,2.4192612E5,6.998131E4,7.522806E4,1.8688239E5,9.693572E4,1.1857219E5,1.4722817E5,1.1758525E5,1.0280394E5,0E0,0E0,0E0,0E0,0E0,0E0,0E0,0E0,0E0,0E0,0E0,0E0,0E0,0E0,0E0,0E0],"parents":[2147483647,0,0,1,1,2,2,3,3,4,4,5,5,6,6,7,7,8,8,9,9,10,10,11,11,12,12,13,13,14,14],"right_children":[2,4,6,8,10,12,14,16,18,20,22,24,26,28,30,-1,-1,-1,-1,-1,-1,-1,-1,-1,-1,-1,-1,-1,-1,-1,-1],"split_conditions":[5.7125306E0,4.9564834E0,4.2804317E0,1E0,8.26223E0,2.3257809E0,6.3E1,4E0,7E1,2.2E1,1.8E1,1E0,1.8E1,4.3E1,2.4E1,-5.8447827E-2,-1.1558124E-1,-5.8489986E-2,-1.1874743E-2,-1.6715553E-2,4.758528E-2,9.980271E-2,-3.63153E-2,-8.987982E-2,1.4064604E-1,1.0881608E-2,-8.201026E-2,3.9384972E-2,-7.980557E-3,7.0339106E-2,1.5784317E-1],"split_indices":[1,2,2,25,2,2,9,16,9,12,12,21,12,9,11,0,0,0,0,0,0,0,0,0,0,0,0,0,0,0,0],"split_type":[0,0,0,0,0,0,0,0,0,0,0,0,0,0,0,0,0,0,0,0,0,0,0,0,0,0,0,0,0,0,0],"sum_hessian":[1.0990281E6,5.912645E5,5.077636E5,2.389696E5,3.522949E5,1.531188E5,3.546448E5,1.129962E5,1.259734E5,3.251067E5,2.71882E4,2.10809E4,1.320379E5,2.526676E5,1.019772E5,8.82995E4,2.46967E4,6.94743E4,5.64991E4,2.774407E5,4.7666E4,2.11319E4,6.0563E3,1.8836E4,2.2449E3,1.143018E5,1.77361E4,1.899119E5,6.27557E4,8.79681E4,1.40091E4],"tree_param":{"num_deleted":"0","num_feature":"29","num_nodes":"31","size_leaf_vector":"1"}},{"base_weights":[-7.8421197E-4,-7.169509E-1,8.498904E-1,-1.9029552E0,-1.0311717E-1,2.4620638E0,4.8895925E-1,-2.916038E0,-8.52057E-1,-1.5568799E0,3.0706868E-1,-2.0794046E0,2.919417E0,3.6311626E-1,4.7692533E0,-1.12678014E-1,-6.531734E-2,2.8889647E-2,-4.3150425E-2,-3.5963062E-2,-1.2375964E-1,1.2860652E-2,-9.4549865E-2,-1.2503578E-1,4.2573527E-2,5.8846503E-2,1.257485E-1,-1.1138729E-2,3.4291744E-2,3.7288357E-2,1.7259826E-1],"categories":[],"categories_nodes":[],"categories_segments":[],"categories_sizes":[],"default_left":[0,0,0,0,0,0,0,0,0,0,0,0,0,0,0,0,0,0,0,0,0,0,0,0,0,0,0,0,0,0,0],"id":33,"left_children":[1,3,5,7,9,11,13,15,17,19,21,23,25,27,29,-1,-1,-1,-1,-1,-1,-1,-1,-1,-1,-1,-1,-1,-1,-1,-1],"loss_changes":[6.684463E5,4.3367303E5,2.9181262E5,2.1628512E5,2.3407986E5,1.9056244E5,2.207121E5,6.41555E4,1.0612628E5,7.943544E4,1.2878717E5,6.135715E4,1.0153375E5,2.280165E5,4.058053E4,0E0,0E0,0E0,0E0,0E0,0E0,0E0,0E0,0E0,0E0,0E0,0E0,0E0,0E0,0E0,0E0],"parents":[2147483647,0,0,1,1,2,2,3,3,4,4,5,5,6,6,7,7,8,8,9,9,10,10,11,11,12,12,13,13,14,14],"right_children":[2,4,6,8,10,12,14,16,18,20,22,24,26,28,30,-1,-1,-1,-1,-1,-1,-1,-1,-1,-1,-1,-1,-1,-1,-1,-1],"split_conditions":[5.7125306E0,4.51879E0,5.875421E0,5.662033E0,3.8002756E0,2E1,8.892988E0,1E0,5.875421E0,7.9E1,8.7E1,1E0,5.3E1,5.662033E0,3.94736E0,-1.12678014E-1,-6.531734E-2,2.8889647E-2,-4.3150425E-2,-3.5963062E-2,-1.2375964E-1,1.2860652E-2,-9.4549865E-2,-1.2503578E-1,4.2573527E-2,5.8846503E-2,1.257485E-1,-1.1138729E-2,3.4291744E-2,3.7288357E-2,1.7259826E-1],"split_indices":[2,1,2,0,0,9,2,25,0,7,9,25,9,1,0,0,0,0,0,0,0,0,0,0,0,0,0,0,0,0,0],"split_type":[0,0,0,0,0,0,0,0,0,0,0,0,0,0,0,0,0,0,0,0,0,0,0,0,0,0,0,0,0,0,0],"sum_hessian":[1.0972022E6,5.956975E5,5.015047E5,2.031596E5,3.925379E5,9.17343E4,4.097704E5,1.034377E5,9.97219E4,8.63817E4,3.061562E5,8.3918E3,8.33425E4,3.980704E5,1.17E4,4.84003E4,5.50374E4,2.43464E4,7.53755E4,7.58157E4,1.0566E4,2.957593E5,1.03969E4,5.2547E3,3.1371E3,4.75497E4,3.57928E4,2.050201E5,1.930503E5,2.5543E3,9.1457E3],"tree_param":{"num_deleted":"0","num_feature":"29","num_nodes":"31","size_leaf_vector":"1"}},{"base_weights":[-2.2146571E-2,-9.5471764E-1,5.3462404E-1,3.788986E0,-1.0113862E0,1.6932884E-1,1.3646687E0,3.9690237E0,-8.009566E-1,-2.1425905E0,-7.693904E-1,5.7435535E-2,4.628462E0,2.1323545E0,7.407541E-1,3.030188E-1,8.532306E-2,1.7656848E-2,-7.229386E-2,-1.3549391E-2,-6.591409E-2,6.0430607E-3,-7.190768E-2,4.8095185E-1,1.2617564E-1,7.811913E-2,2.636003E-5,2.869637E-2,-7.596638E-2],"categories":[],"categories_nodes":[],"categories_segments":[],"categories_sizes":[],"default_left":[0,0,0,0,0,0,0,0,0,0,0,0,0,0,0,0,0,0,0,0,0,0,0,0,0,0,0,0,0],"id":34,"left_children":[1,3,5,7,9,11,13,15,-1,17,19,21,23,25,27,-1,-1,-1,-1,-1,-1,-1,-1,-1,-1,-1,-1,-1,-1],"loss_changes":[5.700107E5,1.1033172E5,2.0842627E5,2.689004E4,1.1101209E5,2.3816069E5,1.00609125E5,3.3143047E4,0E0,5.2161812E4,1.5155803E5,1.6457475E5,5.608583E4,9.467141E4,8.185716E4,0E0,0E0,0E0,0E0,0E0,0E0,0E0,0E0,0E0,0E0,0E0,0E0,0E0,0E0],"parents":[2147483647,0,0,1,1,2,2,3,3,4,4,5,5,6,6,7,7,9,9,10,10,11,11,12,12,13,13,14,14],"right_children":[2,4,6,8,10,12,14,16,-1,18,20,22,24,26,28,-1,-1,-1,-1,-1,-1,-1,-1,-1,-1,-1,-1,-1,-1],"split_conditions":[4.7203217E0,1.2480112E0,6.4E1,2E0,2.3412495E0,8.892988E0,2E0,1E0,-8.009566E-1,1E0,7.9E1,8.4E1,3E0,6E0,6E0,3.030188E-1,8.532306E-2,1.7656848E-2,-7.229386E-2,-1.3549391E-2,-6.591409E-2,6.0430607E-3,-7.190768E-2,4.8095185E-1,1.2617564E-1,7.811913E-2,2.636003E-5,2.869637E-2,-7.596638E-2],"split_indices":[0,0,7,21,0,0,19,19,0,18,7,8,8,17,18,0,0,0,0,0,0,0,0,0,0,0,0,0,0],"split_type":[0,0,0,0,0,0,0,0,0,0,0,0,0,0,0,0,0,0,0,0,0,0,0,0,0,0,0,0,0],"sum_hessian":[1.097797E6,4.103967E5,6.874003E5,4.8422E3,4.055545E5,4.773345E5,2.100658E5,4.8164E3,2.58E1,7.1465E4,3.340895E5,4.656531E5,1.16814E4,9.41776E4,1.158882E5,7.428E2,4.0736E3,6.3681E3,6.50969E4,2.732766E5,6.08129E4,4.398498E5,2.58033E4,4.134E2,1.1268E4,7.7114E4,1.70636E4,1.087224E5,7.1658E3],"tree_param":{"num_deleted":"0","num_feature":"29","num_nodes":"29","size_leaf_vector":"1"}},{"base_weights":[-2.5541084E-2,-7.4710554E-1,8.3039993E-1,-6.487567E-1,-3.7631936E0,3.5544732E-1,1.9121854E0,-1.2046494E0,-4.5287784E-2,-3.4076447E0,-1.0897021E1,-9.430404E-3,2.8420894E0,4.1158504E0,1.2409439E0,-1.0371382E-2,-7.548892E-2,-1.5995247E-2,3.0414755E-2,3.511489E-2,-1.1271193E-1,-3.768076E-1,9.1503344E-2,6.6251555E-3,-6.391181E-2,9.531506E-2,-8.751852E-2,2.9541E-1,1.1552262E-1,3.0069543E-2,1.01610266E-1],"categories":[],"categories_nodes":[],"categories_segments":[],"categories_sizes":[],"default_left":[0,0,0,0,0,0,0,0,0,0,0,0,0,0,0,0,0,0,0,0,0,0,0,0,0,0,0,0,0,0,0],"id":35,"left_children":[1,3,5,7,9,11,13,15,17,19,21,23,25,27,29,-1,-1,-1,-1,-1,-1,-1,-1,-1,-1,-1,-1,-1,-1,-1,-1],"loss_changes":[6.785262E5,1.768094E5,2.5818775E5,1.9365616E5,4.7617406E4,3.168452E5,2.2676038E5,3.385279E5,1.430316E5,2.8704516E4,2.0818758E4,1.4873092E5,8.626234E4,5.42555E4,6.01695E4,0E0,0E0,0E0,0E0,0E0,0E0,0E0,0E0,0E0,0E0,0E0,0E0,0E0,0E0,0E0,0E0],"parents":[2147483647,0,0,1,1,2,2,3,3,4,4,5,5,6,6,7,7,8,8,9,9,10,10,11,11,12,12,13,13,14,14],"right_children":[2,4,6,8,10,12,14,16,18,20,22,24,26,28,30,-1,-1,-1,-1,-1,-1,-1,-1,-1,-1,-1,-1,-1,-1,-1,-1],"split_conditions":[5.7125306E0,8.7E1,6.3E1,5.5E1,8.3E1,8.26223E0,5.875421E0,2.7E1,4.210249E0,2E0,6E0,6E0,4.1E1,3E0,2.3E1,-1.0371382E-2,-7.548892E-2,-1.5995247E-2,3.0414755E-2,3.511489E-2,-1.1271193E-1,-3.768076E-1,9.1503344E-2,6.6251555E-3,-6.391181E-2,9.531506E-2,-8.751852E-2,2.9541E-1,1.1552262E-1,3.0069543E-2,1.01610266E-1],"split_indices":[2,9,9,9,8,2,2,9,2,11,16,18,9,8,11,0,0,0,0,0,0,0,0,0,0,0,0,0,0,0,0],"split_type":[0,0,0,0,0,0,0,0,0,0,0,0,0,0,0,0,0,0,0,0,0,0,0,0,0,0,0,0,0,0,0],"sum_hessian":[1.0986145E6,5.960997E5,5.025148E5,5.772797E5,1.882E4,3.492036E5,1.533112E5,3.004822E5,2.767975E5,1.79309E4,8.891E2,3.045221E5,4.46815E4,3.57916E4,1.175196E5,1.815791E5,1.189031E5,1.895038E5,8.72937E4,1.2708E3,1.66601E4,7.947E2,9.44E1,2.747006E5,2.98215E4,4.22263E4,2.4552E3,1.5774E3,3.42142E4,1.057643E5,1.17553E4],"tree_param":{"num_deleted":"0","num_feature":"29","num_nodes":"31","size_leaf_vector":"1"}},{"base_weights":[-1.9615624E-2,-6.6962576E-1,7.525465E-1,-1.7018303E0,-1.24642104E-1,2.3072374E0,4.0436938E-1,-3.933869E0,-1.5229654E0,-6.150633E-1,1.0383494E0,-1.9688854E0,2.739873E0,1.267241E-1,2.3634012E0,4.2027938E-1,-1.275556E-1,-6.7048006E-2,-2.7430834E-2,-2.209454E-2,1.3469686E-1,-2.8477635E-3,5.8879122E-2,-1.2045187E-1,4.5386393E-2,5.5452906E-2,1.177446E-1,-2.398299E-2,2.0463463E-2,8.848736E-2,-1.1751852E-2],"categories":[],"categories_nodes":[],"categories_segments":[],"categories_sizes":[],"default_left":[0,0,0,0,0,0,0,0,0,0,0,0,0,0,0,0,0,0,0,0,0,0,0,0,0,0,0,0,0,0,0],"id":36,"left_children":[1,3,5,7,9,11,13,15,17,19,21,23,25,27,29,-1,-1,-1,-1,-1,-1,-1,-1,-1,-1,-1,-1,-1,-1,-1,-1],"loss_changes":[5.512566E5,3.3545025E5,2.717241E5,8.224006E4,2.22596E5,1.699395E5,2.2307845E5,8.7378625E4,8.265347E4,1.7016525E5,1.2125785E5,6.0154156E4,8.8082E4,1.8478316E5,8.22275E4,0E0,0E0,0E0,0E0,0E0,0E0,0E0,0E0,0E0,0E0,0E0,0E0,0E0,0E0,0E0,0E0],"parents":[2147483647,0,0,1,1,2,2,3,3,4,4,5,5,6,6,7,7,8,8,9,9,10,10,11,11,12,12,13,13,14,14],"right_children":[2,4,6,8,10,12,14,16,18,20,22,24,26,28,30,-1,-1,-1,-1,-1,-1,-1,-1,-1,-1,-1,-1,-1,-1,-1,-1],"split_conditions":[5.7125306E0,4.51879E0,5.875421E0,2.3257809E0,6.4E1,2E1,8.26223E0,1.2480112E0,1E0,8.892988E0,1E0,1E0,5.3E1,4.7203217E0,4.1E1,4.2027938E-1,-1.275556E-1,-6.7048006E-2,-2.7430834E-2,-2.209454E-2,1.3469686E-1,-2.8477635E-3,5.8879122E-2,-1.2045187E-1,4.5386393E-2,5.5452906E-2,1.177446E-1,-2.398299E-2,2.0463463E-2,8.848736E-2,-1.1751852E-2],"split_indices":[2,0,2,2,7,9,2,0,25,0,13,25,9,0,9,0,0,0,0,0,0,0,0,0,0,0,0,0,0,0,0],"split_type":[0,0,0,0,0,0,0,0,0,0,0,0,0,0,0,0,0,0,0,0,0,0,0,0,0,0,0,0,0,0,0],"sum_hessian":[1.0983049E6,5.963207E5,5.019842E5,2.060506E5,3.902701E5,9.18469E4,4.101373E5,1.52818E4,1.907688E5,2.745131E5,1.15757E5,8.4376E3,8.34093E4,3.59229E5,5.09083E4,2.638E2,1.5018E4,8.7914E4,1.028548E5,2.681382E5,6.3749E3,5.20005E4,6.37565E4,5.3143E3,3.1233E3,4.76046E4,3.58047E4,1.346638E5,2.245652E5,4.19774E4,8.9309E3],"tree_param":{"num_deleted":"0","num_feature":"29","num_nodes":"31","size_leaf_vector":"1"}},{"base_weights":[-5.2314494E-3,-1.0254802E0,5.712223E-1,-1.6504037E0,-3.7978333E-1,-4.2306486E-1,1.1092775E0,-2.8818247E0,-1.0020891E0,-8.77777E-1,6.0415924E-1,-9.1536105E-1,8.0577457E-1,7.0727724E-1,2.1243093E0,2.0451124E-1,-8.908279E-2,-1.31436065E-2,-8.3803646E-2,-3.0877E-2,1.12896726E-1,1.9275161E-3,7.516978E-2,-1.3434051E-2,-7.795357E-2,3.3448324E-2,-4.3446798E-2,3.3978213E-2,-2.5266685E-2,6.0535554E-2,2.4975596E-1],"categories":[],"categories_nodes":[],"categories_segments":[],"categories_sizes":[],"default_left":[0,0,0,0,0,0,0,0,0,0,0,0,0,0,0,0,0,0,0,0,0,0,0,0,0,0,0,0,0,0,0],"id":37,"left_children":[1,3,5,7,9,11,13,15,17,19,21,23,25,27,29,-1,-1,-1,-1,-1,-1,-1,-1,-1,-1,-1,-1,-1,-1,-1,-1],"loss_changes":[6.4586644E5,1.5997716E5,3.754003E5,1.60835E5,9.555129E4,1.4905814E5,1.8578031E5,5.9094938E4,1.3334169E5,9.101711E4,6.727181E4,1.3843189E5,4.911744E4,2.1495216E5,8.520625E4,0E0,0E0,0E0,0E0,0E0,0E0,0E0,0E0,0E0,0E0,0E0,0E0,0E0,0E0,0E0,0E0],"parents":[2147483647,0,0,1,1,2,2,3,3,4,4,5,5,6,6,7,7,8,8,9,9,10,10,11,11,12,12,13,13,14,14],"right_children":[2,4,6,8,10,12,14,16,18,20,22,24,26,28,30,-1,-1,-1,-1,-1,-1,-1,-1,-1,-1,-1,-1,-1,-1,-1,-1],"split_conditions":[4.6774516E0,5.662033E0,4.51879E0,4.6E1,6.4E1,6.3E1,6.3E1,1.2480112E0,7.9E1,8.892988E0,4.210249E0,4.4E1,1.8E1,4.4E1,8.892988E0,2.0451124E-1,-8.908279E-2,-1.31436065E-2,-8.3803646E-2,-3.0877E-2,1.12896726E-1,1.9275161E-3,7.516978E-2,-1.3434051E-2,-7.795357E-2,3.3448324E-2,-4.3446798E-2,3.3978213E-2,-2.5266685E-2,6.0535554E-2,2.4975596E-1],"split_indices":[2,0,0,9,7,9,9,0,9,0,2,9,10,9,0,0,0,0,0,0,0,0,0,0,0,0,0,0,0,0,0],"split_type":[0,0,0,0,0,0,0,0,0,0,0,0,0,0,0,0,0,0,0,0,0,0,0,0,0,0,0,0,0,0,0],"sum_hessian":[1.0981699E6,3.964695E5,7.017004E5,2.014725E5,1.94997E5,2.463894E5,4.55311E5,6.94831E4,1.319894E5,1.294706E5,6.55264E4,1.759158E5,7.04736E4,3.261474E5,1.291636E5,6.198E2,6.88633E4,1.003887E5,3.16007E4,1.253814E5,4.0892E3,5.10383E4,1.44881E4,1.376745E5,3.82413E4,6.19748E4,8.4988E3,2.559044E5,7.0243E4,1.269876E5,2.176E3],"tree_param":{"num_deleted":"0","num_feature":"29","num_nodes":"31","size_leaf_vector":"1"}},{"base_weights":[-6.825787E-2,-7.568754E-1,7.25983E-1,-1.4277117E0,1.9664647E-2,7.531379E-2,1.5630811E0,-2.1673143E0,-9.018752E-1,1.4673592E0,-3.094303E-1,-3.9721698E-1,8.535233E-1,3.5088882E0,1.206282E0,9.103546E-2,-6.803028E-2,-2.4135873E-2,-1.834324E-1,1.3880037E-2,8.980371E-2,-5.8042806E-2,4.1008333E-4,-2.804574E-2,2.1941327E-2,1.6107513E-1,1.7229406E-2,-3.1402411E-3,1.1836787E-1,2.2731777E-2,8.321664E-2],"categories":[],"categories_nodes":[],"categories_segments":[],"categories_sizes":[],"default_left":[0,0,0,0,0,0,0,0,0,0,0,0,0,0,0,0,0,0,0,0,0,0,0,0,0,0,0,0,0,0,0],"id":38,"left_children":[1,3,5,7,9,11,13,15,17,19,21,23,25,27,29,-1,-1,-1,-1,-1,-1,-1,-1,-1,-1,-1,-1,-1,-1,-1,-1],"loss_changes":[6.0057294E5,3.0638747E5,2.7774534E5,1.22712625E5,1.2987743E5,1.055099E5,1.5481462E5,6.8473625E4,9.356428E4,7.740948E4,1.1664268E5,1.0832592E5,1.3665733E5,5.4535906E4,1.325104E5,0E0,0E0,0E0,0E0,0E0,0E0,0E0,0E0,0E0,0E0,0E0,0E0,0E0,0E0,0E0,0E0],"parents":[2147483647,0,0,1,1,2,2,3,3,4,4,5,5,6,6,7,7,8,8,9,9,10,10,11,11,12,12,13,13,14,14],"right_children":[2,4,6,8,10,12,14,16,18,20,22,24,26,28,30,-1,-1,-1,-1,-1,-1,-1,-1,-1,-1,-1,-1,-1,-1,-1,-1],"split_conditions":[5.7125306E0,5.7125306E0,5.7280283E0,3.8002756E0,5.875421E0,6.4E1,5.7808723E0,1.2480112E0,8.7E1,5.3E1,6.17512E0,6.4E1,6.5E1,2E1,7.336375E0,9.103546E-2,-6.803028E-2,-2.4135873E-2,-1.834324E-1,1.3880037E-2,8.980371E-2,-5.8042806E-2,4.1008333E-4,-2.804574E-2,2.1941327E-2,1.6107513E-1,1.7229406E-2,-3.1402411E-3,1.1836787E-1,2.2731777E-2,8.321664E-2],"split_indices":[0,2,2,0,2,8,0,0,8,9,2,7,8,7,0,0,0,0,0,0,0,0,0,0,0,0,0,0,0,0,0],"split_type":[0,0,0,0,0,0,0,0,0,0,0,0,0,0,0,0,0,0,0,0,0,0,0,0,0,0,0,0,0,0,0],"sum_hessian":[1.0980778E6,5.881474E5,5.099303E5,3.155496E5,2.725978E5,2.869168E5,2.230135E5,1.311178E5,1.844318E5,5.04889E4,2.221089E5,1.785195E5,1.083973E5,3.45524E4,1.884611E5,2.48E3,1.286378E5,1.810542E5,3.3776E3,3.04482E4,2.00407E4,3.68294E4,1.852795E5,1.209179E5,5.76016E4,6.3087E3,1.020886E5,3.7255E3,3.08269E4,1.465362E5,4.19249E4],"tree_param":{"num_deleted":"0","num_feature":"29","num_nodes":"31","size_leaf_vector":"1"}},{"base_weights":[-4.8003914E-3,-1.1230791E0,5.813864E-1,-2.2603333E0,-5.609434E-1,-5.684356E-1,1.0760202E0,-1.9514289E0,-4.4168177E0,-2.062005E-1,-2.4100776E0,-1.0357553E0,6.374293E-1,6.4540017E-1,2.1386955E0,-4.7318857E-2,-1.0684974E-1,8.834593E-2,-1.5647E-1,-2.2040602E-2,2.4895467E-2,-7.356893E-2,1.9092816E0,-1.4308949E-2,-7.471155E-2,1.173345E-1,4.102873E-3,3.279482E-2,-2.1080635E-2,5.0216757E-2,1.01291105E-1],"categories":[],"categories_nodes":[],"categories_segments":[],"categories_sizes":[],"default_left":[0,0,0,0,0,0,0,0,0,0,0,0,0,0,0,0,0,0,0,0,0,0,0,0,0,0,0,0,0,0,0],"id":39,"left_children":[1,3,5,7,9,11,13,15,17,19,21,23,25,27,29,-1,-1,-1,-1,-1,-1,-1,-1,-1,-1,-1,-1,-1,-1,-1,-1],"loss_changes":[7.203292E5,2.4159056E5,4.1003706E5,8.3241125E4,1.6589639E5,1.2220575E5,2.306735E5,6.5855E4,9.2144E4,1.16191625E5,1.13933484E5,1.270308E5,9.92694E4,2.1654397E5,8.360269E4,0E0,0E0,0E0,0E0,0E0,0E0,0E0,0E0,0E0,0E0,0E0,0E0,0E0,0E0,0E0,0E0],"parents":[2147483647,0,0,1,1,2,2,3,3,4,4,5,5,6,6,7,7,8,8,9,9,10,10,11,11,12,12,13,13,14,14],"right_children":[2,4,6,8,10,12,14,16,18,20,22,24,26,28,30,-1,-1,-1,-1,-1,-1,-1,-1,-1,-1,-1,-1,-1,-1,-1,-1],"split_conditions":[4.51879E0,4.391096E0,4.2804317E0,1.8E1,7.9E1,6.4E1,6.3E1,5E0,1.2480112E0,7.2E1,2E0,4.4E1,6.5E1,4.3E1,6.4E1,-4.7318857E-2,-1.0684974E-1,8.834593E-2,-1.5647E-1,-2.2040602E-2,2.4895467E-2,-7.356893E-2,1.9092816E0,-1.4308949E-2,-7.471155E-2,1.173345E-1,4.102873E-3,3.279482E-2,-2.1080635E-2,5.0216757E-2,1.01291105E-1],"split_indices":[1,2,2,12,8,8,9,17,2,8,27,8,8,9,8,0,0,0,0,0,0,0,0,0,0,0,0,0,0,0,0],"split_type":[0,0,0,0,0,0,0,0,0,0,0,0,0,0,0,0,0,0,0,0,0,0,0,0,0,0,0,0,0,0,0],"sum_hessian":[1.0988598E6,3.779111E5,7.209486E5,1.250044E5,2.529067E5,2.168525E5,5.040961E5,1.093472E5,1.56572E4,2.122013E5,4.07054E4,1.562866E5,6.05659E4,3.587345E5,1.453616E5,8.87361E4,2.06111E4,1.5318E3,1.41254E4,1.405228E5,7.16785E4,4.06823E4,2.31E1,1.129153E5,4.33713E4,8.031E3,5.25349E4,2.692919E5,8.94426E4,1.056813E5,3.96803E4],"tree_param":{"num_deleted":"0","num_feature":"29","num_nodes":"31","size_leaf_vector":"1"}},{"base_weights":[2.1497555E-2,-9.6006703E-1,5.351662E-1,-1.7061845E0,-1.1486659E-1,9.283958E-2,1.6893855E0,-2.587079E0,-6.784849E-1,1.9840436E0,-6.535984E-1,7.2814256E-1,-1.6014653E0,4.6885324E0,1.2705746E0,-9.778711E-2,-5.9413966E-2,-6.2829633E-3,-9.269774E-2,2.9191459E-2,1.02119625E-1,-3.9546262E-2,1.7645882E-2,-1.4241906E-2,3.7543632E-2,8.218179E-3,-5.8627583E-2,1.6037945E-1,3.9431773E-2,-3.0666027E-2,4.9042188E-2],"categories":[],"categories_nodes":[],"categories_segments":[],"categories_sizes":[],"default_left":[0,0,0,0,0,0,0,0,0,0,0,0,0,0,0,0,0,0,0,0,0,0,0,0,0,0,0,0,0,0,0],"id":40,"left_children":[1,3,5,7,9,11,13,15,17,19,21,23,25,27,29,-1,-1,-1,-1,-1,-1,-1,-1,-1,-1,-1,-1,-1,-1,-1,-1],"loss_changes":[5.5363206E5,2.3787869E5,3.680092E5,1.8136925E5,1.999976E5,5.609375E5,2.5082125E5,4.3984188E4,1.0459289E5,5.1845875E4,1.1616283E5,2.3858138E5,9.402928E4,5.42525E4,1.4632156E5,0E0,0E0,0E0,0E0,0E0,0E0,0E0,0E0,0E0,0E0,0E0,0E0,0E0,0E0,0E0,0E0],"parents":[2147483647,0,0,1,1,2,2,3,3,4,4,5,5,6,6,7,7,8,8,9,9,10,10,11,11,12,12,13,13,14,14],"right_children":[2,4,6,8,10,12,14,16,18,20,22,24,26,28,30,-1,-1,-1,-1,-1,-1,-1,-1,-1,-1,-1,-1,-1,-1,-1,-1],"split_conditions":[4.51879E0,5.7125306E0,6.4E1,5.7125306E0,5.875421E0,4.4E1,6.5E1,1E0,7.9E1,5.3E1,7.129925E0,4.2804317E0,4.6774516E0,6.857885E0,2.9557624E0,-9.778711E-2,-5.9413966E-2,-6.2829633E-3,-9.269774E-2,2.9191459E-2,1.02119625E-1,-3.9546262E-2,1.7645882E-2,-1.4241906E-2,3.7543632E-2,8.218179E-3,-5.8627583E-2,1.6037945E-1,3.9431773E-2,-3.0666027E-2,4.9042188E-2],"split_indices":[1,0,8,2,0,8,8,25,8,7,0,0,1,0,2,0,0,0,0,0,0,0,0,0,0,0,0,0,0,0,0],"split_type":[0,0,0,0,0,0,0,0,0,0,0,0,0,0,0,0,0,0,0,0,0,0,0,0,0,0,0,0,0,0,0],"sum_hessian":[1.0980376E6,3.772155E5,7.208221E5,2.003491E5,1.768664E5,5.211197E5,1.997024E5,1.078768E5,9.24723E4,3.61225E4,1.407439E5,3.790078E5,1.421119E5,2.4466E4,1.752364E5,5.11534E4,5.67234E4,7.74174E4,1.50549E4,2.1103E4,1.50195E4,9.16782E4,4.90657E4,1.148999E5,2.641079E5,2.25001E4,1.196118E5,2.04745E4,3.9915E3,2.40171E4,1.512193E5],"tree_param":{"num_deleted":"0","num_feature":"29","num_nodes":"31","size_leaf_vector":"1"}},{"base_weights":[-1.2923225E-2,-9.9041164E-1,4.982928E-1,5.821243E0,-1.0679369E0,-4.336129E-1,1.0433902E0,-4.891786E0,6.9344716E0,-1.776245E0,-3.753033E-1,-9.008188E-1,7.46936E-1,3.7657252E-1,1.8575215E0,-2.1580423E-1,1.4513282E0,1.5395287E-1,4.5108688E-1,-7.3505715E-2,-3.2213926E-2,3.1402396E-4,-7.264321E-2,-1.3269488E-2,-6.369623E-2,1.23841465E-1,7.199231E-3,6.272753E-4,3.889304E-2,5.1827896E-2,1.8715906E-1],"categories":[],"categories_nodes":[],"categories_segments":[],"categories_sizes":[],"default_left":[0,0,0,0,0,0,0,0,0,0,0,0,0,0,0,0,0,0,0,0,0,0,0,0,0,0,0,0,0,0,0],"id":41,"left_children":[1,3,5,7,9,11,13,15,17,19,21,23,25,27,29,-1,-1,-1,-1,-1,-1,-1,-1,-1,-1,-1,-1,-1,-1,-1,-1],"loss_changes":[5.492179E5,1.993201E5,3.6658888E5,5.075972E4,1.8307503E5,1.4690097E5,2.4718219E5,5.0230555E4,5.5963406E4,8.733231E4,1.4893506E5,1.0694269E5,1.2943679E5,8.189165E4,1.1665794E5,0E0,0E0,0E0,0E0,0E0,0E0,0E0,0E0,0E0,0E0,0E0,0E0,0E0,0E0,0E0,0E0],"parents":[2147483647,0,0,1,1,2,2,3,3,4,4,5,5,6,6,7,7,8,8,9,9,10,10,11,11,12,12,13,13,14,14],"right_children":[2,4,6,8,10,12,14,16,18,20,22,24,26,28,30,-1,-1,-1,-1,-1,-1,-1,-1,-1,-1,-1,-1,-1,-1,-1,-1],"split_conditions":[4.51879E0,1.2480112E0,4.6774516E0,8E0,5.5613503E0,6.4E1,5.7125306E0,7.336375E0,1.9E1,5.662033E0,7.9E1,4.4E1,6.5E1,6.4E1,8.3E1,-2.1580423E-1,1.4513282E0,1.5395287E-1,4.5108688E-1,-7.3505715E-2,-3.2213926E-2,3.1402396E-4,-7.264321E-2,-1.3269488E-2,-6.369623E-2,1.23841465E-1,7.199231E-3,6.272753E-4,3.889304E-2,5.1827896E-2,1.8715906E-1],"split_indices":[1,1,0,9,2,8,2,2,10,0,8,8,8,8,9,0,0,0,0,0,0,0,0,0,0,0,0,0,0,0,0],"split_type":[0,0,0,0,0,0,0,0,0,0,0,0,0,0,0,0,0,0,0,0,0,0,0,0,0,0,0,0,0,0,0],"sum_hessian":[1.0990712E6,3.77417E5,7.216542E5,4.2445E3,3.731725E5,2.663306E5,4.553236E5,3.985E2,3.846E3,1.844956E5,1.886769E5,1.908161E5,7.55145E4,2.50311E5,2.050126E5,3.845E2,1.4E1,3.1501E3,6.959E2,9.41535E4,9.03421E4,1.587494E5,2.99275E4,1.387701E5,5.2046E4,9.8432E3,6.56713E4,1.805181E5,6.97929E4,1.991122E5,5.9004E3],"tree_param":{"num_deleted":"0","num_feature":"29","num_nodes":"31","size_leaf_vector":"1"}},{"base_weights":[-3.9021134E-2,-1.0744824E0,4.0273038E-1,-1.7093005E0,-3.4441286E-1,-4.896714E-1,9.1643393E-1,-2.3862011E0,-1.06237E0,-1.1561861E0,6.246307E-1,-1.3820654E-1,-2.445817E0,4.7179547E-1,2.0594134E0,1.8714385E-1,-7.4283645E-2,-3.9212067E-2,9.377079E-2,-1.1125839E-1,-2.2896875E-2,8.7463915E-2,1.7139228E-3,-3.0936437E-2,1.3737297E-2,-7.464927E-2,2.1094348E0,4.4457603E-2,5.6226065E-5,1.5242454E-1,5.290453E-2],"categories":[],"categories_nodes":[],"categories_segments":[],"categories_sizes":[],"default_left":[0,0,0,0,0,0,0,0,0,0,0,0,0,0,0,0,0,0,0,0,0,0,0,0,0,0,0,0,0,0,0],"id":42,"left_children":[1,3,5,7,9,11,13,15,17,19,21,23,25,27,29,-1,-1,-1,-1,-1,-1,-1,-1,-1,-1,-1,-1,-1,-1,-1,-1],"loss_changes":[5.0256053E5,1.5226994E5,3.530543E5,7.694766E4,1.2021663E5,1.9343631E5,2.4839703E5,6.664169E4,9.21069E4,8.3395E4,9.056149E4,1.2697011E5,1.3294533E5,1.6703394E5,1.2236125E5,0E0,0E0,0E0,0E0,0E0,0E0,0E0,0E0,0E0,0E0,0E0,0E0,0E0,0E0,0E0,0E0],"parents":[2147483647,0,0,1,1,2,2,3,3,4,4,5,5,6,6,7,7,8,8,9,9,10,10,11,11,12,12,13,13,14,14],"right_children":[2,4,6,8,10,12,14,16,18,20,22,24,26,28,30,-1,-1,-1,-1,-1,-1,-1,-1,-1,-1,-1,-1,-1,-1,-1,-1],"split_conditions":[4.2804317E0,5.7125306E0,4.6774516E0,1E0,5.7280283E0,7.9E1,6.4E1,1.2480112E0,8.3E1,2.3257809E0,5.875421E0,4.9564834E0,2E0,1.5E1,6.5E1,1.8714385E-1,-7.4283645E-2,-3.9212067E-2,9.377079E-2,-1.1125839E-1,-2.2896875E-2,8.7463915E-2,1.7139228E-3,-3.0936437E-2,1.3737297E-2,-7.464927E-2,2.1094348E0,4.4457603E-2,5.6226065E-5,1.5242454E-1,5.290453E-2],"split_indices":[2,1,1,25,0,8,9,1,7,2,1,0,27,9,9,0,0,0,0,0,0,0,0,0,0,0,0,0,0,0,0],"split_type":[0,0,0,0,0,0,0,0,0,0,0,0,0,0,0,0,0,0,0,0,0,0,0,0,0,0,0,0,0,0,0],"sum_hessian":[1.0986858E6,3.285547E5,7.701311E5,1.757389E5,1.528158E5,2.813574E5,4.887737E5,8.58755E4,8.98634E4,8.3156E4,6.96598E4,2.385079E5,4.28495E4,3.518883E5,1.368854E5,8.839E2,8.49916E4,8.49049E4,4.9585E3,1.10905E4,7.20655E4,1.38276E4,5.58322E4,9.54777E4,1.430302E5,4.28274E4,2.21E1,1.117234E5,2.401649E5,1.22065E4,1.246789E5],"tree_param":{"num_deleted":"0","num_feature":"29","num_nodes":"31","size_leaf_vector":"1"}},{"base_weights":[2.9345017E-2,-5.9089184E-1,7.5217855E-1,-1.3991627E0,-4.4413477E-2,2.2384884E0,4.0322015E-1,-2.5528772E0,-8.207764E-1,-1.1319302E0,3.36044E-1,1.9319173E0,5.2304196E0,-7.5547934E-1,8.5518E-1,-1.0016754E-1,-6.0874958E-2,-2.9556198E-2,7.121265E-2,2.2333914E-1,-4.1034784E-2,-1.3349061E-2,3.3106968E-2,-2.7350488E-3,6.811973E-2,1.9040401E-1,6.6361874E-2,-4.3401603E-2,1.4147833E-2,2.7265055E-2,-1.9643271E-1],"categories":[],"categories_nodes":[],"categories_segments":[],"categories_sizes":[],"default_left":[0,0,0,0,0,0,0,0,0,0,0,0,0,0,0,0,0,0,0,0,0,0,0,0,0,0,0,0,0,0,0],"id":43,"left_children":[1,3,5,7,9,11,13,15,17,19,21,23,25,27,29,-1,-1,-1,-1,-1,-1,-1,-1,-1,-1,-1,-1,-1,-1,-1,-1],"loss_changes":[4.9261025E5,2.6120027E5,2.631728E5,1.5916553E5,1.459812E5,8.84575E4,2.1520672E5,3.27635E4,8.346724E4,1.85027E5,1.5668373E5,5.9978625E4,3.0158094E4,9.781251E4,1.17438875E5,0E0,0E0,0E0,0E0,0E0,0E0,0E0,0E0,0E0,0E0,0E0,0E0,0E0,0E0,0E0,0E0],"parents":[2147483647,0,0,1,1,2,2,3,3,4,4,5,5,6,6,7,7,8,8,9,9,10,10,11,11,12,12,13,13,14,14],"right_children":[2,4,6,8,10,12,14,16,18,20,22,24,26,28,30,-1,-1,-1,-1,-1,-1,-1,-1,-1,-1,-1,-1,-1,-1,-1,-1],"split_conditions":[5.7125306E0,4.9564834E0,5.875421E0,4.391096E0,2.9557624E0,7.336375E0,4.210249E0,2.9557624E0,2E0,1.2480112E0,5.5613503E0,1.3E1,8.426636E0,7.129925E0,2.5E1,-1.0016754E-1,-6.0874958E-2,-2.9556198E-2,7.121265E-2,2.2333914E-1,-4.1034784E-2,-1.3349061E-2,3.3106968E-2,-2.7350488E-3,6.811973E-2,1.9040401E-1,6.6361874E-2,-4.3401603E-2,1.4147833E-2,2.7265055E-2,-1.9643271E-1],"split_indices":[1,0,1,2,1,2,2,2,25,1,2,9,2,1,12,0,0,0,0,0,0,0,0,0,0,0,0,0,0,0,0],"split_type":[0,0,0,0,0,0,0,0,0,0,0,0,0,0,0,0,0,0,0,0,0,0,0,0,0,0,0,0,0,0,0],"sum_hessian":[1.0987656E6,5.913495E5,5.074161E5,2.385358E5,3.528137E5,9.64766E4,4.109395E5,7.96483E4,1.588875E5,9.14385E4,2.613752E5,8.75146E4,8.962E3,1.153107E5,2.956288E5,3.18406E4,4.78077E4,1.511118E5,7.7757E3,2.4451E3,8.89934E4,1.29549E5,1.318262E5,1.25515E4,7.49631E4,6.5396E3,2.4224E3,7.37601E4,4.15506E4,2.935043E5,2.1245E3],"tree_param":{"num_deleted":"0","num_feature":"29","num_nodes":"31","size_leaf_vector":"1"}},{"base_weights":[-2.064333E-2,-5.95084E-1,6.4821476E-1,-1.1990608E0,-5.103302E-2,7.136528E-1,-3.455137E0,5.308291E0,-1.2561142E0,-1.3197716E-1,3.0605657E0,4.78571E-1,1.7213739E0,3.1862156E0,-4.069489E0,-5.056017E-1,2.0227754E-1,-5.815864E-2,-2.581615E-2,-5.2780766E-2,2.2118965E-3,1.3650738E-1,-3.7111107E-2,1.1494367E-2,1.075407E-1,1.1115882E-1,2.8221842E-2,-8.517993E-1,1.5878868E-1,-1.362041E-1,7.9722606E-2],"categories":[],"categories_nodes":[],"categories_segments":[],"categories_sizes":[],"default_left":[0,0,0,0,0,0,0,0,0,0,0,0,0,0,0,0,0,0,0,0,0,0,0,0,0,0,0,0,0,0,0],"id":44,"left_children":[1,3,5,7,9,11,13,15,17,19,21,23,25,27,29,-1,-1,-1,-1,-1,-1,-1,-1,-1,-1,-1,-1,-1,-1,-1,-1],"loss_changes":[4.2179053E5,1.9405878E5,1.36198E5,1.03923875E5,7.825456E4,1.1826608E5,3.2525781E4,7.766384E4,7.48975E4,1.0137925E5,5.045236E4,1.1998146E5,1.4623756E5,4.5381984E4,2.3116023E4,0E0,0E0,0E0,0E0,0E0,0E0,0E0,0E0,0E0,0E0,0E0,0E0,0E0,0E0,0E0,0E0],"parents":[2147483647,0,0,1,1,2,2,3,3,4,4,5,5,6,6,7,7,8,8,9,9,10,10,11,11,12,12,13,13,14,14],"right_children":[2,4,6,8,10,12,14,16,18,20,22,24,26,28,30,-1,-1,-1,-1,-1,-1,-1,-1,-1,-1,-1,-1,-1,-1,-1,-1],"split_conditions":[5.7125306E0,1E0,8.7E1,1.2480112E0,1E0,2.2E1,2E0,2E0,3.8002756E0,2.5799487E0,3.8757322E0,8.781067E0,5.773804E0,1E0,1E0,-5.056017E-1,2.0227754E-1,-5.815864E-2,-2.581615E-2,-5.2780766E-2,2.2118965E-3,1.3650738E-1,-3.7111107E-2,1.1494367E-2,1.075407E-1,1.1115882E-1,2.8221842E-2,-8.517993E-1,1.5878868E-1,-1.362041E-1,7.9722606E-2],"split_indices":[1,25,7,1,21,11,12,12,1,1,1,1,1,19,23,0,0,0,0,0,0,0,