{"learner":{"attributes":{"best_iteration":"949","best_score":"58.51601666187375","scikit_learn":"{\"_estimator_type\": \"regressor\"}"},"feature_names":["characterNum_1_avg_getmmr","characterNum_2_avg_getmmr","characterNum_3_avg_getmmr","character_synergy_1","character_synergy_2","character_synergy_3","character_synergy_mean","characterNum_1","characterNum_2","characterNum_3","weaponCode_1","weaponCode_2","weaponCode_3","position_main_1","position_main_2","position_main_3","position_sub_1","position_sub_2","position_sub_3","main_melee_cnt","main_ranged_cnt","main_support_cnt","sub_bruiser_cnt","sub_assassin_cnt","sub_poke_cnt","sub_sustain_cnt","sub_util_cnt","sub_tank_cnt","sub_nuker_cnt"],"feature_types":["float","float","float","float","float","float","float","int","int","int","int","int","int","int","int","int","int","int","int","int","int","int","int","int","int","int","int","int","int"],"gradient_booster":{"model":{"gbtree_model_param":{"num_parallel_tree":"1","num_trees":"1000"},"iteration_indptr":[0,1,2,3,4,5,6,7,8,9,10,11,12,13,14,15,16,17,18,19,20,21,22,23,24,25,26,27,28,29,30,31,32,33,34,35,36,37,38,39,40,41,42,43,44,45,46,47,48,49,50,51,52,53,54,55,56,57,58,59,60,61,62,63,64,65,66,67,68,69,70,71,72,73,74,75,76,77,78,79,80,81,82,83,84,85,86,87,88,89,90,91,92,93,94,95,96,97,98,99,100,101,102,103,104,105,106,107,108,109,110,111,112,113,114,115,116,117,118,119,120,121,122,123,124,125,126,127,128,129,130,131,132,133,134,135,136,137,138,139,140,141,142,143,144,145,146,147,148,149,150,151,152,153,154,155,156,157,158,159,160,161,162,163,164,165,166,167,168,169,170,171,172,173,174,175,176,177,178,179,180,181,182,183,184,185,186,187,188,189,190,191,192,193,194,195,196,197,198,199,200,201,202,203,204,205,206,207,208,209,210,211,212,213,214,215,216,217,218,219,220,221,222,223,224,225,226,227,228,229,230,231,232,233,234,235,236,237,238,239,240,241,242,243,244,245,246,247,248,249,250,251,252,253,254,255,256,257,258,259,260,261,262,263,264,265,266,267,268,269,270,271,272,273,274,275,276,277,278,279,280,281,282,283,284,285,286,287,288,289,290,291,292,293,294,295,296,297,298,299,300,301,302,303,304,305,306,307,308,309,310,311,312,313,314,315,316,317,318,319,320,321,322,323,324,325,326,327,328,329,330,331,332,333,334,335,336,337,338,339,340,341,342,343,344,345,346,347,348,349,350,351,352,353,354,355,356,357,358,359,360,361,362,363,364,365,366,367,368,369,370,371,372,373,374,375,376,377,378,379,380,381,382,383,384,385,386,387,388,389,390,391,392,393,394,395,396,397,398,399,400,401,402,403,404,405,406,407,408,409,410,411,412,413,414,415,416,417,418,419,420,421,422,423,424,425,426,427,428,429,430,431,432,433,434,435,436,437,438,439,440,441,442,443,444,445,446,447,448,449,450,451,452,453,454,455,456,457,458,459,460,461,462,463,464,465,466,467,468,469,470,471,472,473,474,475,476,477,478,479,480,481,482,483,484,485,486,487,488,489,490,491,492,493,494,495,496,497,498,499,500,501,502,503,504,505,506,507,508,509,510,511,512,513,514,515,516,517,518,519,520,521,522,523,524,525,526,527,528,529,530,531,532,533,534,535,536,537,538,539,540,541,542,543,544,545,546,547,548,549,550,551,552,553,554,555,556,557,558,559,560,561,562,563,564,565,566,567,568,569,570,571,572,573,574,575,576,577,578,579,580,581,582,583,584,585,586,587,588,589,590,591,592,593,594,595,596,597,598,599,600,601,602,603,604,605,606,607,608,609,610,611,612,613,614,615,616,617,618,619,620,621,622,623,624,625,626,627,628,629,630,631,632,633,634,635,636,637,638,639,640,641,642,643,644,645,646,647,648,649,650,651,652,653,654,655,656,657,658,659,660,661,662,663,664,665,666,667,668,669,670,671,672,673,674,675,676,677,678,679,680,681,682,683,684,685,686,687,688,689,690,691,692,693,694,695,696,697,698,699,700,701,702,703,704,705,706,707,708,709,710,711,712,713,714,715,716,717,718,719,720,721,722,723,724,725,726,727,728,729,730,731,732,733,734,735,736,737,738,739,740,741,742,743,744,745,746,747,748,749,750,751,752,753,754,755,756,757,758,759,760,761,762,763,764,765,766,767,768,769,770,771,772,773,774,775,776,777,778,779,780,781,782,783,784,785,786,787,788,789,790,791,792,793,794,795,796,797,798,799,800,801,802,803,804,805,806,807,808,809,810,811,812,813,814,815,816,817,818,819,820,821,822,823,824,825,826,827,828,829,830,831,832,833,834,835,836,837,838,839,840,841,842,843,844,845,846,847,848,849,850,851,852,853,854,855,856,857,858,859,860,861,862,863,864,865,866,867,868,869,870,871,872,873,874,875,876,877,878,879,880,881,882,883,884,885,886,887,888,889,890,891,892,893,894,895,896,897,898,899,900,901,902,903,904,905,906,907,908,909,910,911,912,913,914,915,916,917,918,919,920,921,922,923,924,925,926,927,928,929,930,931,932,933,934,935,936,937,938,939,940,941,942,943,944,945,946,947,948,949,950,951,952,953,954,955,956,957,958,959,960,961,962,963,964,965,966,967,968,969,970,971,972,973,974,975,976,977,978,979,980,981,982,983,984,985,986,987,988,989,990,991,992,993,994,995,996,997,998,999,1000],"tree_info":[0,0,0,0,0,0,0,0,0,0,0,0,0,0,0,0,0,0,0,0,0,0,0,0,0,0,0,0,0,0,0,0,0,0,0,0,0,0,0,0,0,0,0,0,0,0,0,0,0,0,0,0,0,0,0,0,0,0,0,0,0,0,0,0,0,0,0,0,0,0,0,0,0,0,0,0,0,0,0,0,0,0,0,0,0,0,0,0,0,0,0,0,0,0,0,0,0,0,0,0,0,0,0,0,0,0,0,0,0,0,0,0,0,0,0,0,0,0,0,0,0,0,0,0,0,0,0,0,0,0,0,0,0,0,0,0,0,0,0,0,0,0,0,0,0,0,0,0,0,0,0,0,0,0,0,0,0,0,0,0,0,0,0,0,0,0,0,0,0,0,0,0,0,0,0,0,0,0,0,0,0,0,0,0,0,0,0,0,0,0,0,0,0,0,0,0,0,0,0,0,0,0,0,0,0,0,0,0,0,0,0,0,0,0,0,0,0,0,0,0,0,0,0,0,0,0,0,0,0,0,0,0,0,0,0,0,0,0,0,0,0,0,0,0,0,0,0,0,0,0,0,0,0,0,0,0,0,0,0,0,0,0,0,0,0,0,0,0,0,0,0,0,0,0,0,0,0,0,0,0,0,0,0,0,0,0,0,0,0,0,0,0,0,0,0,0,0,0,0,0,0,0,0,0,0,0,0,0,0,0,0,0,0,0,0,0,0,0,0,0,0,0,0,0,0,0,0,0,0,0,0,0,0,0,0,0,0,0,0,0,0,0,0,0,0,0,0,0,0,0,0,0,0,0,0,0,0,0,0,0,0,0,0,0,0,0,0,0,0,0,0,0,0,0,0,0,0,0,0,0,0,0,0,0,0,0,0,0,0,0,0,0,0,0,0,0,0,0,0,0,0,0,0,0,0,0,0,0,0,0,0,0,0,0,0,0,0,0,0,0,0,0,0,0,0,0,0,0,0,0,0,0,0,0,0,0,0,0,0,0,0,0,0,0,0,0,0,0,0,0,0,0,0,0,0,0,0,0,0,0,0,0,0,0,0,0,0,0,0,0,0,0,0,0,0,0,0,0,0,0,0,0,0,0,0,0,0,0,0,0,0,0,0,0,0,0,0,0,0,0,0,0,0,0,0,0,0,0,0,0,0,0,0,0,0,0,0,0,0,0,0,0,0,0,0,0,0,0,0,0,0,0,0,0,0,0,0,0,0,0,0,0,0,0,0,0,0,0,0,0,0,0,0,0,0,0,0,0,0,0,0,0,0,0,0,0,0,0,0,0,0,0,0,0,0,0,0,0,0,0,0,0,0,0,0,0,0,0,0,0,0,0,0,0,0,0,0,0,0,0,0,0,0,0,0,0,0,0,0,0,0,0,0,0,0,0,0,0,0,0,0,0,0,0,0,0,0,0,0,0,0,0,0,0,0,0,0,0,0,0,0,0,0,0,0,0,0,0,0,0,0,0,0,0,0,0,0,0,0,0,0,0,0,0,0,0,0,0,0,0,0,0,0,0,0,0,0,0,0,0,0,0,0,0,0,0,0,0,0,0,0,0,0,0,0,0,0,0,0,0,0,0,0,0,0,0,0,0,0,0,0,0,0,0,0,0,0,0,0,0,0,0,0,0,0,0,0,0,0,0,0,0,0,0,0,0,0,0,0,0,0,0,0,0,0,0,0,0,0,0,0,0,0,0,0,0,0,0,0,0,0,0,0,0,0,0,0,0,0,0,0,0,0,0,0,0,0,0,0,0,0,0,0,0,0,0,0,0,0,0,0,0,0,0,0,0,0,0,0,0,0,0,0,0,0,0,0,0,0,0,0,0,0,0,0,0,0,0,0,0,0,0,0,0,0,0,0,0,0,0,0,0,0,0,0,0,0,0,0,0,0,0,0,0,0,0,0,0,0,0,0,0,0,0,0,0,0,0,0,0,0,0,0,0,0,0,0,0,0,0,0,0,0,0,0,0,0,0,0,0,0,0,0,0,0,0,0,0,0,0,0,0,0,0,0,0,0,0,0,0,0,0,0,0,0,0,0,0,0,0,0,0,0,0,0,0,0,0,0,0,0,0,0,0,0,0,0,0,0,0,0,0,0,0,0,0,0,0,0,0,0,0,0,0,0,0,0,0,0,0,0,0,0,0,0,0,0,0,0,0,0,0,0,0,0,0,0,0,0,0,0,0,0,0,0,0,0,0,0,0,0,0,0,0,0,0,0,0,0,0,0,0,0,0,0,0,0,0,0,0],"trees":[{"base_weights":[-2.8417218E-2,-1.4480484E0,1.4912565E0,-3.4347975E0,-2.7684245E-1,1.1919705E-1,2.857703E0,-4.892956E0,-1.7505E0,-1.7314303E0,1.2316538E0,-1.3476427E0,1.6371112E0,1.2477059E0,3.8369977E0,-1.3998625E-1,-2.707762E-1,4.5661893E-2,-6.797039E-2,-5.554302E-2,1.4968817E-1,4.2728834E-2,-1.3352405E-1,-2.6549568E-2,-1.14771485E-1,3.839909E-2,1.4855006E-1,1.2714848E-2,9.0707995E-2,9.1502465E-2,1.7136575E-1],"categories":[],"categories_nodes":[],"categories_segments":[],"categories_sizes":[],"default_left":[0,0,0,0,0,0,0,0,0,0,0,0,0,0,0,0,0,0,0,0,0,0,0,0,0,0,0,0,0,0,0],"id":0,"left_children":[1,3,5,7,9,11,13,15,17,19,21,23,25,27,29,-1,-1,-1,-1,-1,-1,-1,-1,-1,-1,-1,-1,-1,-1,-1,-1],"loss_changes":[2.739556E6,1.5276879E6,1.1498704E6,5.9797925E5,9.063346E5,6.8140144E5,4.8446725E5,1.221605E5,1.9050794E5,1.696285E5,2.2198078E5,1.7842197E5,1.7801319E5,1.7004156E5,2.818795E5,0E0,0E0,0E0,0E0,0E0,0E0,0E0,0E0,0E0,0E0,0E0,0E0,0E0,0E0,0E0,0E0],"parents":[2147483647,0,0,1,1,2,2,3,3,4,4,5,5,6,6,7,7,8,8,9,9,10,10,11,11,12,12,13,13,14,14],"right_children":[2,4,6,8,10,12,14,16,18,20,22,24,26,28,30,-1,-1,-1,-1,-1,-1,-1,-1,-1,-1,-1,-1,-1,-1,-1,-1],"split_conditions":[5.662033E0,4.7203217E0,5.5613503E0,5.7125306E0,5.662033E0,5.662033E0,4.6774516E0,2.3E1,5.773804E0,8.892988E0,8.7E1,7.9E1,8.26223E0,6.3E1,6.4E1,-1.3998625E-1,-2.707762E-1,4.5661893E-2,-6.797039E-2,-5.554302E-2,1.4968817E-1,4.2728834E-2,-1.3352405E-1,-2.6549568E-2,-1.14771485E-1,3.839909E-2,1.4855006E-1,1.2714848E-2,9.0707995E-2,9.1502465E-2,1.7136575E-1],"split_indices":[2,0,1,1,1,0,0,12,1,0,9,8,2,9,9,0,0,0,0,0,0,0,0,0,0,0,0,0,0,0,0],"split_type":[0,0,0,0,0,0,0,0,0,0,0,0,0,0,0,0,0,0,0,0,0,0,0,0,0,0,0,0,0,0,0],"sum_hessian":[1.2698494E6,6.565355E5,6.133139E5,2.4349E5,4.130455E5,3.060304E5,3.072835E5,1.305027E5,1.129873E5,2.102802E5,2.027653E5,1.556334E5,1.50397E5,1.162205E5,1.91063E5,1.237215E5,6.7812E3,1.53666E4,9.76207E4,2.065938E5,3.6864E3,1.961191E5,6.6462E3,1.311518E5,2.44816E4,1.357721E5,1.46249E4,7.93927E4,3.68278E4,1.34591E5,5.6472E4],"tree_param":{"num_deleted":"0","num_feature":"29","num_nodes":"31","size_leaf_vector":"1"}},{"base_weights":[3.3461984E-2,-1.3615777E0,1.526242E0,-3.323702E0,-2.92858E-1,-1.3307378E-1,2.6775537E0,-4.9521446E0,-1.6310265E0,-2.115124E0,7.7778184E-1,-1.4263519E0,1.1974368E0,8.8182074E-1,3.7677221E0,-1.8748833E-1,-1.1516951E-1,-2.1636158E-2,-9.556157E-2,-1.189186E-1,-4.3721188E-2,-5.1877396E-3,6.291073E-2,-1.5850505E-2,-8.959804E-2,4.2485498E-2,-1.3033731E-1,4.039849E-2,-5.5483498E-2,9.026656E-2,1.6453104E-1],"categories":[],"categories_nodes":[],"categories_segments":[],"categories_sizes":[],"default_left":[0,0,0,0,0,0,0,0,0,0,0,0,0,0,0,0,0,0,0,0,0,0,0,0,0,0,0,0,0,0,0],"id":1,"left_children":[1,3,5,7,9,11,13,15,17,19,21,23,25,27,29,-1,-1,-1,-1,-1,-1,-1,-1,-1,-1,-1,-1,-1,-1,-1,-1],"loss_changes":[2.643859E6,1.3761626E6,1.1716445E6,6.37831E5,8.2890825E5,4.3229694E5,7.088025E5,1.7025825E5,1.6045934E5,1.9119075E5,3.35663E5,1.7848967E5,1.5013694E5,1.736476E5,2.9342675E5,0E0,0E0,0E0,0E0,0E0,0E0,0E0,0E0,0E0,0E0,0E0,0E0,0E0,0E0,0E0,0E0],"parents":[2147483647,0,0,1,1,2,2,3,3,4,4,5,5,6,6,7,7,8,8,9,9,10,10,11,11,12,12,13,13,14,14],"right_children":[2,4,6,8,10,12,14,16,18,20,22,24,26,28,30,-1,-1,-1,-1,-1,-1,-1,-1,-1,-1,-1,-1,-1,-1,-1,-1],"split_conditions":[5.662033E0,4.673775E0,4.9564834E0,5.662033E0,4.7203217E0,5.662033E0,4.6774516E0,1E0,1E0,2.9557624E0,4.2804317E0,1E0,8.7E1,7.9E1,6.3E1,-1.8748833E-1,-1.1516951E-1,-2.1636158E-2,-9.556157E-2,-1.189186E-1,-4.3721188E-2,-5.1877396E-3,6.291073E-2,-1.5850505E-2,-8.959804E-2,4.2485498E-2,-1.3033731E-1,4.039849E-2,-5.5483498E-2,9.026656E-2,1.6453104E-1],"split_indices":[2,1,1,0,0,0,0,25,24,2,2,24,8,7,9,0,0,0,0,0,0,0,0,0,0,0,0,0,0,0,0],"split_type":[0,0,0,0,0,0,0,0,0,0,0,0,0,0,0,0,0,0,0,0,0,0,0,0,0,0,0,0,0,0,0],"sum_hessian":[1.2695616E6,6.562652E5,6.132964E5,2.314061E5,4.248591E5,2.512241E5,3.620723E5,1.179376E5,1.134685E5,1.57236E5,2.676231E5,1.273948E5,1.238293E5,1.367776E5,2.252947E5,5.44535E4,6.34841E4,7.1577E4,4.18915E4,4.12559E4,1.159801E5,1.555375E5,1.120856E5,8.08603E4,4.65345E4,1.191296E5,4.6997E3,1.16888E5,1.98896E4,1.562388E5,6.90559E4],"tree_param":{"num_deleted":"0","num_feature":"29","num_nodes":"31","size_leaf_vector":"1"}},{"base_weights":[-3.554364E-2,-1.371984E0,1.3942142E0,-2.8280833E0,1.4367115E-1,-1.5531279E-1,2.4715414E0,-4.966942E0,-1.719954E0,-1.651788E0,1.1955854E0,-1.4775227E0,1.2046274E0,8.0570596E-1,3.481423E0,-1.8276966E-1,-1.1971454E-1,-8.625698E-2,-2.3023613E-2,-1.6671515E-1,-3.9294276E-2,9.893019E-3,7.1696214E-2,-5.7796005E-2,4.975892E-2,2.3502732E-2,1.1874532E-1,9.578425E-4,7.4034065E-2,8.412621E-2,1.5036993E-1],"categories":[],"categories_nodes":[],"categories_segments":[],"categories_sizes":[],"default_left":[0,0,0,0,0,0,0,0,0,0,0,0,0,0,0,0,0,0,0,0,0,0,0,0,0,0,0,0,0,0,0],"id":2,"left_children":[1,3,5,7,9,11,13,15,17,19,21,23,25,27,29,-1,-1,-1,-1,-1,-1,-1,-1,-1,-1,-1,-1,-1,-1,-1,-1],"loss_changes":[2.4252235E6,1.4478108E6,1.02365625E6,7.929795E5,6.071001E5,4.5221753E5,6.085035E5,1.253935E5,2.4252231E5,1.5857112E5,2.0958566E5,1.795736E5,1.4377572E5,1.7558167E5,2.3342225E5,0E0,0E0,0E0,0E0,0E0,0E0,0E0,0E0,0E0,0E0,0E0,0E0,0E0,0E0,0E0,0E0],"parents":[2147483647,0,0,1,1,2,2,3,3,4,4,5,5,6,6,7,7,8,8,9,9,10,10,11,11,12,12,13,13,14,14],"right_children":[2,4,6,8,10,12,14,16,18,20,22,24,26,28,30,-1,-1,-1,-1,-1,-1,-1,-1,-1,-1,-1,-1,-1,-1,-1,-1],"split_conditions":[5.662033E0,5.662033E0,4.9564834E0,4.391096E0,4.7203217E0,5.662033E0,4.6774516E0,1E0,1E0,2.3257809E0,4.2804317E0,2.4E1,2.4E1,6.3E1,6.3E1,-1.8276966E-1,-1.1971454E-1,-8.625698E-2,-2.3023613E-2,-1.6671515E-1,-3.9294276E-2,9.893019E-3,7.1696214E-2,-5.7796005E-2,4.975892E-2,2.3502732E-2,1.1874532E-1,9.578425E-4,7.4034065E-2,8.412621E-2,1.5036993E-1],"split_indices":[2,1,1,0,0,0,0,25,25,2,2,12,10,9,9,0,0,0,0,0,0,0,0,0,0,0,0,0,0,0,0],"split_type":[0,0,0,0,0,0,0,0,0,0,0,0,0,0,0,0,0,0,0,0,0,0,0,0,0,0,0,0,0,0,0],"sum_hessian":[1.2692222E6,6.560201E5,6.132022E5,3.345826E5,3.214375E5,2.514876E5,3.617146E5,1.141822E5,2.204004E5,1.187487E5,2.026888E5,1.275129E5,1.239747E5,1.365224E5,2.251922E5,5.30382E4,6.1144E4,9.95952E4,1.208052E5,9.5572E3,1.091915E5,1.175058E5,8.5183E4,1.115443E5,1.59686E4,1.075303E5,1.64444E4,9.31573E4,4.33651E4,1.561337E5,6.90585E4],"tree_param":{"num_deleted":"0","num_feature":"29","num_nodes":"31","size_leaf_vector":"1"}},{"base_weights":[-6.5731322E-3,-1.1958009E0,1.244853E0,-3.983058E-1,-2.579216E0,1.7797749E0,-3.1923413E-2,-6.869835E-1,2.2453222E0,-2.2844713E0,-6.0901585E0,1.6616483E0,6.522996E0,2.6594883E-1,-4.923411E0,-3.366378E-2,1.3090145E-2,-1.0146528E-1,9.018651E-2,-1.1719694E-1,-4.8672494E-2,-2.1486595E-1,-1.0737089E-1,8.2414955E-2,3.3750027E-2,2.723774E-1,1.4144765E-1,1.6642932E-2,-1.3358931E-1,-1.3391031E-1,-4.0576687E-1],"categories":[],"categories_nodes":[],"categories_segments":[],"categories_sizes":[],"default_left":[0,0,0,0,0,0,0,0,0,0,0,0,0,0,0,0,0,0,0,0,0,0,0,0,0,0,0,0,0,0,0],"id":3,"left_children":[1,3,5,7,9,11,13,15,17,19,21,23,25,27,29,-1,-1,-1,-1,-1,-1,-1,-1,-1,-1,-1,-1,-1,-1,-1,-1],"loss_changes":[1.8896651E6,7.18275E5,4.225522E5,3.1517425E5,2.4631088E5,2.4425975E5,2.6617572E5,1.8199845E5,1.7412288E5,2.358455E5,4.9542688E4,2.4781412E5,4.882028E4,2.3468617E5,4.127028E4,0E0,0E0,0E0,0E0,0E0,0E0,0E0,0E0,0E0,0E0,0E0,0E0,0E0,0E0,0E0,0E0],"parents":[2147483647,0,0,1,1,2,2,3,3,4,4,5,5,6,6,7,7,8,8,9,9,10,10,11,11,12,12,13,13,14,14],"right_children":[2,4,6,8,10,12,14,16,18,20,22,24,26,28,30,-1,-1,-1,-1,-1,-1,-1,-1,-1,-1,-1,-1,-1,-1,-1,-1],"split_conditions":[5.662033E0,1E0,1E0,2.3E1,8.4E1,8.892988E0,8.7E1,4.6774516E0,2E0,2.9557624E0,6E0,2E0,9.726297E0,8.7E1,8.3E1,-3.366378E-2,1.3090145E-2,-1.0146528E-1,9.018651E-2,-1.1719694E-1,-4.8672494E-2,-2.1486595E-1,-1.0737089E-1,8.2414955E-2,3.3750027E-2,2.723774E-1,1.4144765E-1,1.6642932E-2,-1.3358931E-1,-1.3391031E-1,-4.0576687E-1],"split_indices":[0,24,24,12,8,0,9,0,15,0,16,19,0,8,8,0,0,0,0,0,0,0,0,0,0,0,0,0,0,0,0],"split_type":[0,0,0,0,0,0,0,0,0,0,0,0,0,0,0,0,0,0,0,0,0,0,0,0,0,0,0,0,0,0,0],"sum_hessian":[1.2697334E6,6.510463E5,6.186871E5,4.129806E5,2.380657E5,4.360133E5,1.826738E5,3.723261E5,4.06545E4,2.196327E5,1.8433E4,4.254227E5,1.05906E4,1.721907E5,1.04831E4,2.683687E5,1.039574E5,4.8408E3,3.58137E4,6.36553E4,1.559774E5,1.29139E4,5.5191E3,1.407344E5,2.846883E5,4.3823E3,6.2083E3,1.622625E5,9.9282E3,9.9557E3,5.274E2],"tree_param":{"num_deleted":"0","num_feature":"29","num_nodes":"31","size_leaf_vector":"1"}},{"base_weights":[-3.442213E-2,-1.284336E0,1.2885035E0,-2.8434105E0,-2.273274E-1,-3.2155013E-1,2.262156E0,-2.0422406E0,-4.0293083E0,4.6979207E-1,-1.5764874E0,-1.0077753E0,1.1335998E0,2.377528E0,-4.247332E0,-7.021194E-2,1.897879E-2,-1.4210267E-1,-6.961186E-2,9.82002E-3,1.6561826E-1,-1.14277594E-1,-2.0360263E-2,-1.0110093E-2,-9.24881E-2,1.4561869E-1,1.3634134E-2,5.507471E-2,1.0735956E-1,1.3317655E-1,-1.427754E-1],"categories":[],"categories_nodes":[],"categories_segments":[],"categories_sizes":[],"default_left":[0,0,0,0,0,0,0,0,0,0,0,0,0,0,0,0,0,0,0,0,0,0,0,0,0,0,0,0,0,0,0],"id":4,"left_children":[1,3,5,7,9,11,13,15,17,19,21,23,25,27,29,-1,-1,-1,-1,-1,-1,-1,-1,-1,-1,-1,-1,-1,-1,-1,-1],"loss_changes":[2.0990045E6,1.0756332E6,9.66743E5,2.5053325E5,3.658599E5,2.3206545E5,2.8863775E5,1.2553606E5,1.28505875E5,1.8452875E5,2.6564078E5,2.1981867E5,1.881562E5,2.45664E5,2.982386E4,0E0,0E0,0E0,0E0,0E0,0E0,0E0,0E0,0E0,0E0,0E0,0E0,0E0,0E0,0E0,0E0],"parents":[2147483647,0,0,1,1,2,2,3,3,4,4,5,5,6,6,7,7,8,8,9,9,10,10,11,11,12,12,13,13,14,14],"right_children":[2,4,6,8,10,12,14,16,18,20,22,24,26,28,30,-1,-1,-1,-1,-1,-1,-1,-1,-1,-1,-1,-1,-1,-1,-1,-1],"split_conditions":[5.662033E0,4.9564834E0,4.7203217E0,1E0,1E0,6.4E1,8.7E1,2.3E1,4.7203217E0,8.3E1,2.9557624E0,4.4E1,6.5E1,6.4E1,4.9564834E0,-7.021194E-2,1.897879E-2,-1.4210267E-1,-6.961186E-2,9.82002E-3,1.6561826E-1,-1.14277594E-1,-2.0360263E-2,-1.0110093E-2,-9.24881E-2,1.4561869E-1,1.3634134E-2,5.507471E-2,1.0735956E-1,1.3317655E-1,-1.427754E-1],"split_indices":[1,0,0,24,24,8,9,12,1,7,1,8,8,8,0,0,0,0,0,0,0,0,0,0,0,0,0,0,0,0,0],"split_type":[0,0,0,0,0,0,0,0,0,0,0,0,0,0,0,0,0,0,0,0,0,0,0,0,0,0,0,0,0,0,0],"sum_hessian":[1.269392E6,6.527078E5,6.166842E5,2.637192E5,3.889886E5,2.323937E5,3.842905E5,1.573951E5,1.063241E5,2.564701E5,1.325185E5,1.579219E5,7.44718E4,3.776001E5,6.6904E3,1.41611E5,1.57841E4,7.5191E4,3.11331E4,2.494381E5,7.032E3,3.80016E4,9.45169E4,1.19348E5,3.85739E4,1.14928E4,6.2979E4,2.602406E5,1.173595E5,3.709E2,6.3195E3],"tree_param":{"num_deleted":"0","num_feature":"29","num_nodes":"31","size_leaf_vector":"1"}},{"base_weights":[2.8041126E-2,-1.5360061E0,1.1020406E0,-2.839425E0,-1.8655844E-1,-4.1697797E-1,2.0180888E0,-2.1328268E0,-3.860997E0,2.7731676E-3,-4.603751E0,2.4200341E-1,-1.7439568E0,1.3934246E0,3.6656487E0,2.3581801E-1,-6.7543015E-2,-1.8156026E-1,-8.995384E-2,-4.358116E-3,1.3345906E-1,-1.2414534E-1,-4.0390283E-1,-1.6293115E-3,9.542195E-2,-7.133914E-2,-8.686259E-5,3.1452682E-2,1.2633683E-1,1.1867323E-1,-3.7957396E-2],"categories":[],"categories_nodes":[],"categories_segments":[],"categories_sizes":[],"default_left":[0,0,0,0,0,0,0,0,0,0,0,0,0,0,0,0,0,0,0,0,0,0,0,0,0,0,0,0,0,0,0],"id":5,"left_children":[1,3,5,7,9,11,13,15,17,19,21,23,25,27,29,-1,-1,-1,-1,-1,-1,-1,-1,-1,-1,-1,-1,-1,-1,-1,-1],"loss_changes":[2.1330828E6,9.0931225E5,1.047622E6,1.897955E5,2.1243642E5,2.4767034E5,4.8333025E5,1.8431225E5,2.03128E5,1.6032112E5,4.2879312E4,1.6479778E5,1.03739E5,3.3103906E5,1.8472062E5,0E0,0E0,0E0,0E0,0E0,0E0,0E0,0E0,0E0,0E0,0E0,0E0,0E0,0E0,0E0,0E0],"parents":[2147483647,0,0,1,1,2,2,3,3,4,4,5,5,6,6,7,7,8,8,9,9,10,10,11,11,12,12,13,13,14,14],"right_children":[2,4,6,8,10,12,14,16,18,20,22,24,26,28,30,-1,-1,-1,-1,-1,-1,-1,-1,-1,-1,-1,-1,-1,-1,-1,-1],"split_conditions":[4.9564834E0,5.662033E0,4.7203217E0,1E0,8.7E1,1E0,6.4E1,1.2480112E0,2.862956E0,8.6E1,8.3E1,2.4E1,6.3E1,8.26223E0,8.4E1,2.3581801E-1,-6.7543015E-2,-1.8156026E-1,-8.995384E-2,-4.358116E-3,1.3345906E-1,-1.2414534E-1,-4.0390283E-1,-1.6293115E-3,9.542195E-2,-7.133914E-2,-8.686259E-5,3.1452682E-2,1.2633683E-1,1.1867323E-1,-3.7957396E-2],"split_indices":[2,0,0,24,9,24,9,0,2,9,8,11,9,2,8,0,0,0,0,0,0,0,0,0,0,0,0,0,0,0,0],"split_type":[0,0,0,0,0,0,0,0,0,0,0,0,0,0,0,0,0,0,0,0,0,0,0,0,0,0,0,0,0,0,0],"sum_hessian":[1.2698482E6,5.169787E5,7.528695E5,2.629722E5,2.540065E5,2.832223E5,4.696472E5,1.554566E5,1.075156E5,2.435693E5,1.04372E4,1.892446E5,9.39777E4,3.405395E5,1.291077E5,1.821E3,1.536356E5,3.03645E4,7.71511E4,2.357226E5,7.8467E3,9.9204E3,5.168E2,1.719131E5,1.73315E4,6.88896E4,2.50881E4,3.033971E5,3.71424E4,1.219341E5,7.1736E3],"tree_param":{"num_deleted":"0","num_feature":"29","num_nodes":"31","size_leaf_vector":"1"}},{"base_weights":[-1.2849038E-2,-1.2111934E0,1.2557911E0,-2.4224844E0,3.712738E-2,-2.445885E-1,2.1359532E0,-1.5565535E0,-3.7094676E0,6.8988734E-1,-1.3017142E0,7.756702E0,-3.4255588E-1,2.4385166E0,1.4035066E-2,-5.491449E-2,3.7962746E-2,-1.7111316E-1,-8.752956E-2,6.298203E-2,5.2632303E-3,-9.625889E-2,-1.6515447E-2,6.1441225E-1,1.9909154E-1,-1.0838141E-3,-8.931742E-2,5.8848307E-2,1.0627746E-1,1.8022573E-2,-1.07752904E-1],"categories":[],"categories_nodes":[],"categories_segments":[],"categories_sizes":[],"default_left":[0,0,0,0,0,0,0,0,0,0,0,0,0,0,0,0,0,0,0,0,0,0,0,0,0,0,0,0,0,0,0],"id":6,"left_children":[1,3,5,7,9,11,13,15,17,19,21,23,25,27,29,-1,-1,-1,-1,-1,-1,-1,-1,-1,-1,-1,-1,-1,-1,-1,-1],"loss_changes":[1.9311122E6,9.8772394E5,8.1483206E5,3.6944488E5,2.8114544E5,1.7882838E5,2.4967162E5,1.5321188E5,2.1050512E5,1.5681112E5,1.5102853E5,3.8900656E4,1.8195561E5,1.7918525E5,1.02683805E5,0E0,0E0,0E0,0E0,0E0,0E0,0E0,0E0,0E0,0E0,0E0,0E0,0E0,0E0,0E0,0E0],"parents":[2147483647,0,0,1,1,2,2,3,3,4,4,5,5,6,6,7,7,8,8,9,9,10,10,11,11,12,12,13,13,14,14],"right_children":[2,4,6,8,10,12,14,16,18,20,22,24,26,28,30,-1,-1,-1,-1,-1,-1,-1,-1,-1,-1,-1,-1,-1,-1,-1,-1],"split_conditions":[5.662033E0,5.662033E0,4.6774516E0,1E0,1E0,1.2480112E0,6E0,2.4E1,2.9557624E0,5.875421E0,2.9557624E0,5.7288713E0,1.8E1,6.4E1,2.3E1,-5.491449E-2,3.7962746E-2,-1.7111316E-1,-8.752956E-2,6.298203E-2,5.2632303E-3,-9.625889E-2,-1.6515447E-2,6.1441225E-1,1.9909154E-1,-1.0838141E-3,-8.931742E-2,5.8848307E-2,1.0627746E-1,1.8022573E-2,-1.07752904E-1],"split_indices":[1,0,0,24,24,0,18,12,1,0,1,1,10,7,12,0,0,0,0,0,0,0,0,0,0,0,0,0,0,0,0],"split_type":[0,0,0,0,0,0,0,0,0,0,0,0,0,0,0,0,0,0,0,0,0,0,0,0,0,0,0,0,0,0,0],"sum_hessian":[1.2702389E6,6.532174E5,6.170215E5,3.315248E5,3.216926E5,2.281329E5,3.888886E5,1.981855E5,1.333393E5,2.162573E5,1.054353E5,2.7565E3,2.253764E5,3.403564E5,4.85322E4,1.806511E5,1.75344E4,3.78894E4,9.54499E4,5.78219E4,1.584354E5,2.97935E4,7.56418E4,2.188E2,2.5377E3,2.01898E5,2.34784E4,2.37693E5,1.026634E5,4.17428E4,6.7894E3],"tree_param":{"num_deleted":"0","num_feature":"29","num_nodes":"31","size_leaf_vector":"1"}},{"base_weights":[5.034527E-2,-1.2386866E0,1.3257318E0,-2.9756737E0,-2.9219046E-1,-1.0755134E-1,2.3201606E0,-2.026365E0,-4.4600306E0,-5.1816285E-2,-3.566976E0,6.927638E-1,-1.6049358E0,1.6324142E0,3.8260489E0,1.8388182E-1,-6.4402394E-2,-1.8475468E-1,-1.1229278E-1,-1.738981E-2,3.8246084E-2,1.10818066E-1,-1.3201497E-1,1.1079503E-2,1.0575142E-1,-9.2764586E-2,-1.4981653E-2,3.0539777E-2,9.461595E-2,1.6474037E-1,9.086273E-2],"categories":[],"categories_nodes":[],"categories_segments":[],"categories_sizes":[],"default_left":[0,0,0,0,0,0,0,0,0,0,0,0,0,0,0,0,0,0,0,0,0,0,0,0,0,0,0,0,0,0,0],"id":7,"left_children":[1,3,5,7,9,11,13,15,17,19,21,23,25,27,29,-1,-1,-1,-1,-1,-1,-1,-1,-1,-1,-1,-1,-1,-1,-1,-1],"loss_changes":[2.0887616E6,1.03884106E6,9.102601E5,3.1401775E5,3.219607E5,3.1350128E5,3.9047038E5,1.3350256E5,1.05779E5,2.6684284E5,1.6932106E5,1.561714E5,1.4981008E5,2.4195331E5,1.5689E5,0E0,0E0,0E0,0E0,0E0,0E0,0E0,0E0,0E0,0E0,0E0,0E0,0E0,0E0,0E0,0E0],"parents":[2147483647,0,0,1,1,2,2,3,3,4,4,5,5,6,6,7,7,8,8,9,9,10,10,11,11,12,12,13,13,14,14],"right_children":[2,4,6,8,10,12,14,16,18,20,22,24,26,28,30,-1,-1,-1,-1,-1,-1,-1,-1,-1,-1,-1,-1,-1,-1,-1,-1],"split_conditions":[5.5613503E0,4.673775E0,4.9564834E0,1E0,2.2E1,1E0,6.3E1,1.2480112E0,2.9557624E0,6.4E1,1.2480112E0,2.3E1,3.5901067E0,6.4E1,5.875421E0,1.8388182E-1,-6.4402394E-2,-1.8475468E-1,-1.1229278E-1,-1.738981E-2,3.8246084E-2,1.10818066E-1,-1.3201497E-1,1.1079503E-2,1.0575142E-1,-9.2764586E-2,-1.4981653E-2,3.0539777E-2,9.461595E-2,1.6474037E-1,9.086273E-2],"split_indices":[2,1,1,24,12,24,9,1,2,8,2,10,1,8,2,0,0,0,0,0,0,0,0,0,0,0,0,0,0,0,0],"split_type":[0,0,0,0,0,0,0,0,0,0,0,0,0,0,0,0,0,0,0,0,0,0,0,0,0,0,0,0,0,0,0],"sum_hessian":[1.2705196E6,6.318792E5,6.386404E5,2.228686E5,4.090106E5,2.615978E5,3.770426E5,1.359382E5,8.69304E4,3.810447E5,2.79659E4,1.704809E5,9.11169E4,2.588373E5,1.182053E5,1.975E3,1.339632E5,2.57955E4,6.11349E4,2.725919E5,1.084528E5,2.8786E3,2.50873E4,1.530108E5,1.74701E4,3.88493E4,5.22676E4,1.843822E5,7.44551E4,3.82642E4,7.99411E4],"tree_param":{"num_deleted":"0","num_feature":"29","num_nodes":"31","size_leaf_vector":"1"}},{"base_weights":[-4.2556014E-2,6.0989875E-1,-1.3596771E0,1.7976047E0,9.6406594E-2,-1.114736E0,-5.873809E0,1.0261647E0,3.036367E0,1.2771752E0,-1.4603719E-1,-8.873883E-1,-5.203653E0,-5.5316296E0,-1.4560116E1,1.6950164E-2,8.7227084E-2,1.9950314E-1,7.390431E-2,3.2944992E-2,1.3771744E-1,-2.1432664E-2,1.557109E-2,-3.9336782E-2,3.407385E-2,-1.5834488E-1,2.6316388E0,-2.1959738E-1,-1.3760036E-1,-5.149354E-1,-1.18914865E-1],"categories":[],"categories_nodes":[],"categories_segments":[],"categories_sizes":[],"default_left":[0,0,0,0,0,0,0,0,0,0,0,0,0,0,0,0,0,0,0,0,0,0,0,0,0,0,0,0,0,0,0],"id":8,"left_children":[1,3,5,7,9,11,13,15,17,19,21,23,25,27,29,-1,-1,-1,-1,-1,-1,-1,-1,-1,-1,-1,-1,-1,-1,-1,-1],"loss_changes":[1.0914286E6,5.1797938E5,4.6516625E5,2.4497162E5,1.697496E5,3.709614E5,6.4097E4,1.3706231E5,2.0361331E5,5.9892453E4,1.8596903E5,3.2418962E5,1.4684156E5,3.5099062E4,2.236836E4,0E0,0E0,0E0,0E0,0E0,0E0,0E0,0E0,0E0,0E0,0E0,0E0,0E0,0E0,0E0,0E0],"parents":[2147483647,0,0,1,1,2,2,3,3,4,4,5,5,6,6,7,7,8,8,9,9,10,10,11,11,12,12,13,13,14,14],"right_children":[2,4,6,8,10,12,14,16,18,20,22,24,26,28,30,-1,-1,-1,-1,-1,-1,-1,-1,-1,-1,-1,-1,-1,-1,-1,-1],"split_conditions":[1E0,2E0,8.7E1,6.4E1,1.4E1,8.7E1,8.4E1,2.3E1,6.5E1,2.4E1,6.3E1,2E1,2E0,2E0,2.1E1,1.6950164E-2,8.7227084E-2,1.9950314E-1,7.390431E-2,3.2944992E-2,1.3771744E-1,-2.1432664E-2,1.557109E-2,-3.9336782E-2,3.407385E-2,-1.5834488E-1,2.6316388E0,-2.1959738E-1,-1.3760036E-1,-5.149354E-1,-1.18914865E-1],"split_indices":[24,19,9,9,9,8,8,10,9,11,9,11,27,20,10,0,0,0,0,0,0,0,0,0,0,0,0,0,0,0,0],"split_type":[0,0,0,0,0,0,0,0,0,0,0,0,0,0,0,0,0,0,0,0,0,0,0,0,0,0,0,0,0,0,0],"sum_hessian":[1.2700388E6,8.493178E5,4.207209E5,2.563565E5,5.929613E5,3.990709E5,2.165E4,1.579804E5,9.83761E4,1.010093E5,4.91952E5,3.780546E5,2.10163E4,2.08343E4,8.157E2,1.268838E5,3.10966E4,1.3457E4,8.49191E4,9.5836E4,5.1733E3,2.652583E5,2.266937E5,3.125747E5,6.54799E4,2.10023E4,1.4E1,7.1956E3,1.36387E4,6.532E2,1.625E2],"tree_param":{"num_deleted":"0","num_feature":"29","num_nodes":"31","size_leaf_vector":"1"}},{"base_weights":[-9.816349E-3,-1.5208746E0,1.026307E0,-3.1698477E0,-5.51463E-1,-3.8979572E-1,2.0132887E0,-4.478454E0,-1.6498244E0,-2.2514107E0,3.1571397E-1,-1.4260762E0,7.6989794E-1,4.3983796E-1,2.960957E0,-1.116887E-1,-1.7770785E-1,-3.8740832E-2,-1.6620387E-1,-1.24184154E-1,-4.8162352E-2,-8.088186E-3,4.8956808E-2,-5.5288684E-2,3.376056E-2,8.217327E-2,8.517988E-3,2.5044978E-2,-5.505321E-2,7.26409E-2,1.3034256E-1],"categories":[],"categories_nodes":[],"categories_segments":[],"categories_sizes":[],"default_left":[0,0,0,0,0,0,0,0,0,0,0,0,0,0,0,0,0,0,0,0,0,0,0,0,0,0,0,0,0,0,0],"id":9,"left_children":[1,3,5,7,9,11,13,15,17,19,21,23,25,27,29,-1,-1,-1,-1,-1,-1,-1,-1,-1,-1,-1,-1,-1,-1,-1,-1],"loss_changes":[1.989085E6,8.26094E5,1.053385E6,3.8055012E5,4.7978303E5,3.7200594E5,6.6223625E5,1.12175875E5,1.2341605E5,1.3406844E5,1.660377E5,1.7388272E5,1.3978473E5,1.5002169E5,2.0693075E5,0E0,0E0,0E0,0E0,0E0,0E0,0E0,0E0,0E0,0E0,0E0,0E0,0E0,0E0,0E0,0E0],"parents":[2147483647,0,0,1,1,2,2,3,3,4,4,5,5,6,6,7,7,8,8,9,9,10,10,11,11,12,12,13,13,14,14],"right_children":[2,4,6,8,10,12,14,16,18,20,22,24,26,28,30,-1,-1,-1,-1,-1,-1,-1,-1,-1,-1,-1,-1,-1,-1,-1,-1],"split_conditions":[4.9564834E0,4.7203217E0,4.9564834E0,5.7125306E0,4.51879E0,5.7125306E0,4.6774516E0,1.5E1,2.2E1,5.7125306E0,6.4E1,2.2E1,5.875421E0,7.9E1,6.4E1,-1.116887E-1,-1.7770785E-1,-3.8740832E-2,-1.6620387E-1,-1.24184154E-1,-4.8162352E-2,-8.088186E-3,4.8956808E-2,-5.5288684E-2,3.376056E-2,8.217327E-2,8.517988E-3,2.5044978E-2,-5.505321E-2,7.26409E-2,1.3034256E-1],"split_indices":[2,0,1,1,1,0,0,12,12,0,7,12,0,7,8,0,0,0,0,0,0,0,0,0,0,0,0,0,0,0,0],"split_type":[0,0,0,0,0,0,0,0,0,0,0,0,0,0,0,0,0,0,0,0,0,0,0,0,0,0,0,0,0,0,0],"sum_hessian":[1.2704528E6,5.16785E5,7.536677E5,1.913278E5,3.254572E5,3.095426E5,4.441251E5,1.028105E5,8.85173E4,1.099385E5,2.155187E5,1.634695E5,1.460731E5,1.669451E5,2.7718E5,6.75223E4,3.52882E4,8.10531E4,7.4642E3,2.80217E4,8.19168E4,1.491788E5,6.63399E4,1.405123E5,2.29572E4,2.89098E4,1.171633E5,1.42249E5,2.46961E4,1.994255E5,7.77545E4],"tree_param":{"num_deleted":"0","num_feature":"29","num_nodes":"31","size_leaf_vector":"1"}},{"base_weights":[6.943656E-3,-1.176367E0,1.2722261E0,-2.3846338E0,8.134549E-2,2.3245294E-1,2.3881395E0,-1.7161295E0,-3.36799E0,3.0463517E-1,-3.167449E0,8.5593975E-1,-1.0546938E0,3.9749317E0,1.9351071E0,-6.2016334E-2,3.3243112E-2,-8.951274E-2,-1.98824E-1,-9.924162E-2,1.7374396E-2,1.1894633E-1,-1.2222082E-1,2.1236092E-2,1.9854578E-1,-9.446178E-2,-6.775423E-3,5.6597598E-2,1.5418148E-1,-3.323462E-2,6.8438716E-2],"categories":[],"categories_nodes":[],"categories_segments":[],"categories_sizes":[],"default_left":[0,0,0,0,0,0,0,0,0,0,0,0,0,0,0,0,0,0,0,0,0,0,0,0,0,0,0,0,0,0,0],"id":10,"left_children":[1,3,5,7,9,11,13,15,17,19,21,23,25,27,29,-1,-1,-1,-1,-1,-1,-1,-1,-1,-1,-1,-1,-1,-1,-1,-1],"loss_changes":[1.9019255E6,9.9752375E5,7.1228875E5,2.2006E5,2.333165E5,2.5503469E5,2.1282938E5,1.97628E5,1.69611E5,2.9846012E5,1.3379097E5,1.8264316E5,1.7998536E5,1.5987525E5,2.4265775E5,0E0,0E0,0E0,0E0,0E0,0E0,0E0,0E0,0E0,0E0,0E0,0E0,0E0,0E0,0E0,0E0],"parents":[2147483647,0,0,1,1,2,2,3,3,4,4,5,5,6,6,7,7,8,8,9,9,10,10,11,11,12,12,13,13,14,14],"right_children":[2,4,6,8,10,12,14,16,18,20,22,24,26,28,30,-1,-1,-1,-1,-1,-1,-1,-1,-1,-1,-1,-1,-1,-1,-1,-1],"split_conditions":[5.662033E0,5.662033E0,5.662033E0,1E0,2.2E1,1E0,5.875421E0,2.3E1,2.2E1,2.3257809E0,1.2480112E0,8.892988E0,2.9557624E0,1E0,5.9646525E0,-6.2016334E-2,3.3243112E-2,-8.951274E-2,-1.98824E-1,-9.924162E-2,1.7374396E-2,1.1894633E-1,-1.2222082E-1,2.1236092E-2,1.9854578E-1,-9.446178E-2,-6.775423E-3,5.6597598E-2,1.5418148E-1,-3.323462E-2,6.8438716E-2],"split_indices":[2,1,1,24,12,24,2,10,12,2,2,2,1,15,2,0,0,0,0,0,0,0,0,0,0,0,0,0,0,0,0],"split_type":[0,0,0,0,0,0,0,0,0,0,0,0,0,0,0,0,0,0,0,0,0,0,0,0,0,0,0,0,0,0,0],"sum_hessian":[1.2702966E6,6.564109E5,6.138857E5,3.347854E5,3.216255E5,3.177866E5,2.960991E5,1.99304E5,1.354814E5,3.009446E5,2.06809E4,2.140862E5,1.037004E5,6.57561E4,2.30343E5,1.772688E5,2.20352E4,1.212002E5,1.42812E4,2.12499E4,2.796947E5,2.331E3,1.83499E4,2.087262E5,5.36E3,2.94038E4,7.42966E4,2.35428E4,4.22133E4,2.35276E4,2.068154E5],"tree_param":{"num_deleted":"0","num_feature":"29","num_nodes":"31","size_leaf_vector":"1"}},{"base_weights":[2.1489367E-2,-1.4442046E0,1.0265507E0,-2.6047823E0,-1.1488432E-1,-9.445494E-2,2.2247176E0,-3.8044262E0,-1.3573079E0,-1.541063E0,7.1143216E-1,-1.4661969E0,8.2848054E-1,7.1694744E-1,3.1653593E0,-1.085965E-1,-2.3663494E-1,-4.4848476E-2,1.5440062E-1,-1.5292142E-1,-3.3929355E-2,-1.4669142E-2,4.2258468E-2,-2.4750048E-2,-7.577272E-2,-2.411838E-2,4.316214E-2,6.557206E-4,7.270848E-2,7.2346844E-2,1.5270591E-1],"categories":[],"categories_nodes":[],"categories_segments":[],"categories_sizes":[],"default_left":[0,0,0,0,0,0,0,0,0,0,0,0,0,0,0,0,0,0,0,0,0,0,0,0,0,0,0,0,0,0,0],"id":11,"left_children":[1,3,5,7,9,11,13,15,17,19,21,23,25,27,29,-1,-1,-1,-1,-1,-1,-1,-1,-1,-1,-1,-1,-1,-1,-1,-1],"loss_changes":[1.8694258E6,7.964104E5,1.0111431E6,4.1242462E5,2.8357028E5,4.9240325E5,5.1607375E5,1.0577275E5,1.209748E5,1.2871166E5,1.2750677E5,1.0626834E5,2.3162283E5,1.6584339E5,3.2508725E5,0E0,0E0,0E0,0E0,0E0,0E0,0E0,0E0,0E0,0E0,0E0,0E0,0E0,0E0,0E0,0E0],"parents":[2147483647,0,0,1,1,2,2,3,3,4,4,5,5,6,6,7,7,8,8,9,9,10,10,11,11,12,12,13,13,14,14],"right_children":[2,4,6,8,10,12,14,16,18,20,22,24,26,28,30,-1,-1,-1,-1,-1,-1,-1,-1,-1,-1,-1,-1,-1,-1,-1,-1],"split_conditions":[4.9564834E0,5.7125306E0,5.662033E0,5.662033E0,4.7203217E0,4.9564834E0,4.7203217E0,8.7E1,8.892988E0,2.3257809E0,2.8E1,1E0,2.9557624E0,6.3E1,6.3E1,-1.085965E-1,-2.3663494E-1,-4.4848476E-2,1.5440062E-1,-1.5292142E-1,-3.3929355E-2,-1.4669142E-2,4.2258468E-2,-2.4750048E-2,-7.577272E-2,-2.411838E-2,4.316214E-2,6.557206E-4,7.270848E-2,7.2346844E-2,1.5270591E-1],"split_indices":[2,1,1,0,0,0,0,9,0,2,7,24,1,9,9,0,0,0,0,0,0,0,0,0,0,0,0,0,0,0,0],"split_type":[0,0,0,0,0,0,0,0,0,0,0,0,0,0,0,0,0,0,0,0,0,0,0,0,0,0,0,0,0,0,0],"sum_hessian":[1.2690258E6,5.162172E5,7.528086E5,2.755989E5,2.406183E5,3.889287E5,3.638799E5,1.404893E5,1.351096E5,8.82691E4,1.523492E5,1.564296E5,2.324991E5,1.397994E5,2.240805E5,1.344203E5,6.069E3,1.32312E5,2.7976E3,9.1223E3,7.91468E4,5.59737E4,9.63755E4,9.74586E4,5.8971E4,6.32647E4,1.692344E5,9.93428E4,4.04566E4,1.61027E5,6.30535E4],"tree_param":{"num_deleted":"0","num_feature":"29","num_nodes":"31","size_leaf_vector":"1"}},{"base_weights":[3.2476585E-3,-1.15915E0,1.1538589E0,-2.7887104E0,-3.1513855E-1,1.1726556E-1,2.2658026E0,-3.9384933E0,-1.7875121E0,-1.708912E0,2.1345198E-1,1.7891501E-3,5.404994E0,1.640762E0,3.6379778E0,-2.9998036E-2,-1.3054699E-1,-6.2635206E-2,4.2844385E-2,-1.6315758E-2,-1.2304159E-1,8.5506926E-4,1.0242377E-1,-1.6760187E-2,3.689716E-2,1.5732238E-1,1.5739836E0,2.9622417E-2,9.198131E-2,1.565218E-1,7.397674E-2],"categories":[],"categories_nodes":[],"categories_segments":[],"categories_sizes":[],"default_left":[0,0,0,0,0,0,0,0,0,0,0,0,0,0,0,0,0,0,0,0,0,0,0,0,0,0,0,0,0,0,0],"id":12,"left_children":[1,3,5,7,9,11,13,15,17,19,21,23,25,27,29,-1,-1,-1,-1,-1,-1,-1,-1,-1,-1,-1,-1,-1,-1,-1,-1],"loss_changes":[1.6985316E6,8.68875E5,7.3562644E5,2.4811488E5,3.0662425E5,2.0168031E5,2.64066E5,1.21767E5,1.1129322E5,3.189745E5,1.7862275E5,2.2249784E5,5.2573344E4,1.9699075E5,1.7833888E5,0E0,0E0,0E0,0E0,0E0,0E0,0E0,0E0,0E0,0E0,0E0,0E0,0E0,0E0,0E0,0E0],"parents":[2147483647,0,0,1,1,2,2,3,3,4,4,5,5,6,6,7,7,8,8,9,9,10,10,11,11,12,12,13,13,14,14],"right_children":[2,4,6,8,10,12,14,16,18,20,22,24,26,28,30,-1,-1,-1,-1,-1,-1,-1,-1,-1,-1,-1,-1,-1,-1,-1,-1],"split_conditions":[5.5613503E0,4.51879E0,5.662033E0,1E0,2.9557624E0,8.892988E0,6.3E1,1E0,2.2E1,2E0,8.2E1,6.4E1,3E0,6.4E1,6.111052E0,-2.9998036E-2,-1.3054699E-1,-6.2635206E-2,4.2844385E-2,-1.6315758E-2,-1.2304159E-1,8.5506926E-4,1.0242377E-1,-1.6760187E-2,3.689716E-2,1.5732238E-1,1.5739836E0,2.9622417E-2,9.198131E-2,1.565218E-1,7.397674E-2],"split_indices":[2,1,1,25,2,2,9,16,10,15,8,9,25,8,2,0,0,0,0,0,0,0,0,0,0,0,0,0,0,0,0],"split_type":[0,0,0,0,0,0,0,0,0,0,0,0,0,0,0,0,0,0,0,0,0,0,0,0,0,0,0,0,0,0,0],"sum_hessian":[1.2699548E6,6.317413E5,6.382135E5,2.155547E5,4.161866E5,3.303002E5,3.079133E5,1.003278E5,1.152269E5,1.144371E5,3.017495E5,3.232442E5,7.056E3,2.11555E5,9.63583E4,1.23665E4,8.79613E4,1.053857E5,9.8412E3,7.69629E4,3.74742E4,2.852687E5,1.64808E4,2.219542E5,1.0129E5,7.0353E3,2.07E1,1.450637E5,6.64913E4,4.1042E4,5.53163E4],"tree_param":{"num_deleted":"0","num_feature":"29","num_nodes":"31","size_leaf_vector":"1"}},{"base_weights":[4.3688674E-2,-1.7041948E0,7.89992E-1,-3.1758757E0,-9.4797313E-1,-2.6931083E-1,1.9151306E0,-2.1563118E0,-4.5605397E0,-7.5292337E-1,-4.0241637E0,-1.3418922E0,2.9259557E-1,1.2527981E0,3.5598006E0,2.4688452E-1,-7.045488E-2,-1.4803205E-1,-3.756655E-2,-4.4872962E-2,6.4021223E-3,-1.9498445E-1,-8.398679E-2,5.938543E-2,-4.7780603E-2,1.7646318E-2,-6.5238304E-2,5.211222E-2,-8.239385E-3,9.502716E-2,1.8559672E-1],"categories":[],"categories_nodes":[],"categories_segments":[],"categories_sizes":[],"default_left":[0,0,0,0,0,0,0,0,0,0,0,0,0,0,0,0,0,0,0,0,0,0,0,0,0,0,0,0,0,0,0],"id":13,"left_children":[1,3,5,7,9,11,13,15,17,19,21,23,25,27,29,-1,-1,-1,-1,-1,-1,-1,-1,-1,-1,-1,-1,-1,-1,-1,-1],"loss_changes":[1.6561245E6,4.2276662E5,1.0604165E6,1.8199962E5,1.5055514E5,2.7619412E5,4.6996738E5,1.4829034E5,6.7604E4,1.6939934E5,4.5289312E4,1.3124181E5,2.1933319E5,2.2752619E5,1.27549125E5,0E0,0E0,0E0,0E0,0E0,0E0,0E0,0E0,0E0,0E0,0E0,0E0,0E0,0E0,0E0,0E0],"parents":[2147483647,0,0,1,1,2,2,3,3,4,4,5,5,6,6,7,7,8,8,9,9,10,10,11,11,12,12,13,13,14,14],"right_children":[2,4,6,8,10,12,14,16,18,20,22,24,26,28,30,-1,-1,-1,-1,-1,-1,-1,-1,-1,-1,-1,-1,-1,-1,-1,-1],"split_conditions":[4.2804317E0,4.51879E0,5.662033E0,1E0,8.6E1,5.7125306E0,6.3E1,1.2480112E0,4.2804317E0,7E1,7E0,6E0,8.1E1,4.4E1,2.4E1,2.4688452E-1,-7.045488E-2,-1.4803205E-1,-3.756655E-2,-4.4872962E-2,6.4021223E-3,-1.9498445E-1,-8.398679E-2,5.938543E-2,-4.7780603E-2,1.7646318E-2,-6.5238304E-2,5.211222E-2,-8.239385E-3,9.502716E-2,1.8559672E-1],"split_indices":[2,1,1,24,9,2,9,1,1,9,10,7,8,9,11,0,0,0,0,0,0,0,0,0,0,0,0,0,0,0,0],"split_type":[0,0,0,0,0,0,0,0,0,0,0,0,0,0,0,0,0,0,0,0,0,0,0,0,0,0,0,0,0,0,0],"sum_hessian":[1.2695894E6,3.798813E5,8.897081E5,1.289402E5,2.509411E5,4.58262E5,4.314461E5,7.42652E4,5.4675E4,2.359824E5,1.49587E4,1.575411E5,3.007209E5,3.075836E5,1.238625E5,1.3469E3,7.29183E4,4.91221E4,5.5529E3,1.33419E5,1.025634E5,4.9465E3,1.00122E4,1.10588E4,1.464823E5,2.685469E5,3.2174E4,2.3354E5,7.40436E4,1.077763E5,1.60862E4],"tree_param":{"num_deleted":"0","num_feature":"29","num_nodes":"31","size_leaf_vector":"1"}},{"base_weights":[-4.3832567E-2,-1.5369412E0,8.319806E-1,-2.64312E0,-2.6511028E-1,-5.302842E-1,1.6557549E0,-4.193189E0,-1.5869787E0,-1.5514957E0,4.5829356E-1,-1.8262222E0,2.1527423E-1,3.406499E-1,2.5911489E0,-1.614898E-1,-9.5833234E-2,-2.950145E-2,-7.819864E-2,-3.235848E-2,-1.5705983E-1,-2.0444151E-2,3.4189712E-2,-6.2771715E-2,1.0133915E-1,1.8541856E-2,-6.498403E-2,6.773017E-3,2.0882396E-1,6.2286455E-2,1.1733129E-1],"categories":[],"categories_nodes":[],"categories_segments":[],"categories_sizes":[],"default_left":[0,0,0,0,0,0,0,0,0,0,0,0,0,0,0,0,0,0,0,0,0,0,0,0,0,0,0,0,0,0,0],"id":14,"left_children":[1,3,5,7,9,11,13,15,17,19,21,23,25,27,29,-1,-1,-1,-1,-1,-1,-1,-1,-1,-1,-1,-1,-1,-1,-1,-1],"loss_changes":[1.659837E6,6.601989E5,8.9778925E5,4.108505E5,2.0314278E5,2.912902E5,6.132799E5,1.20797125E5,9.186209E4,1.3685358E5,1.0851116E5,1.5253125E5,1.8357444E5,1.575872E5,1.979755E5,0E0,0E0,0E0,0E0,0E0,0E0,0E0,0E0,0E0,0E0,0E0,0E0,0E0,0E0,0E0,0E0],"parents":[2147483647,0,0,1,1,2,2,3,3,4,4,5,5,6,6,7,7,8,8,9,9,10,10,11,11,12,12,13,13,14,14],"right_children":[2,4,6,8,10,12,14,16,18,20,22,24,26,28,30,-1,-1,-1,-1,-1,-1,-1,-1,-1,-1,-1,-1,-1,-1,-1,-1],"split_conditions":[4.7203217E0,5.7125306E0,4.7203217E0,4.9564834E0,4.6774516E0,4.7203217E0,4.9564834E0,1E0,1E0,1.8E1,2.8E1,2E0,7.9E1,8.892988E0,6.4E1,-1.614898E-1,-9.5833234E-2,-2.950145E-2,-7.819864E-2,-3.235848E-2,-1.5705983E-1,-2.0444151E-2,3.4189712E-2,-6.2771715E-2,1.0133915E-1,1.8541856E-2,-6.498403E-2,6.773017E-3,2.0882396E-1,6.2286455E-2,1.1733129E-1],"split_indices":[2,1,0,0,0,1,1,25,24,12,7,25,7,2,8,0,0,0,0,0,0,0,0,0,0,0,0,0,0,0,0],"split_type":[0,0,0,0,0,0,0,0,0,0,0,0,0,0,0,0,0,0,0,0,0,0,0,0,0,0,0,0,0,0,0],"sum_hessian":[1.2692884E6,4.692677E5,8.000207E5,2.509763E5,2.182914E5,3.014751E5,4.985456E5,1.017017E5,1.492746E5,7.85711E4,1.397203E5,1.100982E5,1.913769E5,2.072169E5,2.913287E5,4.64052E4,5.52965E4,9.37716E4,5.5503E4,6.96363E4,8.9348E3,5.22749E4,8.74454E4,1.047431E5,5.3551E3,1.636928E5,2.76841E4,2.036855E5,3.5314E3,2.095751E5,8.17536E4],"tree_param":{"num_deleted":"0","num_feature":"29","num_nodes":"31","size_leaf_vector":"1"}},{"base_weights":[-2.6001936E-2,-1.0203294E0,1.1539612E0,-2.0895965E0,1.878578E-1,2.1108042E-1,2.2684631E0,-3.8951135E0,-1.1068135E0,-7.860886E-1,1.2117578E0,-8.416988E-1,1.2215099E0,5.2931887E-1,2.9943373E0,-1.4644274E-1,-8.96191E-2,-7.960684E-2,-1.790235E-2,-2.810052E-2,1.6679986E-1,3.2896392E-2,1.9280191E-1,3.766124E-2,-4.010381E-2,1.783566E-2,7.954267E-2,3.3990495E-2,-6.6851154E-2,1.4368509E-1,7.835185E-2],"categories":[],"categories_nodes":[],"categories_segments":[],"categories_sizes":[],"default_left":[0,0,0,0,0,0,0,0,0,0,0,0,0,0,0,0,0,0,0,0,0,0,0,0,0,0,0,0,0,0,0],"id":15,"left_children":[1,3,5,7,9,11,13,15,17,19,21,23,25,27,29,-1,-1,-1,-1,-1,-1,-1,-1,-1,-1,-1,-1,-1,-1,-1,-1],"loss_changes":[1.4897622E6,8.902095E5,6.101906E5,6.4863875E5,3.226317E5,3.3461816E5,3.3593675E5,1.15314375E5,1.8674784E5,1.5847353E5,9.473342E4,1.5994995E5,1.4389478E5,1.30473234E5,1.28912E5,0E0,0E0,0E0,0E0,0E0,0E0,0E0,0E0,0E0,0E0,0E0,0E0,0E0,0E0,0E0,0E0],"parents":[2147483647,0,0,1,1,2,2,3,3,4,4,5,5,6,6,7,7,8,8,9,9,10,10,11,11,12,12,13,13,14,14],"right_children":[2,4,6,8,10,12,14,16,18,20,22,24,26,28,30,-1,-1,-1,-1,-1,-1,-1,-1,-1,-1,-1,-1,-1,-1,-1,-1],"split_conditions":[5.7125306E0,5.7125306E0,5.7125306E0,4.673775E0,5.662033E0,5.5613503E0,4.210249E0,1E0,2.9557624E0,8.892988E0,8.892988E0,5.875421E0,6.3E1,7.9E1,5.875421E0,-1.4644274E-1,-8.96191E-2,-7.960684E-2,-1.790235E-2,-2.810052E-2,1.6679986E-1,3.2896392E-2,1.9280191E-1,3.766124E-2,-4.010381E-2,1.783566E-2,7.954267E-2,3.3990495E-2,-6.6851154E-2,1.4368509E-1,7.835185E-2],"split_indices":[2,0,0,1,1,1,1,25,2,0,1,2,9,8,2,0,0,0,0,0,0,0,0,0,0,0,0,0,0,0,0],"split_type":[0,0,0,0,0,0,0,0,0,0,0,0,0,0,0,0,0,0,0,0,0,0,0,0,0,0,0,0,0,0,0],"sum_hessian":[1.2697469E6,6.890781E5,5.806688E5,3.655545E5,3.235236E5,3.145557E5,2.661131E5,1.288423E5,2.367122E5,1.658063E5,1.577173E5,1.540493E5,1.605064E5,7.83643E4,1.877488E5,6.17444E4,6.70979E4,5.86985E4,1.780137E5,1.619655E5,3.8408E3,1.54312E5,3.4053E3,2.94216E4,1.246277E5,1.11584E5,4.89224E4,6.4292E4,1.40723E4,3.29787E4,1.547701E5],"tree_param":{"num_deleted":"0","num_feature":"29","num_nodes":"31","size_leaf_vector":"1"}},{"base_weights":[-3.9156545E-3,-9.639313E-1,1.1347419E0,-2.4217577E0,-1.0727746E-1,-1.4510287E-1,1.8872364E0,-3.5167985E0,-1.1576806E0,-1.5163323E0,6.2108034E-1,1.9646344E0,-6.4091307E-1,1.4202239E-1,2.609911E0,-1.3741697E-1,-7.89029E-2,4.3213308E-2,-4.718382E-2,-5.7900943E-2,2.1753933E-2,1.4952698E-2,2.2734809E-1,4.8170766E-1,5.3017884E-2,-5.0918147E-2,1.0512195E-2,2.2489768E-2,-7.570198E-2,7.40722E-2,2.1748213E-1],"categories":[],"categories_nodes":[],"categories_segments":[],"categories_sizes":[],"default_left":[0,0,0,0,0,0,0,0,0,0,0,0,0,0,0,0,0,0,0,0,0,0,0,0,0,0,0,0,0,0,0],"id":16,"left_children":[1,3,5,7,9,11,13,15,17,19,21,23,25,27,29,-1,-1,-1,-1,-1,-1,-1,-1,-1,-1,-1,-1,-1,-1,-1,-1],"loss_changes":[1.387224E6,8.5987106E5,5.59076E5,3.527425E5,4.450984E5,2.2483742E5,4.61061E5,1.28757E5,1.2759206E5,1.3704816E5,2.4395719E5,1.13661484E5,1.8225881E5,1.7338906E5,1.6885675E5,0E0,0E0,0E0,0E0,0E0,0E0,0E0,0E0,0E0,0E0,0E0,0E0,0E0,0E0,0E0,0E0],"parents":[2147483647,0,0,1,1,2,2,3,3,4,4,5,5,6,6,7,7,8,8,9,9,10,10,11,11,12,12,13,13,14,14],"right_children":[2,4,6,8,10,12,14,16,18,20,22,24,26,28,30,-1,-1,-1,-1,-1,-1,-1,-1,-1,-1,-1,-1,-1,-1,-1,-1],"split_conditions":[5.7125306E0,4.7203217E0,4.6774516E0,5.7125306E0,4.51879E0,5.875421E0,4.210249E0,1E0,5.773804E0,1E0,8.892988E0,1.2480112E0,5.5613503E0,7.9E1,8.3E1,-1.3741697E-1,-7.89029E-2,4.3213308E-2,-4.718382E-2,-5.7900943E-2,2.1753933E-2,1.4952698E-2,2.2734809E-1,4.8170766E-1,5.3017884E-2,-5.0918147E-2,1.0512195E-2,2.2489768E-2,-7.570198E-2,7.40722E-2,2.1748213E-1],"split_indices":[2,0,0,1,1,2,1,25,1,28,0,0,1,8,9,0,0,0,0,0,0,0,0,0,0,0,0,0,0,0,0],"split_type":[0,0,0,0,0,0,0,0,0,0,0,0,0,0,0,0,0,0,0,0,0,0,0,0,0,0,0,0,0,0,0],"sum_hessian":[1.2690338E6,6.885285E5,5.805052E5,2.548412E5,4.336873E5,2.149384E5,3.655668E5,1.365473E5,1.182939E5,1.477853E5,2.85902E5,4.08986E4,1.740398E5,1.070508E5,2.58516E5,6.20695E4,7.44778E4,1.62952E4,1.019987E5,1.247597E5,2.30256E4,2.809521E5,4.9499E3,5.615E2,4.03371E4,8.42554E4,8.97844E4,8.71791E4,1.98717E4,2.509043E5,7.6117E3],"tree_param":{"num_deleted":"0","num_feature":"29","num_nodes":"31","size_leaf_vector":"1"}},{"base_weights":[-1.0456726E-2,-9.661644E-1,9.963326E-1,-2.4062576E0,-1.2687051E-1,1.405942E-1,1.9227712E0,-1.5570437E0,-3.6952882E0,-6.0506517E-1,1.0252874E0,-2.5292844E-1,1.8291669E0,2.0214612E0,-3.9429846E0,1.8772766E-1,-5.0037224E-2,-1.0547376E-1,-2.3708485E-1,2.792326E-3,-8.276075E-2,1.4867209E-1,1.3749218E-2,-1.2968253E-2,1.3703735E-1,5.028858E-1,5.1306676E-2,5.7235673E-2,2.0654912E-1,-1.0697985E-1,-5.829493E-1],"categories":[],"categories_nodes":[],"categories_segments":[],"categories_sizes":[],"default_left":[0,0,0,0,0,0,0,0,0,0,0,0,0,0,0,0,0,0,0,0,0,0,0,0,0,0,0,0,0,0,0],"id":17,"left_children":[1,3,5,7,9,11,13,15,17,19,21,23,25,27,29,-1,-1,-1,-1,-1,-1,-1,-1,-1,-1,-1,-1,-1,-1,-1,-1],"loss_changes":[1.2215711E6,7.87205E5,4.9014675E5,2.6249625E5,2.2671533E5,2.1356858E5,1.71875E5,1.2528344E5,7.18355E4,4.372337E5,2.689532E5,2.2536378E5,1.0779711E5,1.612635E5,2.8455875E4,0E0,0E0,0E0,0E0,0E0,0E0,0E0,0E0,0E0,0E0,0E0,0E0,0E0,0E0,0E0,0E0],"parents":[2147483647,0,0,1,1,2,2,3,3,4,4,5,5,6,6,7,7,8,8,9,9,10,10,11,11,12,12,13,13,14,14],"right_children":[2,4,6,8,10,12,14,16,18,20,22,24,26,28,30,-1,-1,-1,-1,-1,-1,-1,-1,-1,-1,-1,-1,-1,-1,-1,-1],"split_conditions":[5.662033E0,4.7203217E0,5.662033E0,1E0,6.4E1,2.2E1,8.7E1,1.2480112E0,8.7E1,4.4E1,6.5E1,8.3E1,1.2480112E0,8.892988E0,8.781067E0,1.8772766E-1,-5.0037224E-2,-1.0547376E-1,-2.3708485E-1,2.792326E-3,-8.276075E-2,1.4867209E-1,1.3749218E-2,-1.2968253E-2,1.3703735E-1,5.028858E-1,5.1306676E-2,5.7235673E-2,2.0654912E-1,-1.0697985E-1,-5.829493E-1],"split_indices":[0,1,1,24,8,10,9,1,9,8,8,7,1,1,1,0,0,0,0,0,0,0,0,0,0,0,0,0,0,0,0],"split_type":[0,0,0,0,0,0,0,0,0,0,0,0,0,0,0,0,0,0,0,0,0,0,0,0,0,0,0,0,0,0,0],"sum_hessian":[1.2695596E6,6.51303E5,6.182566E5,2.39814E5,4.11489E5,3.21394E5,2.968626E5,1.445752E5,9.52388E4,2.907978E5,1.206912E5,2.606511E5,6.07429E4,2.919527E5,4.9099E3,2.0199E3,1.425553E5,9.13476E4,3.8912E3,2.196093E5,7.11885E4,1.52121E4,1.054791E5,2.513049E5,9.3462E3,4.766E2,6.02663E4,2.85293E5,6.6597E3,4.7969E3,1.13E2],"tree_param":{"num_deleted":"0","num_feature":"29","num_nodes":"31","size_leaf_vector":"1"}},{"base_weights":[-1.4658529E-2,-1.3410774E0,6.7934096E-1,-2.3569472E0,-2.91331E-1,-5.5247945E-1,1.400682E0,-1.5767163E0,-3.4986706E0,1.1016147E0,-7.3175097E-1,-1.0862094E0,8.0311537E-1,9.670232E-1,2.552178E0,-5.7368435E-2,5.543081E-2,-9.914748E-2,-2.4923065E-1,-1.9001918E-2,5.817076E-2,-4.8553344E-2,1.899807E-3,-1.2207286E-2,-6.991916E-2,1.4663854E-1,5.755089E-3,5.1246863E-2,-3.022139E-2,3.668174E-2,1.0930382E-1],"categories":[],"categories_nodes":[],"categories_segments":[],"categories_sizes":[],"default_left":[0,0,0,0,0,0,0,0,0,0,0,0,0,0,0,0,0,0,0,0,0,0,0,0,0,0,0,0,0,0,0],"id":18,"left_children":[1,3,5,7,9,11,13,15,17,19,21,23,25,27,29,-1,-1,-1,-1,-1,-1,-1,-1,-1,-1,-1,-1,-1,-1,-1,-1],"loss_changes":[1.1689478E6,4.651482E5,7.407711E5,1.974435E5,1.316066E5,2.2276972E5,2.6254094E5,1.5133412E5,8.37515E4,7.487948E4,1.14908266E5,1.867431E5,2.1717923E5,5.5895975E5,2.0866325E5,0E0,0E0,0E0,0E0,0E0,0E0,0E0,0E0,0E0,0E0,0E0,0E0,0E0,0E0,0E0,0E0],"parents":[2147483647,0,0,1,1,2,2,3,3,4,4,5,5,6,6,7,7,8,8,9,9,10,10,11,11,12,12,13,13,14,14],"right_children":[2,4,6,8,10,12,14,16,18,20,22,24,26,28,30,-1,-1,-1,-1,-1,-1,-1,-1,-1,-1,-1,-1,-1,-1,-1,-1],"split_conditions":[4.51879E0,5.662033E0,4.6774516E0,1E0,5.875421E0,6.4E1,6.4E1,2.4E1,8.7E1,5.7280283E0,1E0,1E0,6.5E1,4.4E1,1E0,-5.7368435E-2,5.543081E-2,-9.914748E-2,-2.4923065E-1,-1.9001918E-2,5.817076E-2,-4.8553344E-2,1.899807E-3,-1.2207286E-2,-6.991916E-2,1.4663854E-1,5.755089E-3,5.1246863E-2,-3.022139E-2,3.668174E-2,1.0930382E-1],"split_indices":[1,0,0,24,0,8,8,12,9,0,25,24,8,8,14,0,0,0,0,0,0,0,0,0,0,0,0,0,0,0,0],"split_type":[0,0,0,0,0,0,0,0,0,0,0,0,0,0,0,0,0,0,0,0,0,0,0,0,0,0,0,0,0,0,0],"sum_hessian":[1.2698516E6,4.361846E5,8.33667E5,2.216667E5,2.145179E5,3.078894E5,5.257776E5,1.316843E5,8.99824E4,5.15309E4,1.62987E5,2.209123E5,8.69771E4,3.819426E5,1.43835E5,1.199334E5,1.17509E4,8.65025E4,3.4799E3,1.67749E4,3.4756E4,7.70532E4,8.59338E4,1.429077E5,7.80046E4,1.13186E4,7.56585E4,2.776948E5,1.042478E5,6.4845E4,7.899E4],"tree_param":{"num_deleted":"0","num_feature":"29","num_nodes":"31","size_leaf_vector":"1"}},{"base_weights":[3.6118027E-2,-9.4729E-1,1.2016875E0,-2.2720518E0,-1.6733247E-1,3.7793863E-1,2.1770744E0,-3.2359462E0,-1.1537035E0,-1.4567608E0,4.993318E-1,-4.970255E-1,1.2876014E0,1.0171616E0,2.8873703E0,-1.2659277E-1,-7.254677E-2,-1.4514874E-1,-2.5419325E-2,-6.108263E-2,-6.532317E-3,1.1763522E-2,1.9646268E-1,-3.2266796E-2,2.6638616E-2,2.8947555E-2,1.2318441E-1,2.8948227E-1,2.7169999E-2,6.742953E-2,1.3218439E-1],"categories":[],"categories_nodes":[],"categories_segments":[],"categories_sizes":[],"default_left":[0,0,0,0,0,0,0,0,0,0,0,0,0,0,0,0,0,0,0,0,0,0,0,0,0,0,0,0,0,0,0],"id":19,"left_children":[1,3,5,7,9,11,13,15,17,19,21,23,25,27,29,-1,-1,-1,-1,-1,-1,-1,-1,-1,-1,-1,-1,-1,-1,-1,-1],"loss_changes":[1.4558144E6,7.1178144E5,4.669853E5,2.751675E5,3.7273088E5,2.5080162E5,2.1923238E5,1.10262E5,1.333955E5,1.06070625E5,1.8536622E5,1.28698984E5,1.404916E5,9.7241375E4,1.6031712E5,0E0,0E0,0E0,0E0,0E0,0E0,0E0,0E0,0E0,0E0,0E0,0E0,0E0,0E0,0E0,0E0],"parents":[2147483647,0,0,1,1,2,2,3,3,4,4,5,5,6,6,7,7,8,8,9,9,10,10,11,11,12,12,13,13,14,14],"right_children":[2,4,6,8,10,12,14,16,18,20,22,24,26,28,30,-1,-1,-1,-1,-1,-1,-1,-1,-1,-1,-1,-1,-1,-1,-1,-1],"split_conditions":[5.7125306E0,4.7203217E0,5.7125306E0,5.7125306E0,4.51879E0,5.662033E0,4.6774516E0,1E0,2.3257809E0,6.3E1,8.892988E0,6.4E1,8.26223E0,1.2480112E0,6.3E1,-1.2659277E-1,-7.254677E-2,-1.4514874E-1,-2.5419325E-2,-6.108263E-2,-6.532317E-3,1.1763522E-2,1.9646268E-1,-3.2266796E-2,2.6638616E-2,2.8947555E-2,1.2318441E-1,2.8948227E-1,2.7169999E-2,6.742953E-2,1.3218439E-1],"split_indices":[2,0,1,1,1,0,0,25,2,7,0,9,2,0,9,0,0,0,0,0,0,0,0,0,0,0,0,0,0,0,0],"split_type":[0,0,0,0,0,0,0,0,0,0,0,0,0,0,0,0,0,0,0,0,0,0,0,0,0,0,0,0,0,0,0],"sum_hessian":[1.2700826E6,6.888714E5,5.812112E5,2.552763E5,4.335951E5,3.151018E5,2.661094E5,1.371024E5,1.181739E5,1.477747E5,2.858204E5,1.606143E5,1.544875E5,1.010703E5,1.650391E5,6.22249E4,7.48775E4,9.0687E3,1.091052E5,1.006916E5,4.70831E4,2.808463E5,4.9741E3,1.132915E5,4.73228E4,1.386217E5,1.58658E4,1.2854E3,9.97849E4,1.161317E5,4.89074E4],"tree_param":{"num_deleted":"0","num_feature":"29","num_nodes":"31","size_leaf_vector":"1"}},{"base_weights":[3.556566E-2,-1.3073845E0,7.9417217E-1,-2.2128618E0,-2.687917E-1,-6.1867654E-2,1.7942688E0,-3.275313E0,-1.1103857E0,2.0205746E0,-6.192522E-1,-1.0514721E0,8.820478E-1,4.4033152E-1,2.3527997E0,-1.2769967E-1,-7.282795E-2,-1.2989997E-2,-6.9314055E-2,-5.960911E-2,1.1886518E-1,-5.4641854E-2,1.1539845E-3,-4.8759207E-2,1.2817044E-2,8.208923E-3,6.4923994E-2,2.710764E-2,-4.774184E-2,5.3531688E-2,1.1634757E-1],"categories":[],"categories_nodes":[],"categories_segments":[],"categories_sizes":[],"default_left":[0,0,0,0,0,0,0,0,0,0,0,0,0,0,0,0,0,0,0,0,0,0,0,0,0,0,0,0,0,0,0],"id":20,"left_children":[1,3,5,7,9,11,13,15,17,19,21,23,25,27,29,-1,-1,-1,-1,-1,-1,-1,-1,-1,-1,-1,-1,-1,-1,-1,-1],"loss_changes":[1.294632E6,4.3138356E5,6.952265E5,2.87033E5,1.7142692E5,4.0871575E5,2.8321125E5,1.0377875E5,9.776475E4,2.2073716E5,1.4650988E5,1.8125447E5,1.7468136E5,1.0295453E5,2.2987238E5,0E0,0E0,0E0,0E0,0E0,0E0,0E0,0E0,0E0,0E0,0E0,0E0,0E0,0E0,0E0,0E0],"parents":[2147483647,0,0,1,1,2,2,3,3,4,4,5,5,6,6,7,7,8,8,9,9,10,10,11,11,12,12,13,13,14,14],"right_children":[2,4,6,8,10,12,14,16,18,20,22,24,26,28,30,-1,-1,-1,-1,-1,-1,-1,-1,-1,-1,-1,-1,-1,-1,-1,-1],"split_conditions":[4.6774516E0,5.7125306E0,5.7125306E0,5.662033E0,5.773804E0,5.5613503E0,4.210249E0,1E0,1E0,7E0,4.6774516E0,6.4E1,6.4E1,7.9E1,6.4E1,-1.2769967E-1,-7.282795E-2,-1.2989997E-2,-6.9314055E-2,-5.960911E-2,1.1886518E-1,-5.4641854E-2,1.1539845E-3,-4.8759207E-2,1.2817044E-2,8.208923E-3,6.4923994E-2,2.710764E-2,-4.774184E-2,5.3531688E-2,1.1634757E-1],"split_indices":[2,1,0,0,1,1,1,25,24,11,0,9,8,8,9,0,0,0,0,0,0,0,0,0,0,0,0,0,0,0,0],"split_type":[0,0,0,0,0,0,0,0,0,0,0,0,0,0,0,0,0,0,0,0,0,0,0,0,0,0,0,0,0,0,0],"sum_hessian":[1.2707731E6,4.587143E5,8.120588E5,2.450595E5,2.136548E5,4.375428E5,3.74516E5,1.247916E5,1.202679E5,2.83623E4,1.852925E5,2.136022E5,2.239406E5,1.093784E5,2.651376E5,5.78311E4,6.69605E4,7.68787E4,4.33892E4,9.2563E3,1.9106E4,6.55252E4,1.197673E5,1.538851E5,5.97171E4,1.518732E5,7.20674E4,8.90713E4,2.03071E4,1.931673E5,7.19703E4],"tree_param":{"num_deleted":"0","num_feature":"29","num_nodes":"31","size_leaf_vector":"1"}},{"base_weights":[-4.5952024E-3,-1.1267257E0,6.648628E-1,-5.7875055E-1,-2.1062126E0,1.1601685E0,-4.1131738E-1,5.3878565E0,-6.6981035E-1,-1.940865E0,-5.532141E0,1.0701543E0,5.6836343E0,-1.4714432E0,2.1816874E-1,1.8657301E-1,-1.8375833E-1,-2.7438171E-2,4.2847805E-2,-8.631665E-2,-3.897977E-2,-1.4874625E-1,-4.8571357E-1,1.9204129E-2,5.9316855E-2,2.4257958E-1,1.1930477E-1,-3.76944E-2,-1.5753801E-1,1.3993769E-2,-1.1978193E-1],"categories":[],"categories_nodes":[],"categories_segments":[],"categories_sizes":[],"default_left":[0,0,0,0,0,0,0,0,0,0,0,0,0,0,0,0,0,0,0,0,0,0,0,0,0,0,0,0,0,0,0],"id":21,"left_children":[1,3,5,7,9,11,13,15,17,19,21,23,25,27,29,-1,-1,-1,-1,-1,-1,-1,-1,-1,-1,-1,-1,-1,-1,-1,-1],"loss_changes":[9.538011E5,2.5463919E5,4.2389303E5,1.6530338E5,9.6373875E4,2.2172012E5,1.6726714E5,4.388378E4,1.5391136E5,9.752169E4,4.766222E4,2.0827256E5,4.345653E4,7.584905E4,1.6442861E5,0E0,0E0,0E0,0E0,0E0,0E0,0E0,0E0,0E0,0E0,0E0,0E0,0E0,0E0,0E0,0E0],"parents":[2147483647,0,0,1,1,2,2,3,3,4,4,5,5,6,6,7,7,8,8,9,9,10,10,11,11,12,12,13,13,14,14],"right_children":[2,4,6,8,10,12,14,16,18,20,22,24,26,28,30,-1,-1,-1,-1,-1,-1,-1,-1,-1,-1,-1,-1,-1,-1,-1,-1],"split_conditions":[4.7203217E0,1E0,1E0,1.2480112E0,8.7E1,8.892988E0,2E0,1E0,2.3E1,2.9557624E0,8.2E1,6.4E1,9.726297E0,8.7E1,8.7E1,1.8657301E-1,-1.8375833E-1,-2.7438171E-2,4.2847805E-2,-8.631665E-2,-3.897977E-2,-1.4874625E-1,-4.8571357E-1,1.9204129E-2,5.9316855E-2,2.4257958E-1,1.1930477E-1,-3.76944E-2,-1.5753801E-1,1.3993769E-2,-1.1978193E-1],"split_indices":[0,24,24,0,9,0,20,27,11,0,8,7,0,9,8,0,0,0,0,0,0,0,0,0,0,0,0,0,0,0,0],"split_type":[0,0,0,0,0,0,0,0,0,0,0,0,0,0,0,0,0,0,0,0,0,0,0,0,0,0,0,0,0,0,0],"sum_hessian":[1.2696642E6,4.744318E5,7.952324E5,3.042337E5,1.701981E5,5.445891E5,2.506433E5,4.5705E3,2.996632E5,1.623667E5,7.8314E3,5.339674E5,1.06217E4,9.33794E4,1.572639E5,4.2641E3,3.064E2,2.683547E5,3.13085E4,6.601E4,9.63567E4,7.4355E3,3.959E2,3.622444E5,1.71723E5,4.407E3,6.2147E3,8.83586E4,5.0208E3,1.485101E5,8.7538E3],"tree_param":{"num_deleted":"0","num_feature":"29","num_nodes":"31","size_leaf_vector":"1"}},{"base_weights":[1.8787777E-2,-1.502367E0,6.676458E-1,-2.3545687E0,-5.395638E-1,-4.1329703E-1,1.3185366E0,6.1491375E0,-2.432179E0,-1.835782E-1,-2.1235766E0,-9.119243E-1,7.8751934E-1,8.2898045E-1,2.5785701E0,2.4656788E-1,-3.3763242E-1,-1.3070372E-1,-6.454391E-2,-3.126943E-2,4.1487288E-2,-5.453926E-2,-2.2012933E-1,-1.6150577E-2,-9.0579145E-2,1.07603624E-1,1.1591748E-2,1.6619934E-2,1.05500944E-1,1.7073481E-1,6.812853E-2],"categories":[],"categories_nodes":[],"categories_segments":[],"categories_sizes":[],"default_left":[0,0,0,0,0,0,0,0,0,0,0,0,0,0,0,0,0,0,0,0,0,0,0,0,0,0,0,0,0,0,0],"id":22,"left_children":[1,3,5,7,9,11,13,15,17,19,21,23,25,27,29,-1,-1,-1,-1,-1,-1,-1,-1,-1,-1,-1,-1,-1,-1,-1,-1],"loss_changes":[1.2539289E6,3.1167888E5,6.265764E5,1.33032E5,1.00574625E5,2.0041175E5,3.428713E5,6.59493E4,1.07850625E5,1.9591905E5,5.2102062E4,1.8618136E5,1.1026419E5,2.9585888E5,1.4887381E5,0E0,0E0,0E0,0E0,0E0,0E0,0E0,0E0,0E0,0E0,0E0,0E0,0E0,0E0,0E0,0E0],"parents":[2147483647,0,0,1,1,2,2,3,3,4,4,5,5,6,6,7,7,8,8,9,9,10,10,11,11,12,12,13,13,14,14],"right_children":[2,4,6,8,10,12,14,16,18,20,22,24,26,28,30,-1,-1,-1,-1,-1,-1,-1,-1,-1,-1,-1,-1,-1,-1,-1,-1],"split_conditions":[4.2804317E0,5.7125306E0,4.7203217E0,1.2480112E0,7.9E1,6.3E1,6.4E1,3.983628E0,2.3257809E0,7E1,3E0,7.9E1,6.5E1,8.26223E0,6.5E1,2.4656788E-1,-3.3763242E-1,-1.3070372E-1,-6.454391E-2,-3.126943E-2,4.1487288E-2,-5.453926E-2,-2.2012933E-1,-1.6150577E-2,-9.0579145E-2,1.07603624E-1,1.1591748E-2,1.6619934E-2,1.05500944E-1,1.7073481E-1,6.812853E-2],"split_indices":[2,0,0,0,9,9,9,2,2,9,20,7,9,2,9,0,0,0,0,0,0,0,0,0,0,0,0,0,0,0,0],"split_type":[0,0,0,0,0,0,0,0,0,0,0,0,0,0,0,0,0,0,0,0,0,0,0,0,0,0,0,0,0,0,0],"sum_hessian":[1.270422E6,3.798687E5,8.905533E5,2.015056E5,1.783631E5,3.347046E5,5.558487E5,1.8202E3,1.996854E5,1.456371E5,3.2726E4,2.365013E5,9.82033E4,4.003197E5,1.55529E5,1.6282E3,1.92E2,2.54119E4,1.742735E5,9.40702E4,5.15669E4,3.09181E4,1.8079E3,2.008935E5,3.56078E4,1.23052E4,8.58981E4,3.631677E5,3.7152E4,1.39835E4,1.415455E5],"tree_param":{"num_deleted":"0","num_feature":"29","num_nodes":"31","size_leaf_vector":"1"}},{"base_weights":[1.978958E-2,-7.859005E-1,9.4883645E-1,-1.9814226E-1,-1.8346767E0,1.3632601E0,-2.3217509E-2,5.796396E0,-2.6234186E-1,-3.1021042E0,-1.3407321E0,2.6123376E0,1.0155855E0,-5.132271E-1,1.7135493E0,1.0963584E-1,2.8145507E-1,-1.3230503E-2,4.9753055E-2,1.3128813E-1,-9.972229E-2,-7.762855E-2,-1.9022038E-2,2.9814161E-2,9.955647E-2,2.6164202E-2,1.5758096E-1,-3.8009237E-2,2.2432756E-2,3.3453554E-2,1.1719718E-1],"categories":[],"categories_nodes":[],"categories_segments":[],"categories_sizes":[],"default_left":[0,0,0,0,0,0,0,0,0,0,0,0,0,0,0,0,0,0,0,0,0,0,0,0,0,0,0,0,0,0,0],"id":23,"left_children":[1,3,5,7,9,11,13,15,17,19,21,23,25,27,29,-1,-1,-1,-1,-1,-1,-1,-1,-1,-1,-1,-1,-1,-1,-1,-1],"loss_changes":[9.506955E5,4.1929312E5,2.3763369E5,1.6775931E5,1.5292006E5,1.795905E5,1.5005761E5,3.535589E4,1.4802022E5,1.13759875E5,1.5488694E5,1.029125E5,1.9661694E5,1.3071595E5,5.0902758E4,0E0,0E0,0E0,0E0,0E0,0E0,0E0,0E0,0E0,0E0,0E0,0E0,0E0,0E0,0E0,0E0],"parents":[2147483647,0,0,1,1,2,2,3,3,4,4,5,5,6,6,7,7,8,8,9,9,10,10,11,11,12,12,13,13,14,14],"right_children":[2,4,6,8,10,12,14,16,18,20,22,24,26,28,30,-1,-1,-1,-1,-1,-1,-1,-1,-1,-1,-1,-1,-1,-1,-1,-1],"split_conditions":[5.7125306E0,1E0,1E0,1.2480112E0,2.9557624E0,5.875421E0,2.2E1,2E0,2.4E1,3E0,2E0,1E0,8.892988E0,1E0,1E0,1.0963584E-1,2.8145507E-1,-1.3230503E-2,4.9753055E-2,1.3128813E-1,-9.972229E-2,-7.762855E-2,-1.9022038E-2,2.9814161E-2,9.955647E-2,2.6164202E-2,1.5758096E-1,-3.8009237E-2,2.2432756E-2,3.3453554E-2,1.1719718E-1],"split_indices":[0,24,24,0,0,0,10,14,12,9,20,16,0,25,25,0,0,0,0,0,0,0,0,0,0,0,0,0,0,0,0],"split_type":[0,0,0,0,0,0,0,0,0,0,0,0,0,0,0,0,0,0,0,0,0,0,0,0,0,0,0,0,0,0,0],"sum_hessian":[1.2700876E6,6.802013E5,5.898863E5,4.359112E5,2.442901E5,4.135668E5,1.763195E5,4.616E3,4.312952E5,6.85017E4,1.757884E5,9.00446E4,3.235222E5,1.375219E5,3.87976E4,2.8937E3,1.7223E3,3.945922E5,3.6703E4,1.9729E3,6.65288E4,6.35851E4,1.122033E5,2.73564E4,6.26882E4,3.129319E5,1.05903E4,8.6073E4,5.14489E4,3.04841E4,8.3135E3],"tree_param":{"num_deleted":"0","num_feature":"29","num_nodes":"31","size_leaf_vector":"1"}},{"base_weights":[-2.385759E-3,-1.409245E0,5.970804E-1,-2.2963362E0,-4.876862E-1,-2.4877271E-1,1.588735E0,-3.6579323E0,-1.5556394E0,-1.2542756E0,3.1509897E-1,-1.343988E0,4.9123323E-1,9.359582E-1,3.214047E0,-1.5172109E-1,-8.641728E-2,-3.6757916E-2,-1.0588077E-1,-4.2345915E-2,1.9566894E-1,2.2150204E-2,-4.9358565E-2,-4.3018207E-2,1.432103E-1,-2.66713E-2,2.9247811E-2,2.394401E-2,1.6343835E-1,6.069394E-2,1.1908327E-1],"categories":[],"categories_nodes":[],"categories_segments":[],"categories_sizes":[],"default_left":[0,0,0,0,0,0,0,0,0,0,0,0,0,0,0,0,0,0,0,0,0,0,0,0,0,0,0,0,0,0,0],"id":24,"left_children":[1,3,5,7,9,11,13,15,17,19,21,23,25,27,29,-1,-1,-1,-1,-1,-1,-1,-1,-1,-1,-1,-1,-1,-1,-1,-1],"loss_changes":[1.0716462E6,3.1037175E5,7.473804E5,1.9507625E5,1.1460241E5,3.8972278E5,4.3515088E5,7.409119E4,8.168441E4,1.16514016E5,7.547672E4,1.0671753E5,1.9159064E5,1.8195881E5,1.05699125E5,0E0,0E0,0E0,0E0,0E0,0E0,0E0,0E0,0E0,0E0,0E0,0E0,0E0,0E0,0E0,0E0],"parents":[2147483647,0,0,1,1,2,2,3,3,4,4,5,5,6,6,7,7,8,8,9,9,10,10,11,11,12,12,13,13,14,14],"right_children":[2,4,6,8,10,12,14,16,18,20,22,24,26,28,30,-1,-1,-1,-1,-1,-1,-1,-1,-1,-1,-1,-1,-1,-1,-1,-1],"split_conditions":[4.2804317E0,5.662033E0,5.7125306E0,4.673775E0,5.662033E0,4.9564834E0,6.3E1,5.2E1,1.8E1,8.892988E0,7.9E1,8.892988E0,2.9557624E0,8.3E1,4.7203217E0,-1.5172109E-1,-8.641728E-2,-3.6757916E-2,-1.0588077E-1,-4.2345915E-2,1.9566894E-1,2.2150204E-2,-4.9358565E-2,-4.3018207E-2,1.432103E-1,-2.66713E-2,2.9247811E-2,2.394401E-2,1.6343835E-1,6.069394E-2,1.1908327E-1],"split_indices":[2,0,1,1,1,0,9,9,12,0,9,2,1,8,0,0,0,0,0,0,0,0,0,0,0,0,0,0,0,0,0],"split_type":[0,0,0,0,0,0,0,0,0,0,0,0,0,0,0,0,0,0,0,0,0,0,0,0,0,0,0,0,0,0,0],"sum_hessian":[1.2706728E6,3.796612E5,8.910116E5,1.934454E5,1.862158E5,4.808562E5,4.101554E5,6.81516E4,1.252938E5,9.52551E4,9.09607E4,1.938925E5,2.869637E5,2.926309E5,1.175245E5,2.43313E4,4.38203E4,1.07333E5,1.79608E4,9.33696E4,1.8855E3,7.48115E4,1.61492E4,1.910853E5,2.8072E3,7.44649E4,2.124988E5,2.839607E5,8.6702E3,4.5618E4,7.19065E4],"tree_param":{"num_deleted":"0","num_feature":"29","num_nodes":"31","size_leaf_vector":"1"}},{"base_weights":[3.083375E-2,-7.6684076E-1,9.601261E-1,-1.9641093E0,-1.5448263E-1,4.495569E-1,2.119715E0,-2.703176E0,-1.2823234E0,3.767192E-1,-1.1929246E0,1.1503524E0,-1.6560771E0,4.455282E0,1.3292683E0,-9.401671E-2,-1.7763786E-2,-5.142429E-2,-7.871562E-3,4.3697607E-2,-1.4830905E-3,-9.047714E-2,-1.4346155E-2,-6.095995E-4,5.4743305E-2,-3.2139845E-2,-9.804866E-2,1.7406945E-1,8.335421E-2,8.543155E-3,5.9198577E-2],"categories":[],"categories_nodes":[],"categories_segments":[],"categories_sizes":[],"default_left":[0,0,0,0,0,0,0,0,0,0,0,0,0,0,0,0,0,0,0,0,0,0,0,0,0,0,0,0,0,0,0],"id":25,"left_children":[1,3,5,7,9,11,13,15,17,19,21,23,25,27,29,-1,-1,-1,-1,-1,-1,-1,-1,-1,-1,-1,-1,-1,-1,-1,-1],"loss_changes":[9.419494E5,5.013163E5,3.4749088E5,1.1657631E5,2.495567E5,6.013406E5,3.3122206E5,1.0094056E5,5.3007688E4,1.3773712E5,1.9947406E5,2.4140519E5,9.591972E4,1.0241694E5,9.01752E4,0E0,0E0,0E0,0E0,0E0,0E0,0E0,0E0,0E0,0E0,0E0,0E0,0E0,0E0,0E0,0E0],"parents":[2147483647,0,0,1,1,2,2,3,3,4,4,5,5,6,6,7,7,8,8,9,9,10,10,11,11,12,12,13,13,14,14],"right_children":[2,4,6,8,10,12,14,16,18,20,22,24,26,28,30,-1,-1,-1,-1,-1,-1,-1,-1,-1,-1,-1,-1,-1,-1,-1,-1],"split_conditions":[5.7125306E0,4.391096E0,6.4E1,1E0,1E0,4.4E1,5.875421E0,3E0,3.8002756E0,2E0,2.9557624E0,4.6774516E0,1E0,1E0,4.7203217E0,-9.401671E-2,-1.7763786E-2,-5.142429E-2,-7.871562E-3,4.3697607E-2,-1.4830905E-3,-9.047714E-2,-1.4346155E-2,-6.095995E-4,5.4743305E-2,-3.2139845E-2,-9.804866E-2,1.7406945E-1,8.335421E-2,8.543155E-3,5.9198577E-2],"split_indices":[1,0,8,25,24,8,1,22,0,19,1,0,24,15,0,0,0,0,0,0,0,0,0,0,0,0,0,0,0,0,0],"split_type":[0,0,0,0,0,0,0,0,0,0,0,0,0,0,0,0,0,0,0,0,0,0,0,0,0,0,0,0,0,0,0],"sum_hessian":[1.2707126E6,6.837786E5,5.86934E5,2.313805E5,4.523981E5,4.075111E5,1.794229E5,1.110213E5,1.203592E5,2.992973E5,1.531008E5,3.057526E5,1.017585E5,4.53652E4,1.340577E5,9.22066E4,1.88147E4,8.45567E4,3.58025E4,8.469E4,2.146073E5,4.31163E4,1.099845E5,1.1176E5,1.939926E5,7.46783E4,2.70802E4,2.51519E4,2.02133E4,5.11333E4,8.29244E4],"tree_param":{"num_deleted":"0","num_feature":"29","num_nodes":"31","size_leaf_vector":"1"}},{"base_weights":[2.8635298E-3,-1.3085095E0,5.624394E-1,-2.11355E0,-4.003867E-1,-5.6434745E-1,1.2103179E0,-3.4896562E0,-1.3688833E0,-1.1641212E0,3.9764684E-1,-1.8659684E-1,-2.6696663E0,8.117613E-2,1.8821644E0,1.5764074E-1,-1.0687325E-1,-1.05246745E-1,-3.151063E-2,2.4844972E-2,-5.0642855E-2,6.0798083E-2,-2.8825074E-3,-2.2935677E-2,3.1877264E-2,-8.109875E-2,2.194293E0,1.3827797E-2,-6.1249357E-2,5.3811755E-2,2.0473205E-1],"categories":[],"categories_nodes":[],"categories_segments":[],"categories_sizes":[],"default_left":[0,0,0,0,0,0,0,0,0,0,0,0,0,0,0,0,0,0,0,0,0,0,0,0,0,0,0,0,0,0,0],"id":26,"left_children":[1,3,5,7,9,11,13,15,17,19,21,23,25,27,29,-1,-1,-1,-1,-1,-1,-1,-1,-1,-1,-1,-1,-1,-1,-1,-1],"loss_changes":[9.3146656E5,2.77545E5,6.495075E5,2.0620319E5,1.0873774E5,2.5831031E5,4.2853812E5,4.5027062E4,8.8971375E4,9.5170914E4,7.017087E4,1.988199E5,1.2648647E5,1.6988506E5,1.5475725E5,0E0,0E0,0E0,0E0,0E0,0E0,0E0,0E0,0E0,0E0,0E0,0E0,0E0,0E0,0E0,0E0],"parents":[2147483647,0,0,1,1,2,2,3,3,4,4,5,5,6,6,7,7,8,8,9,9,10,10,11,11,12,12,13,13,14,14],"right_children":[2,4,6,8,10,12,14,16,18,20,22,24,26,28,30,-1,-1,-1,-1,-1,-1,-1,-1,-1,-1,-1,-1,-1,-1,-1,-1],"split_conditions":[4.2804317E0,5.7125306E0,4.6774516E0,4.673775E0,5.662033E0,7.9E1,4.6774516E0,1.2480112E0,2.3257809E0,5.875421E0,5.875421E0,7.2E1,2E0,7.9E1,8.892988E0,1.5764074E-1,-1.0687325E-1,-1.05246745E-1,-3.151063E-2,2.4844972E-2,-5.0642855E-2,6.0798083E-2,-2.8825074E-3,-2.2935677E-2,3.1877264E-2,-8.109875E-2,2.194293E0,1.3827797E-2,-6.1249357E-2,5.3811755E-2,2.0473205E-1],"split_indices":[2,0,1,1,1,8,0,0,2,0,1,8,27,7,0,0,0,0,0,0,0,0,0,0,0,0,0,0,0,0,0],"split_type":[0,0,0,0,0,0,0,0,0,0,0,0,0,0,0,0,0,0,0,0,0,0,0,0,0,0,0,0,0,0,0],"sum_hessian":[1.2693469E6,3.79643E5,8.897039E5,2.012405E5,1.784025E5,3.248045E5,5.648994E5,7.06572E4,1.305833E5,9.11602E4,8.72423E4,2.75395E5,4.94095E4,2.107337E5,3.541657E5,5.814E2,7.00758E4,1.69187E4,1.136646E5,1.8982E4,7.21782E4,2.02906E4,6.69517E4,1.882867E5,8.71083E4,4.93905E4,1.9E1,1.787585E5,3.19752E4,3.479437E5,6.222E3],"tree_param":{"num_deleted":"0","num_feature":"29","num_nodes":"31","size_leaf_vector":"1"}},{"base_weights":[-1.8479468E-2,-8.2561374E-1,9.3825424E-1,-2.0964622E0,-1.6687384E-1,2.1405025E-1,1.7951492E0,-3.1198902E0,-1.0353754E0,-1.7151048E0,2.6794112E-1,1.00226484E-1,5.0158844E0,1.2205414E0,3.1255352E0,-8.943767E-2,-2.3147173E-1,2.4346161E-1,-3.4254562E-2,1.53622E-1,-5.5416677E-2,-2.944001E-2,2.0684676E-2,5.13033E-2,-8.345089E-3,3.127945E-1,1.2423484E-1,4.5279622E-2,-5.852267E-2,1.5633574E-1,6.0765367E-2],"categories":[],"categories_nodes":[],"categories_segments":[],"categories_sizes":[],"default_left":[0,0,0,0,0,0,0,0,0,0,0,0,0,0,0,0,0,0,0,0,0,0,0,0,0,0,0,0,0,0,0],"id":27,"left_children":[1,3,5,7,9,11,13,15,17,19,21,23,25,27,29,-1,-1,-1,-1,-1,-1,-1,-1,-1,-1,-1,-1,-1,-1,-1,-1],"loss_changes":[9.8061944E5,5.76626E5,3.6060166E5,2.5534162E5,3.0539784E5,1.7212364E5,2.0345044E5,7.6182875E4,1.12477234E5,8.9861E4,1.865247E5,1.8741095E5,3.436778E4,1.7024112E5,1.8414538E5,0E0,0E0,0E0,0E0,0E0,0E0,0E0,0E0,0E0,0E0,0E0,0E0,0E0,0E0,0E0,0E0],"parents":[2147483647,0,0,1,1,2,2,3,3,4,4,5,5,6,6,7,7,8,8,9,9,10,10,11,11,12,12,13,13,14,14],"right_children":[2,4,6,8,10,12,14,16,18,20,22,24,26,28,30,-1,-1,-1,-1,-1,-1,-1,-1,-1,-1,-1,-1,-1,-1,-1,-1],"split_conditions":[5.7125306E0,4.51879E0,5.7125306E0,5.662033E0,3.8002756E0,8.892988E0,6.3E1,8.7E1,1.2480112E0,1.2480112E0,2.9557624E0,5.875421E0,2E0,6E0,6.111052E0,-8.943767E-2,-2.3147173E-1,2.4346161E-1,-3.4254562E-2,1.53622E-1,-5.5416677E-2,-2.944001E-2,2.0684676E-2,5.13033E-2,-8.345089E-3,3.127945E-1,1.2423484E-1,4.5279622E-2,-5.852267E-2,1.5633574E-1,6.0765367E-2],"split_indices":[2,1,1,0,0,2,9,9,1,0,2,2,11,18,2,0,0,0,0,0,0,0,0,0,0,0,0,0,0,0,0],"split_type":[0,0,0,0,0,0,0,0,0,0,0,0,0,0,0,0,0,0,0,0,0,0,0,0,0,0,0,0,0,0,0],"sum_hessian":[1.2698768E6,6.887904E5,5.810864E5,2.351426E5,4.536478E5,3.149292E5,2.661572E5,1.196919E5,1.154507E5,9.94682E4,3.541796E5,3.076401E5,7.2891E3,1.858801E5,8.02771E4,1.161921E5,3.4998E3,1.3248E3,1.141259E5,1.8837E3,9.75845E4,8.93578E4,2.648218E5,5.85465E4,2.490936E5,1.0097E3,6.2794E3,1.703682E5,1.55119E4,2.77157E4,5.25614E4],"tree_param":{"num_deleted":"0","num_feature":"29","num_nodes":"31","size_leaf_vector":"1"}},{"base_weights":[1.4477234E-2,-8.3571434E-1,9.234557E-1,-1.937578E0,-1.8599522E-1,2.1283671E-1,1.7235422E0,-1.7425389E0,-4.730026E0,-2.7462196E-1,4.8599825E0,9.133152E-2,5.5949364E0,2.7555102E-1,2.0421398E0,-6.6942684E-2,-2.0410772E-2,-1.3263123E-1,-2.9752272E-1,-2.172821E-2,2.1547815E-2,1.2761503E-1,4.915701E-1,-1.5221375E-2,4.0393747E-2,2.1763895E-1,5.201376E-2,4.1630313E-2,-3.4912813E-2,1.0409939E-1,5.0591603E-2],"categories":[],"categories_nodes":[],"categories_segments":[],"categories_sizes":[],"default_left":[0,0,0,0,0,0,0,0,0,0,0,0,0,0,0,0,0,0,0,0,0,0,0,0,0,0,0,0,0,0,0],"id":28,"left_children":[1,3,5,7,9,11,13,15,17,19,21,23,25,27,29,-1,-1,-1,-1,-1,-1,-1,-1,-1,-1,-1,-1,-1,-1,-1,-1],"loss_changes":[9.815397E5,4.6982197E5,3.489931E5,1.3255019E5,1.8462597E5,2.125892E5,1.3319781E5,1.18152125E5,2.5323656E4,1.8113547E5,4.9553734E4,2.3890655E5,4.594586E4,8.336386E4,1.2019231E5,0E0,0E0,0E0,0E0,0E0,0E0,0E0,0E0,0E0,0E0,0E0,0E0,0E0,0E0,0E0,0E0],"parents":[2147483647,0,0,1,1,2,2,3,3,4,4,5,5,6,6,7,7,8,8,9,9,10,10,11,11,12,12,13,13,14,14],"right_children":[2,4,6,8,10,12,14,16,18,20,22,24,26,28,30,-1,-1,-1,-1,-1,-1,-1,-1,-1,-1,-1,-1,-1,-1,-1,-1],"split_conditions":[5.662033E0,4.7203217E0,5.6754985E0,2.2E1,8.892988E0,8.892988E0,6E0,7.2E1,1.9E1,6.4E1,8.6E1,6.3E1,1.6E1,3E0,5.875421E0,-6.6942684E-2,-2.0410772E-2,-1.3263123E-1,-2.9752272E-1,-2.172821E-2,2.1547815E-2,1.2761503E-1,4.915701E-1,-1.5221375E-2,4.0393747E-2,2.1763895E-1,5.201376E-2,4.1630313E-2,-3.4912813E-2,1.0409939E-1,5.0591603E-2],"split_indices":[2,0,0,12,0,2,12,9,10,7,9,9,10,17,2,0,0,0,0,0,0,0,0,0,0,0,0,0,0,0,0],"split_type":[0,0,0,0,0,0,0,0,0,0,0,0,0,0,0,0,0,0,0,0,0,0,0,0,0,0,0,0,0,0,0],"sum_hessian":[1.2700925E6,6.562674E5,6.138251E5,2.434282E5,4.128392E5,3.250913E5,2.887338E5,2.275408E5,1.58874E4,4.057163E5,7.1229E3,3.179173E5,7.174E3,5.20736E4,2.366602E5,1.558187E5,7.17221E4,1.49997E4,8.877E2,2.792519E5,1.264644E5,6.771E3,3.519E2,2.152442E5,1.026731E5,5.0153E3,2.1587E3,2.93761E4,2.26975E4,4.71981E4,1.894621E5],"tree_param":{"num_deleted":"0","num_feature":"29","num_nodes":"31","size_leaf_vector":"1"}},{"base_weights":[-6.666073E-3,-7.09891E-1,8.139677E-1,-1.517353E0,1.24062896E-1,-1.3964175E-1,1.3758653E0,-2.2675288E0,-8.754209E-1,8.356059E0,6.2855646E-2,1.5553312E0,-5.589167E-1,1.6382235E0,-4.5830154E-1,-5.3760264E-2,-1.0217499E-1,-3.1505905E-2,5.5834703E-2,8.3778724E-2,3.0809748E-1,3.6509246E-2,-8.855763E-3,6.6915522E-3,1.0320801E-1,-9.193107E-2,-8.6065065E-3,3.4578964E-2,8.263065E-2,6.0575665E-3,-8.2439706E-2],"categories":[],"categories_nodes":[],"categories_segments":[],"categories_sizes":[],"default_left":[0,0,0,0,0,0,0,0,0,0,0,0,0,0,0,0,0,0,0,0,0,0,0,0,0,0,0,0,0,0,0],"id":29,"left_children":[1,3,5,7,9,11,13,15,17,19,21,23,25,27,29,-1,-1,-1,-1,-1,-1,-1,-1,-1,-1,-1,-1,-1,-1,-1,-1],"loss_changes":[7.33269E5,4.6077697E5,3.1419488E5,1.6740856E5,1.6959516E5,1.5450348E5,1.7755156E5,8.6749625E4,8.961203E4,2.6351719E4,1.3807525E5,1.0826456E5,1.1878778E5,1.7493462E5,6.980495E4,0E0,0E0,0E0,0E0,0E0,0E0,0E0,0E0,0E0,0E0,0E0,0E0,0E0,0E0,0E0,0E0],"parents":[2147483647,0,0,1,1,2,2,3,3,4,4,5,5,6,6,7,7,8,8,9,9,10,10,11,11,12,12,13,13,14,14],"right_children":[2,4,6,8,10,12,14,16,18,20,22,24,26,28,30,-1,-1,-1,-1,-1,-1,-1,-1,-1,-1,-1,-1,-1,-1,-1,-1],"split_conditions":[5.7125306E0,5.662033E0,4.6774516E0,1E0,1.2480112E0,5.875421E0,6E0,2E0,1E0,1E0,5.875421E0,5.3E1,5.9646525E0,6.4E1,7.6E1,-5.3760264E-2,-1.0217499E-1,-3.1505905E-2,5.5834703E-2,8.3778724E-2,3.0809748E-1,3.6509246E-2,-8.855763E-3,6.6915522E-3,1.0320801E-1,-9.193107E-2,-8.6065065E-3,3.4578964E-2,8.263065E-2,6.0575665E-3,-8.2439706E-2],"split_indices":[1,0,0,25,1,1,18,13,28,20,0,8,1,8,9,0,0,0,0,0,0,0,0,0,0,0,0,0,0,0,0],"split_type":[0,0,0,0,0,0,0,0,0,0,0,0,0,0,0,0,0,0,0,0,0,0,0,0,0,0,0,0,0,0,0],"sum_hessian":[1.2706258E6,6.842627E5,5.86363E5,3.476526E5,3.366101E5,2.174033E5,3.689597E5,1.603062E5,1.873464E5,2.4812E3,3.341289E5,4.3111E4,1.742923E5,3.22789E5,4.61707E4,1.130774E5,4.72288E4,1.761016E5,1.12448E4,6.371E2,1.8441E3,7.91133E4,2.550156E5,2.52606E4,1.78504E4,1.70672E4,1.572251E5,2.249345E5,9.78545E4,3.5839E4,1.03317E4],"tree_param":{"num_deleted":"0","num_feature":"29","num_nodes":"31","size_leaf_vector":"1"}},{"base_weights":[1.6210914E-2,-1.3082216E0,5.8134407E-1,-2.0412164E0,-4.6711025E-1,-3.218273E-1,1.2052845E0,-2.795186E0,-1.3211871E0,1.9720125E0,-8.460382E-1,-4.1191986E-1,5.717749E0,6.899966E-1,2.4827957E0,-5.2917227E-2,-1.0888768E-1,-7.393013E-2,-7.2406265E-3,-6.5225385E-2,1.18909456E-1,-1.9214557E-2,-1.2582785E-1,-2.5892682E-2,1.9373517E-2,1.6441578E-1,2.0042477E0,3.3975787E-2,-2.1139413E-2,6.5342635E-2,1.5123919E-1],"categories":[],"categories_nodes":[],"categories_segments":[],"categories_sizes":[],"default_left":[0,0,0,0,0,0,0,0,0,0,0,0,0,0,0,0,0,0,0,0,0,0,0,0,0,0,0,0,0,0,0],"id":30,"left_children":[1,3,5,7,9,11,13,15,17,19,21,23,25,27,29,-1,-1,-1,-1,-1,-1,-1,-1,-1,-1,-1,-1,-1,-1,-1,-1],"loss_changes":[9.508793E5,2.34249E5,5.017972E5,1.10203E5,1.6353548E5,1.9796434E5,3.466713E5,8.531281E4,1.2819692E5,1.9649412E5,1.0538725E5,1.710682E5,7.632425E4,2.316131E5,1.1796419E5,0E0,0E0,0E0,0E0,0E0,0E0,0E0,0E0,0E0,0E0,0E0,0E0,0E0,0E0,0E0,0E0],"parents":[2147483647,0,0,1,1,2,2,3,3,4,4,5,5,6,6,7,7,8,8,9,9,10,10,11,11,12,12,13,13,14,14],"right_children":[2,4,6,8,10,12,14,16,18,20,22,24,26,28,30,-1,-1,-1,-1,-1,-1,-1,-1,-1,-1,-1,-1,-1,-1,-1,-1],"split_conditions":[4.2804317E0,5.7125306E0,4.9564834E0,1E0,5.773804E0,8.892988E0,6.3E1,1E0,7E1,7E0,8.6E1,6.3E1,3E0,4.4E1,2.4E1,-5.2917227E-2,-1.0888768E-1,-7.393013E-2,-7.2406265E-3,-6.5225385E-2,1.18909456E-1,-1.9214557E-2,-1.2582785E-1,-2.5892682E-2,1.9373517E-2,1.6441578E-1,2.0042477E0,3.3975787E-2,-2.1139413E-2,6.5342635E-2,1.5123919E-1],"split_indices":[2,1,1,25,1,2,9,24,9,11,9,9,25,9,11,0,0,0,0,0,0,0,0,0,0,0,0,0,0,0,0],"split_type":[0,0,0,0,0,0,0,0,0,0,0,0,0,0,0,0,0,0,0,0,0,0,0,0,0,0,0,0,0,0,0],"sum_hessian":[1.2704075E6,3.79953E5,8.904545E5,2.03022E5,1.76931E5,3.638178E5,5.266367E5,9.91687E4,1.038533E5,2.37889E4,1.531421E5,3.584734E5,5.3444E3,3.752742E5,1.513625E5,4.43567E4,5.4812E4,5.04453E4,5.3408E4,7.7189E3,1.607E4,1.442879E5,8.8542E3,2.51287E5,1.071864E5,5.327E3,1.74E1,2.848809E5,9.03933E4,1.352596E5,1.61029E4],"tree_param":{"num_deleted":"0","num_feature":"29","num_nodes":"31","size_leaf_vector":"1"}},{"base_weights":[-3.1136572E-2,-7.4325484E-1,8.133011E-1,-1.821395E0,-1.5511179E-1,2.498492E0,4.3802083E-1,-2.7661176E0,-8.419551E-1,-1.1869632E0,4.3078497E-1,1.7153072E0,4.338345E0,-8.276893E-1,9.418807E-1,-1.06359646E-1,-6.221046E-2,-5.4734915E-2,-4.5591355E-3,-7.632265E-2,-2.2053428E-2,1.0293029E-2,1.6254374E-1,3.1083636E-2,1.1588022E-1,6.727774E-1,1.2620446E-1,-3.672549E-2,5.673013E-2,-4.4105025E-3,4.8168488E-2],"categories":[],"categories_nodes":[],"categories_segments":[],"categories_sizes":[],"default_left":[0,0,0,0,0,0,0,0,0,0,0,0,0,0,0,0,0,0,0,0,0,0,0,0,0,0,0,0,0,0,0],"id":31,"left_children":[1,3,5,7,9,11,13,15,17,19,21,23,25,27,29,-1,-1,-1,-1,-1,-1,-1,-1,-1,-1,-1,-1,-1,-1,-1,-1],"loss_changes":[7.639051E5,4.369969E5,3.6753966E5,2.2506975E5,2.6958462E5,1.5249575E5,3.0313812E5,6.6778375E4,8.096751E4,9.902419E4,1.243688E5,1.0827505E5,7.487394E4,1.4589947E5,2.4572431E5,0E0,0E0,0E0,0E0,0E0,0E0,0E0,0E0,0E0,0E0,0E0,0E0,0E0,0E0,0E0,0E0],"parents":[2147483647,0,0,1,1,2,2,3,3,4,4,5,5,6,6,7,7,8,8,9,9,10,10,11,11,12,12,13,13,14,14],"right_children":[2,4,6,8,10,12,14,16,18,20,22,24,26,28,30,-1,-1,-1,-1,-1,-1,-1,-1,-1,-1,-1,-1,-1,-1,-1,-1],"split_conditions":[5.7125306E0,4.673775E0,5.875421E0,5.662033E0,4.6774516E0,1.4E1,4.210249E0,1E0,5.9E1,2.9557624E0,8.892988E0,5.7808723E0,2.2007878E0,8.26223E0,4.7203217E0,-1.06359646E-1,-6.221046E-2,-5.4734915E-2,-4.5591355E-3,-7.632265E-2,-2.2053428E-2,1.0293029E-2,1.6254374E-1,3.1083636E-2,1.1588022E-1,6.727774E-1,1.2620446E-1,-3.672549E-2,5.673013E-2,-4.4105025E-3,4.8168488E-2],"split_indices":[2,1,2,0,0,12,1,25,8,2,0,2,1,2,0,0,0,0,0,0,0,0,0,0,0,0,0,0,0,0,0],"split_type":[0,0,0,0,0,0,0,0,0,0,0,0,0,0,0,0,0,0,0,0,0,0,0,0,0,0,0,0,0,0,0],"sum_hessian":[1.2703332E6,6.891616E5,5.811717E5,2.432485E5,4.459131E5,1.058471E5,4.753246E5,1.238154E5,1.194331E5,1.61495E5,2.844181E5,7.42478E4,3.15993E4,1.353408E5,3.399838E5,5.82511E4,6.55643E4,4.92683E4,7.01648E4,4.03345E4,1.211605E5,2.795074E5,4.9107E3,5.64107E4,1.78371E4,2.244E2,3.13749E4,1.181167E5,1.72241E4,1.287548E5,2.11229E5],"tree_param":{"num_deleted":"0","num_feature":"29","num_nodes":"31","size_leaf_vector":"1"}},{"base_weights":[1.5806377E-2,-1.0426824E0,6.142175E-1,-1.8010792E0,-1.7272998E-1,-2.851363E-1,1.2386138E0,-1.2155321E0,-2.6829283E0,1.0228795E-1,-2.3108501E0,-3.7364116E-1,5.120985E0,7.7196217E-1,2.4249992E0,-5.9946846E-2,-3.1353233E-3,-1.0573256E-1,-4.479427E-2,-8.139456E-2,1.3306264E-2,1.3271663E-1,-8.983547E-2,-2.4547271E-2,2.1148393E-2,1.4684288E-1,2.096225E0,3.5713904E-2,-2.2438923E-2,6.36094E-2,1.511721E-1],"categories":[],"categories_nodes":[],"categories_segments":[],"categories_sizes":[],"default_left":[0,0,0,0,0,0,0,0,0,0,0,0,0,0,0,0,0,0,0,0,0,0,0,0,0,0,0,0,0,0,0],"id":32,"left_children":[1,3,5,7,9,11,13,15,17,19,21,23,25,27,29,-1,-1,-1,-1,-1,-1,-1,-1,-1,-1,-1,-1,-1,-1,-1,-1],"loss_changes":[8.043309E5,3.0257972E5,4.5554594E5,1.26505E5,1.2560646E5,1.5905369E5,2.6507056E5,1.2804703E5,9.786431E4,1.81841E5,1.1212701E5,1.5684512E5,7.733505E4,2.1859103E5,1.07614875E5,0E0,0E0,0E0,0E0,0E0,0E0,0E0,0E0,0E0,0E0,0E0,0E0,0E0,0E0,0E0,0E0],"parents":[2147483647,0,0,1,1,2,2,3,3,4,4,5,5,6,6,7,7,8,8,9,9,10,10,11,11,12,12,13,13,14,14],"right_children":[2,4,6,8,10,12,14,16,18,20,22,24,26,28,30,-1,-1,-1,-1,-1,-1,-1,-1,-1,-1,-1,-1,-1,-1,-1,-1],"split_conditions":[4.6774516E0,5.7125306E0,4.9564834E0,1E0,1.8E1,8.892988E0,6.3E1,7.2E1,4.2804317E0,2.3257809E0,1.2480112E0,6.3E1,3E0,4.4E1,2.4E1,-5.9946846E-2,-3.1353233E-3,-1.0573256E-1,-4.479427E-2,-8.139456E-2,1.3306264E-2,1.3271663E-1,-8.983547E-2,-2.4547271E-2,2.1148393E-2,1.4684288E-1,2.096225E0,3.5713904E-2,-2.2438923E-2,6.36094E-2,1.511721E-1],"split_indices":[2,1,1,24,12,2,9,9,1,2,2,9,25,9,11,0,0,0,0,0,0,0,0,0,0,0,0,0,0,0,0],"split_type":[0,0,0,0,0,0,0,0,0,0,0,0,0,0,0,0,0,0,0,0,0,0,0,0,0,0,0,0,0,0,0],"sum_hessian":[1.269834E6,4.586158E5,8.112182E5,2.450151E5,2.136007E5,3.324178E5,4.788004E5,1.472497E5,9.77654E4,1.892594E5,2.43413E4,3.270663E5,5.3515E3,3.436394E5,1.35161E5,8.63877E4,6.0862E4,5.72605E4,4.05049E4,2.04573E4,1.688021E5,2.2416E3,2.20997E4,2.316006E5,9.54657E4,5.3361E3,1.54E1,2.694496E5,7.41898E4,1.210569E5,1.41041E4],"tree_param":{"num_deleted":"0","num_feature":"29","num_nodes":"31","size_leaf_vector":"1"}},{"base_weights":[8.542676E-3,-7.0650434E-1,8.565675E-1,-1.4010189E0,9.097111E-2,2.4991856E0,4.898029E-1,-2.5114357E0,-8.281663E-1,-6.228051E-1,9.044398E-1,-1.8616896E0,2.9428172E0,2.1662964E-1,2.4006937E0,-1.0227693E-1,-5.051799E-2,-3.9024293E-2,9.119387E-3,-1.0904691E-1,-1.1512032E-2,1.7417584E-2,6.943538E-2,-1.4277296E-1,1.2590936E-1,3.5437725E-2,1.1330844E-1,-2.7975148E-2,2.0147508E-2,1.02252536E-1,-3.3983722E-2],"categories":[],"categories_nodes":[],"categories_segments":[],"categories_sizes":[],"default_left":[0,0,0,0,0,0,0,0,0,0,0,0,0,0,0,0,0,0,0,0,0,0,0,0,0,0,0,0,0,0,0],"id":33,"left_children":[1,3,5,7,9,11,13,15,17,19,21,23,25,27,29,-1,-1,-1,-1,-1,-1,-1,-1,-1,-1,-1,-1,-1,-1,-1,-1],"loss_changes":[7.6939025E5,3.8127044E5,3.496836E5,2.3404325E5,1.8606234E5,2.049805E5,2.4768748E5,9.300575E4,1.298883E5,1.2289989E5,6.838428E4,1.7181662E5,1.412815E5,2.1704677E5,2.1133816E5,0E0,0E0,0E0,0E0,0E0,0E0,0E0,0E0,0E0,0E0,0E0,0E0,0E0,0E0,0E0,0E0],"parents":[2147483647,0,0,1,1,2,2,3,3,4,4,5,5,6,6,7,7,8,8,9,9,10,10,11,11,12,12,13,13,14,14],"right_children":[2,4,6,8,10,12,14,16,18,20,22,24,26,28,30,-1,-1,-1,-1,-1,-1,-1,-1,-1,-1,-1,-1,-1,-1,-1,-1],"split_conditions":[5.7125306E0,5.7125306E0,5.875421E0,4.391096E0,5.7125306E0,2E1,8.26223E0,1E0,6.4E1,2.3257809E0,2.2E1,7E0,1E0,4.210249E0,1.8E1,-1.0227693E-1,-5.051799E-2,-3.9024293E-2,9.119387E-3,-1.0904691E-1,-1.1512032E-2,1.7417584E-2,6.943538E-2,-1.4277296E-1,1.2590936E-1,3.5437725E-2,1.1330844E-1,-2.7975148E-2,2.0147508E-2,1.02252536E-1,-3.3983722E-2],"split_indices":[2,1,2,0,0,9,2,25,7,2,11,12,15,1,12,0,0,0,0,0,0,0,0,0,0,0,0,0,0,0,0],"split_type":[0,0,0,0,0,0,0,0,0,0,0,0,0,0,0,0,0,0,0,0,0,0,0,0,0,0,0,0,0,0,0],"sum_hessian":[1.2688238E6,6.883839E5,5.804399E5,3.679438E5,3.204401E5,1.059417E5,4.744982E5,1.252151E5,2.427287E5,1.706783E5,1.497618E5,9.7812E3,9.61605E4,4.151534E5,5.93448E4,6.00517E4,6.51634E4,1.712404E5,7.14883E4,1.25472E4,1.581311E5,1.217941E5,2.79677E4,6.6174E3,3.1638E3,3.09041E4,6.52564E4,1.177449E5,2.974085E5,4.61761E4,1.31687E4],"tree_param":{"num_deleted":"0","num_feature":"29","num_nodes":"31","size_leaf_vector":"1"}},{"base_weights":[-1.9062057E-2,-9.315127E-1,5.246538E-1,-4.4781134E-1,-1.7971995E0,9.762294E-1,-4.5873392E-1,4.752228E0,-5.28947E-1,-2.755891E0,-1.1506095E0,8.911315E-1,5.2462473E0,-2.710687E-1,-3.7502885E0,1.1148555E-1,3.7971976E-1,-8.253354E-3,-5.2359506E-2,-1.0231602E-1,-4.6684492E-2,-2.8629601E-2,-1.4432251E-1,5.40912E-2,1.4549598E-2,2.3621038E-1,1.0177543E-1,-4.0127248E-2,1.0948143E-2,-1.1610516E-1,2.600321E0],"categories":[],"categories_nodes":[],"categories_segments":[],"categories_sizes":[],"default_left":[0,0,0,0,0,0,0,0,0,0,0,0,0,0,0,0,0,0,0,0,0,0,0,0,0,0,0,0,0,0,0],"id":34,"left_children":[1,3,5,7,9,11,13,15,17,19,21,23,25,27,29,-1,-1,-1,-1,-1,-1,-1,-1,-1,-1,-1,-1,-1,-1,-1,-1],"loss_changes":[6.300267E5,1.985486E5,3.533725E5,1.2835089E5,1.0534831E5,1.9813672E5,1.5467933E5,3.812021E4,9.2480664E4,5.37475E4,7.291311E4,1.9802281E5,5.1803406E4,1.6070325E5,1.4734812E5,0E0,0E0,0E0,0E0,0E0,0E0,0E0,0E0,0E0,0E0,0E0,0E0,0E0,0E0,0E0,0E0],"parents":[2147483647,0,0,1,1,2,2,3,3,4,4,5,5,6,6,7,7,8,8,9,9,10,10,11,11,12,12,13,13,14,14],"right_children":[2,4,6,8,10,12,14,16,18,20,22,24,26,28,30,-1,-1,-1,-1,-1,-1,-1,-1,-1,-1,-1,-1,-1,-1,-1,-1],"split_conditions":[4.7203217E0,1E0,1E0,1.2480112E0,2.9557624E0,8.892988E0,8.7E1,2E0,1E0,6.3E1,8.7E1,2E0,9.726297E0,2E0,2E0,1.1148555E-1,3.7971976E-1,-8.253354E-3,-5.2359506E-2,-1.0231602E-1,-4.6684492E-2,-2.8629601E-2,-1.4432251E-1,5.40912E-2,1.4549598E-2,2.3621038E-1,1.0177543E-1,-4.0127248E-2,1.0948143E-2,-1.1610516E-1,2.600321E0],"split_indices":[0,24,24,0,0,0,8,20,26,9,9,19,0,20,27,0,0,0,0,0,0,0,0,0,0,0,0,0,0,0,0],"split_type":[0,0,0,0,0,0,0,0,0,0,0,0,0,0,0,0,0,0,0,0,0,0,0,0,0,0,0,0,0,0,0],"sum_hessian":[1.2699168E6,4.741722E5,7.957445E5,3.042042E5,1.69968E5,5.453285E5,2.50416E5,4.6707E3,2.995335E5,6.84567E4,1.015113E5,5.346767E5,1.06518E4,2.369122E5,1.35038E4,4.1335E3,5.372E2,2.478219E5,5.17116E4,4.42857E4,2.4171E4,9.63483E4,5.163E3,1.647513E5,3.699254E5,4.4021E3,6.2497E3,8.85025E4,1.484097E5,1.34888E4,1.5E1],"tree_param":{"num_deleted":"0","num_feature":"29","num_nodes":"31","size_leaf_vector":"1"}},{"base_weights":[-2.6944546E-2,-1.2315133E0,4.8650828E-1,-1.8569585E0,-5.1470196E-1,-1.7130005E-1,1.2571973E0,5.7408557E0,-1.9189587E0,1.5903124E0,-8.412547E-1,-5.4827535E-1,7.763548E-1,7.229663E-1,2.5865576E0,3.373307E-1,-8.052822E-2,-5.232646E-2,-1.5158471E-1,-7.986194E-2,1.0841908E-1,-4.0005576E-2,4.4170385E-3,-2.3992069E-2,5.8372658E-2,1.0713337E-1,1.4377176E-2,1.4805344E-2,9.807522E-2,6.0796738E-2,1.1686666E-1],"categories":[],"categories_nodes":[],"categories_segments":[],"categories_sizes":[],"default_left":[0,0,0,0,0,0,0,0,0,0,0,0,0,0,0,0,0,0,0,0,0,0,0,0,0,0,0,0,0,0,0],"id":35,"left_children":[1,3,5,7,9,11,13,15,17,19,21,23,25,27,29,-1,-1,-1,-1,-1,-1,-1,-1,-1,-1,-1,-1,-1,-1,-1,-1],"loss_changes":[7.8578225E5,1.7022494E5,4.515986E5,9.5548125E4,1.2162648E5,1.7168788E5,2.913077E5,7.623027E4,1.10111625E5,2.0451197E5,7.45357E4,2.1563097E5,1.1356074E5,1.7094712E5,8.6167375E4,0E0,0E0,0E0,0E0,0E0,0E0,0E0,0E0,0E0,0E0,0E0,0E0,0E0,0E0,0E0,0E0],"parents":[2147483647,0,0,1,1,2,2,3,3,4,4,5,5,6,6,7,7,8,8,9,9,10,10,11,11,12,12,13,13,14,14],"right_children":[2,4,6,8,10,12,14,16,18,20,22,24,26,28,30,-1,-1,-1,-1,-1,-1,-1,-1,-1,-1,-1,-1,-1,-1,-1,-1],"split_conditions":[4.2804317E0,5.7125306E0,5.7125306E0,1.2480112E0,5.773804E0,6.4E1,6.3E1,2E0,2.2E1,7E0,7.129925E0,8.26223E0,6.5E1,8.26223E0,6.4E1,3.373307E-1,-8.052822E-2,-5.232646E-2,-1.5158471E-1,-7.986194E-2,1.0841908E-1,-4.0005576E-2,4.4170385E-3,-2.3992069E-2,5.8372658E-2,1.0713337E-1,1.4377176E-2,1.4805344E-2,9.807522E-2,6.0796738E-2,1.1686666E-1],"split_indices":[2,1,1,1,1,9,9,16,11,11,1,2,9,2,8,0,0,0,0,0,0,0,0,0,0,0,0,0,0,0,0],"split_type":[0,0,0,0,0,0,0,0,0,0,0,0,0,0,0,0,0,0,0,0,0,0,0,0,0,0,0,0,0,0,0],"sum_hessian":[1.2704796E6,3.796985E5,8.907811E5,2.027688E5,1.769297E5,4.805861E5,4.10195E5,1.6389E3,2.011299E5,2.37592E4,1.531705E5,3.438182E5,1.367679E5,2.926093E5,1.175857E5,9.908E2,6.481E2,1.90512E5,1.06179E4,7.6605E3,1.60987E4,1.022502E5,5.09203E4,3.1233E5,3.14882E4,1.31393E4,1.236286E5,2.684239E5,2.41854E4,8.23599E4,3.52258E4],"tree_param":{"num_deleted":"0","num_feature":"29","num_nodes":"31","size_leaf_vector":"1"}},{"base_weights":[-1.1806731E-2,-6.6394186E-1,7.631292E-1,-1.7182472E0,-1.1821795E-1,2.3036103E0,4.1955826E-1,-2.4973097E0,-8.380772E-1,-1.3362516E0,2.2369878E-1,1.2165757E0,4.0050087E0,-1.7562749E0,6.6302437E-1,-6.0419355E-2,-1.0361049E-1,3.527973E-2,-4.1158106E-2,-3.1851474E-2,-1.432041E-1,4.5602927E-3,1.5834321E-1,-1.1269522E-2,7.164083E-2,3.5873473E-2,1.4175354E-1,-5.3558044E-2,1.6123674E0,1.1759962E-2,7.04508E-2],"categories":[],"categories_nodes":[],"categories_segments":[],"categories_sizes":[],"default_left":[0,0,0,0,0,0,0,0,0,0,0,0,0,0,0,0,0,0,0,0,0,0,0,0,0,0,0,0,0,0,0],"id":36,"left_children":[1,3,5,7,9,11,13,15,17,19,21,23,25,27,29,-1,-1,-1,-1,-1,-1,-1,-1,-1,-1,-1,-1,-1,-1,-1,-1],"loss_changes":[6.415112E5,3.9660503E5,3.0701338E5,1.6120475E5,1.8916812E5,1.9562144E5,2.5126269E5,5.7622375E4,1.1870525E5,9.3926234E4,1.2850231E5,1.2040223E5,8.339544E4,7.7045766E4,1.9484217E5,0E0,0E0,0E0,0E0,0E0,0E0,0E0,0E0,0E0,0E0,0E0,0E0,0E0,0E0,0E0,0E0],"parents":[2147483647,0,0,1,1,2,2,3,3,4,4,5,5,6,6,7,7,8,8,9,9,10,10,11,11,12,12,13,13,14,14],"right_children":[2,4,6,8,10,12,14,16,18,20,22,24,26,28,30,-1,-1,-1,-1,-1,-1,-1,-1,-1,-1,-1,-1,-1,-1,-1,-1],"split_conditions":[5.7125306E0,4.51879E0,5.875421E0,5.7125306E0,3.8002756E0,5.3E1,5.9646525E0,1.5E1,5.875421E0,8E1,8.892988E0,1E0,3.5901067E0,2E0,8.26223E0,-6.0419355E-2,-1.0361049E-1,3.527973E-2,-4.1158106E-2,-3.1851474E-2,-1.432041E-1,4.5602927E-3,1.5834321E-1,-1.1269522E-2,7.164083E-2,3.5873473E-2,1.4175354E-1,-5.3558044E-2,1.6123674E0,1.1759962E-2,7.04508E-2],"split_indices":[2,1,2,0,0,9,2,11,0,7,0,25,1,27,2,0,0,0,0,0,0,0,0,0,0,0,0,0,0,0,0],"split_type":[0,0,0,0,0,0,0,0,0,0,0,0,0,0,0,0,0,0,0,0,0,0,0,0,0,0,0,0,0,0,0],"sum_hessian":[1.269401E6,6.89318E5,5.80083E5,2.351037E5,4.542143E5,1.057788E5,4.743042E5,1.247115E5,1.103922E5,9.95554E4,3.546589E5,6.45458E4,4.1233E4,4.77293E4,4.265749E5,8.28508E4,4.18607E4,2.3129E4,8.72632E4,9.21958E4,7.3596E3,3.497022E5,4.9567E3,2.73598E4,3.7186E4,8.4149E3,3.28181E4,4.77073E4,2.2E1,3.674828E5,5.90921E4],"tree_param":{"num_deleted":"0","num_feature":"29","num_nodes":"31","size_leaf_vector":"1"}},{"base_weights":[-2.1905052E-3,-1.142727E0,4.8490587E-1,-1.7840714E0,-4.1734028E-1,3.5889383E-2,1.5832484E0,-2.8078964E0,-1.2022558E0,-1.0049938E-1,-1.8273215E0,-6.2231666E-1,7.971396E-1,1.1065074E0,2.5293722E0,2.7646086E-1,-8.7414466E-2,-2.0142395E-2,-1.09460585E-1,-2.1299683E-2,3.770085E-2,-9.419904E-2,-1.5961016E-2,-2.195105E-2,1.2853742E-1,1.6984029E-2,1.01309896E-1,9.468498E-2,2.2124434E-2,8.407422E-2,-6.430952E-3],"categories":[],"categories_nodes":[],"categories_segments":[],"categories_sizes":[],"default_left":[0,0,0,0,0,0,0,0,0,0,0,0,0,0,0,0,0,0,0,0,0,0,0,0,0,0,0,0,0,0,0],"id":37,"left_children":[1,3,5,7,9,11,13,15,17,19,21,23,25,27,29,-1,-1,-1,-1,-1,-1,-1,-1,-1,-1,-1,-1,-1,-1,-1,-1],"loss_changes":[7.055341E5,1.7680834E5,4.3887844E5,1.2014219E5,7.9673375E4,3.1650953E5,1.1646656E5,9.3153375E4,1.6703261E5,1.20466266E5,5.562908E4,1.8183628E5,1.7455473E5,1.2987272E5,6.4835938E4,0E0,0E0,0E0,0E0,0E0,0E0,0E0,0E0,0E0,0E0,0E0,0E0,0E0,0E0,0E0,0E0],"parents":[2147483647,0,0,1,1,2,2,3,3,4,4,5,5,6,6,7,7,8,8,9,9,10,10,11,11,12,12,13,13,14,14],"right_children":[2,4,6,8,10,12,14,16,18,20,22,24,26,28,30,-1,-1,-1,-1,-1,-1,-1,-1,-1,-1,-1,-1,-1,-1,-1,-1],"split_conditions":[4.2804317E0,5.7125306E0,6.3E1,5.2E1,7.9E1,5.7125306E0,1E0,1.2480112E0,1.8E1,7.2E1,2.9557624E0,8.892988E0,8.26223E0,6.5E1,1E0,2.7646086E-1,-8.7414466E-2,-2.0142395E-2,-1.09460585E-1,-2.1299683E-2,3.770085E-2,-9.419904E-2,-1.5961016E-2,-2.195105E-2,1.2853742E-1,1.6984029E-2,1.01309896E-1,9.468498E-2,2.2124434E-2,8.407422E-2,-6.430952E-3],"split_indices":[2,0,9,9,9,0,28,0,12,9,2,2,2,9,26,0,0,0,0,0,0,0,0,0,0,0,0,0,0,0,0],"split_type":[0,0,0,0,0,0,0,0,0,0,0,0,0,0,0,0,0,0,0,0,0,0,0,0,0,0,0,0,0,0,0],"sum_hessian":[1.2699641E6,3.800574E5,8.899067E5,2.017108E5,1.783466E5,6.316742E5,2.582325E5,7.30866E4,1.286242E5,1.456264E5,3.27202E4,3.387646E5,2.929096E5,1.717149E5,8.65176E4,6.359E2,7.24507E4,1.056942E5,2.293E4,1.004972E5,4.51292E4,1.62487E4,1.64715E4,3.313802E5,7.3844E3,2.688411E5,2.40685E4,2.61952E4,1.455197E5,7.86858E4,7.8318E3],"tree_param":{"num_deleted":"0","num_feature":"29","num_nodes":"31","size_leaf_vector":"1"}},{"base_weights":[-4.1003466E-2,-6.8705744E-1,7.241829E-1,-1.9224918E0,-3.382294E-1,9.82009E-2,1.4646275E0,3.3266199E0,-2.0236936E0,-1.3740532E0,1.0355441E-2,1.6560316E0,-2.5655115E-1,3.1570501E0,1.1588137E0,4.0892506E-1,4.0736213E-2,-7.557573E-2,-3.1030396E-2,-1.0062127E-2,-1.0473527E-1,2.61449E-3,-1.2526236E-1,-7.097437E-2,6.21768E-2,-4.524414E-2,6.234215E-3,-1.7709915E-2,1.08333156E-1,2.1056185E-2,8.279954E-2],"categories":[],"categories_nodes":[],"categories_segments":[],"categories_sizes":[],"default_left":[0,0,0,0,0,0,0,0,0,0,0,0,0,0,0,0,0,0,0,0,0,0,0,0,0,0,0,0,0,0,0],"id":38,"left_children":[1,3,5,7,9,11,13,15,17,19,21,23,25,27,29,-1,-1,-1,-1,-1,-1,-1,-1,-1,-1,-1,-1,-1,-1,-1,-1],"loss_changes":[6.2771194E5,2.966989E5,2.6942822E5,8.054675E4,1.938584E5,1.7408261E5,1.3781088E5,5.8116934E4,7.289656E4,2.9726088E5,1.2912333E5,9.789241E4,1.491172E5,6.935019E4,1.6501031E5,0E0,0E0,0E0,0E0,0E0,0E0,0E0,0E0,0E0,0E0,0E0,0E0,0E0,0E0,0E0,0E0],"parents":[2147483647,0,0,1,1,2,2,3,3,4,4,5,5,6,6,7,7,8,8,9,9,10,10,11,11,12,12,13,13,14,14],"right_children":[2,4,6,8,10,12,14,16,18,20,22,24,26,28,30,-1,-1,-1,-1,-1,-1,-1,-1,-1,-1,-1,-1,-1,-1,-1,-1],"split_conditions":[5.7125306E0,3.8002756E0,5.7125306E0,1.2480112E0,2.9557624E0,5.875421E0,5.7808723E0,2.3412495E0,7.2E1,2E0,8.7E1,2E1,6.3511276E0,2E1,7.336375E0,4.0892506E-1,4.0736213E-2,-7.557573E-2,-3.1030396E-2,-1.0062127E-2,-1.0473527E-1,2.61449E-3,-1.2526236E-1,-7.097437E-2,6.21768E-2,-4.524414E-2,6.234215E-3,-1.7709915E-2,1.08333156E-1,2.1056185E-2,8.279954E-2],"split_indices":[2,0,0,0,2,2,0,2,9,15,8,9,2,7,0,0,0,0,0,0,0,0,0,0,0,0,0,0,0,0,0],"split_type":[0,0,0,0,0,0,0,0,0,0,0,0,0,0,0,0,0,0,0,0,0,0,0,0,0,0,0,0,0,0,0],"sum_hessian":[1.2697622E6,6.884766E5,5.812856E5,1.515874E5,5.368892E5,3.149919E5,2.662937E5,2.8653E3,1.487221E5,1.351836E5,4.017056E5,5.84242E4,2.565677E5,4.07493E4,2.255444E5,4.567E2,2.4086E3,9.90893E4,4.96328E4,9.06937E4,4.44899E4,3.944716E5,7.234E3,5.4814E3,5.29428E4,6.94295E4,1.871382E5,4.4035E3,3.63458E4,1.75473E5,5.00714E4],"tree_param":{"num_deleted":"0","num_feature":"29","num_nodes":"31","size_leaf_vector":"1"}},{"base_weights":[-1.8735573E-2,-8.827489E-1,5.7405156E-1,-1.5388336E0,-1.3018957E-1,-5.1075876E-1,1.0468788E0,-1.0368748E0,-2.5123332E0,1.6450945E0,-3.9772785E-1,-4.53515E-2,-2.594395E0,6.324167E-1,2.0570457E0,-4.669458E-2,-1.011892E-4,-6.008201E-2,-1.2867595E-1,-9.717092E-2,7.117841E-2,3.3464166E-3,-4.0662833E-2,2.2876708E-1,-4.8854495E-3,-7.9106174E-2,1.7499931E0,3.6539268E-2,-3.034006E-2,9.28445E-2,3.7298128E-2],"categories":[],"categories_nodes":[],"categories_segments":[],"categories_sizes":[],"default_left":[0,0,0,0,0,0,0,0,0,0,0,0,0,0,0,0,0,0,0,0,0,0,0,0,0,0,0,0,0,0,0],"id":39,"left_children":[1,3,5,7,9,11,13,15,17,19,21,23,25,27,29,-1,-1,-1,-1,-1,-1,-1,-1,-1,-1,-1,-1,-1,-1,-1,-1],"loss_changes":[6.5051856E5,2.5517394E5,3.8638388E5,1.3491019E5,1.1433044E5,2.2174211E5,2.1964125E5,9.783241E4,8.5020875E4,1.12041586E5,1.0203231E5,1.684673E5,1.08455375E5,3.5806175E5,1.28877875E5,0E0,0E0,0E0,0E0,0E0,0E0,0E0,0E0,0E0,0E0,0E0,0E0,0E0,0E0,0E0,0E0],"parents":[2147483647,0,0,1,1,2,2,3,3,4,4,5,5,6,6,7,7,8,8,9,9,10,10,11,11,12,12,13,13,14,14],"right_children":[2,4,6,8,10,12,14,16,18,20,22,24,26,28,30,-1,-1,-1,-1,-1,-1,-1,-1,-1,-1,-1,-1,-1,-1,-1,-1],"split_conditions":[4.9564834E0,5.7125306E0,4.2804317E0,1.5E1,5.773804E0,7.9E1,6.4E1,1E1,7.9E1,2E1,1.5E1,1.2480112E0,2E0,4.4E1,2E0,-4.669458E-2,-1.011892E-4,-6.008201E-2,-1.2867595E-1,-9.717092E-2,7.117841E-2,3.3464166E-3,-4.0662833E-2,2.2876708E-1,-4.8854495E-3,-7.9106174E-2,1.7499931E0,3.6539268E-2,-3.034006E-2,9.28445E-2,3.7298128E-2],"split_indices":[2,1,1,12,1,8,8,12,9,8,12,1,27,8,19,0,0,0,0,0,0,0,0,0,0,0,0,0,0,0,0],"split_type":[0,0,0,0,0,0,0,0,0,0,0,0,0,0,0,0,0,0,0,0,0,0,0,0,0,0,0,0,0,0,0],"sum_hessian":[1.2701008E6,5.168172E5,7.532836E5,2.76104E5,2.407132E5,2.286616E5,5.24622E5,1.821767E5,9.39273E4,3.15225E4,2.091907E5,1.869152E5,4.17464E4,3.719998E5,1.526222E5,1.212258E5,6.09509E4,7.29985E4,2.09288E4,4.0852E3,2.74373E4,1.365691E5,7.26216E4,2.8168E3,1.840984E5,4.17202E4,2.62E1,2.7429E5,9.77098E4,6.70749E4,8.55473E4],"tree_param":{"num_deleted":"0","num_feature":"29","num_nodes":"31","size_leaf_vector":"1"}},{"base_weights":[3.6870472E-2,-5.64352E-1,7.4966943E-1,-1.215654E0,1.7251734E-1,2.1295073E0,4.420061E-1,-2.323452E0,-5.674834E-1,-3.0798367E-1,1.1684597E0,-2.2501469E0,2.5722651E0,1.7197032E-1,2.3328485E0,-9.2139065E-2,-4.7641523E-2,-5.4270063E-2,-4.7325315E-3,-1.36349E-2,1.1609347E-1,7.860385E-2,1.0080701E-2,-1.4633769E-1,9.699249E-2,3.182564E-2,9.87251E-2,-2.594077E-2,1.746407E-2,1.0381229E-1,-4.8277956E-2],"categories":[],"categories_nodes":[],"categories_segments":[],"categories_sizes":[],"default_left":[0,0,0,0,0,0,0,0,0,0,0,0,0,0,0,0,0,0,0,0,0,0,0,0,0,0,0,0,0,0,0],"id":40,"left_children":[1,3,5,7,9,11,13,15,17,19,21,23,25,27,29,-1,-1,-1,-1,-1,-1,-1,-1,-1,-1,-1,-1,-1,-1,-1,-1],"loss_changes":[5.444064E5,3.3071978E5,2.4674506E5,2.6264694E5,1.5472512E5,2.0550547E5,2.4266775E5,7.423819E4,1.1738951E5,1.3349777E5,1.2714791E5,1.4025572E5,1.04509E5,1.7683589E5,2.6401453E5,0E0,0E0,0E0,0E0,0E0,0E0,0E0,0E0,0E0,0E0,0E0,0E0,0E0,0E0,0E0,0E0],"parents":[2147483647,0,0,1,1,2,2,3,3,4,4,5,5,6,6,7,7,8,8,9,9,10,10,11,11,12,12,13,13,14,14],"right_children":[2,4,6,8,10,12,14,16,18,20,22,24,26,28,30,-1,-1,-1,-1,-1,-1,-1,-1,-1,-1,-1,-1,-1,-1,-1,-1],"split_conditions":[5.7125306E0,5.7125306E0,5.875421E0,4.7203217E0,6.4E1,2E1,8.26223E0,5.5E1,2.9557624E0,8.892988E0,6.111052E0,7E0,1E0,4.210249E0,1.8E1,-9.2139065E-2,-4.7641523E-2,-5.4270063E-2,-4.7325315E-3,-1.36349E-2,1.1609347E-1,7.860385E-2,1.0080701E-2,-1.4633769E-1,9.699249E-2,3.182564E-2,9.87251E-2,-2.594077E-2,1.746407E-2,1.0381229E-1,-4.8277956E-2],"split_indices":[2,0,2,1,7,9,2,9,2,0,0,12,15,1,12,0,0,0,0,0,0,0,0,0,0,0,0,0,0,0,0],"split_type":[0,0,0,0,0,0,0,0,0,0,0,0,0,0,0,0,0,0,0,0,0,0,0,0,0,0,0,0,0,0,0],"sum_hessian":[1.2703365E6,6.891014E5,5.812351E5,3.657886E5,3.233128E5,1.059663E5,4.752688E5,1.35018E5,2.307706E5,2.18093E5,1.052198E5,9.7277E3,9.62386E4,4.158798E5,5.9389E4,6.6937E4,6.8081E4,5.7259E4,1.735116E5,2.107065E5,7.3865E3,3.83443E4,6.68755E4,6.5765E3,3.1512E3,3.1014E4,6.52246E4,1.178973E5,2.979825E5,4.61806E4,1.32084E4],"tree_param":{"num_deleted":"0","num_feature":"29","num_nodes":"31","size_leaf_vector":"1"}},{"base_weights":[-4.182912E-3,-5.918328E-1,6.932194E-1,-1.5012349E0,-1.2153178E-1,-1.7448692E-1,1.2028569E0,-2.2133102E0,-6.968039E-1,-1.2947303E0,2.0751913E-1,1.3984389E0,-5.438735E-1,-6.965854E-2,1.7281882E0,-8.762093E-2,-4.5701303E-2,3.99376E-2,-3.7010312E-2,1.1732863E-1,-4.3132566E-2,-4.553869E-3,3.4114774E-2,3.869964E-1,3.704044E-2,-3.617511E-2,5.766365E-3,1.22677125E-2,-6.50377E-2,4.8141345E-2,1.7417496E-1],"categories":[],"categories_nodes":[],"categories_segments":[],"categories_sizes":[],"default_left":[0,0,0,0,0,0,0,0,0,0,0,0,0,0,0,0,0,0,0,0,0,0,0,0,0,0,0,0,0,0,0],"id":41,"left_children":[1,3,5,7,9,11,13,15,17,19,21,23,25,27,29,-1,-1,-1,-1,-1,-1,-1,-1,-1,-1,-1,-1,-1,-1,-1,-1],"loss_changes":[5.2046847E5,2.947706E5,2.5681875E5,1.3456575E5,1.7537552E5,1.24855266E5,2.4458012E5,6.0802188E4,1.2011994E5,7.410034E4,1.18510516E5,7.690989E4,8.47968E4,1.0736091E5,1.30349375E5,0E0,0E0,0E0,0E0,0E0,0E0,0E0,0E0,0E0,0E0,0E0,0E0,0E0,0E0,0E0,0E0],"parents":[2147483647,0,0,1,1,2,2,3,3,4,4,5,5,6,6,7,7,8,8,9,9,10,10,11,11,12,12,13,13,14,14],"right_children":[2,4,6,8,10,12,14,16,18,20,22,24,26,28,30,-1,-1,-1,-1,-1,-1,-1,-1,-1,-1,-1,-1,-1,-1,-1,-1],"split_conditions":[5.7125306E0,4.51879E0,4.6774516E0,5.7125306E0,3.8002756E0,5.875421E0,4.210249E0,5.5E1,5.875421E0,2E0,6.4E1,1.2480112E0,5.7125306E0,7.9E1,8.3E1,-8.762093E-2,-4.5701303E-2,3.99376E-2,-3.7010312E-2,1.1732863E-1,-4.3132566E-2,-4.553869E-3,3.4114774E-2,3.869964E-1,3.704044E-2,-3.617511E-2,5.766365E-3,1.22677125E-2,-6.50377E-2,4.8141345E-2,1.7417496E-1],"split_indices":[2,1,0,0,0,2,1,9,0,9,8,0,1,8,9,0,0,0,0,0,0,0,0,0,0,0,0,0,0,0,0],"split_type":[0,0,0,0,0,0,0,0,0,0,0,0,0,0,0,0,0,0,0,0,0,0,0,0,0,0,0,0,0,0,0],"sum_hessian":[1.269961E6,6.892133E5,5.807477E5,2.3493E5,4.542833E5,2.148852E5,3.658625E5,1.246152E5,1.103148E5,9.95044E4,3.547789E5,4.08645E4,1.740207E5,1.069053E5,2.589572E5,6.15238E4,6.30914E4,2.3089E4,8.72258E4,2.6584E3,9.6846E4,2.558802E5,9.88987E4,5.703E2,4.02942E4,9.16232E4,8.23975E4,8.7052E4,1.98533E4,2.513504E5,7.6068E3],"tree_param":{"num_deleted":"0","num_feature":"29","num_nodes":"31","size_leaf_vector":"1"}},{"base_weights":[-1.3525724E-2,-6.2331414E-1,6.388707E-1,-1.475701E0,-1.20087795E-1,1.0563087E0,-3.708753E-1,-1.0482944E-1,-1.7084384E0,-1.0459645E0,3.5822633E-1,8.6780727E-1,3.0202386E0,-2.241638E0,-4.150549E-3,-3.9904725E-2,4.4815127E-2,-7.049761E-2,-2.4063164E-2,-4.052037E-2,2.7700553E-2,8.11871E-3,1.5933606E-1,2.3837065E-2,1.8998146E-1,4.1317016E-2,1.1865832E-1,-6.899048E-2,1.9071672E0,1.7946972E-2,-3.5953183E-2],"categories":[],"categories_nodes":[],"categories_segments":[],"categories_sizes":[],"default_left":[0,0,0,0,0,0,0,0,0,0,0,0,0,0,0,0,0,0,0,0,0,0,0,0,0,0,0,0,0,0,0],"id":42,"left_children":[1,3,5,7,9,11,13,15,17,19,21,23,25,27,29,-1,-1,-1,-1,-1,-1,-1,-1,-1,-1,-1,-1,-1,-1,-1,-1],"loss_changes":[5.0507844E5,2.8148416E5,2.585419E5,7.772E4,1.8273975E5,1.6064466E5,1.2308079E5,6.926986E4,1.2106544E5,8.43498E4,1.1804267E5,1.5846022E5,5.8362094E4,1.1270655E5,1.0791968E5,0E0,0E0,0E0,0E0,0E0,0E0,0E0,0E0,0E0,0E0,0E0,0E0,0E0,0E0,0E0,0E0],"parents":[2147483647,0,0,1,1,2,2,3,3,4,4,5,5,6,6,7,7,8,8,9,9,10,10,11,11,12,12,13,13,14,14],"right_children":[2,4,6,8,10,12,14,16,18,20,22,24,26,28,30,-1,-1,-1,-1,-1,-1,-1,-1,-1,-1,-1,-1,-1,-1,-1,-1],"split_conditions":[5.662033E0,4.7203217E0,1E0,1.6E1,4.51879E0,2.4E1,2.9557624E0,3.7370613E0,7E1,2.3E1,8.892988E0,8.892988E0,5.3E1,2E0,2E0,-3.9904725E-2,4.4815127E-2,-7.049761E-2,-2.4063164E-2,-4.052037E-2,2.7700553E-2,8.11871E-3,1.5933606E-1,2.3837065E-2,1.8998146E-1,4.1317016E-2,1.1865832E-1,-6.899048E-2,1.9071672E0,1.7946972E-2,-3.5953183E-2],"split_indices":[2,0,24,9,1,10,1,0,9,10,0,1,7,27,19,0,0,0,0,0,0,0,0,0,0,0,0,0,0,0,0],"split_type":[0,0,0,0,0,0,0,0,0,0,0,0,0,0,0,0,0,0,0,0,0,0,0,0,0,0,0,0,0,0,0],"sum_hessian":[1.2695974E6,6.562287E5,6.133687E5,2.436002E5,4.126285E5,4.339647E5,1.79404E5,3.53558E4,2.082444E5,1.405545E5,2.72074E5,3.959642E5,3.80005E4,2.94014E4,1.500026E5,2.00156E4,1.53402E4,1.219354E5,8.6309E4,1.217218E5,1.88327E4,2.673488E5,4.7252E3,3.907314E5,5.2328E3,1.37856E4,2.42149E4,2.93784E4,2.3E1,9.97106E4,5.0292E4],"tree_param":{"num_deleted":"0","num_feature":"29","num_nodes":"31","size_leaf_vector":"1"}},{"base_weights":[-3.8553383E-3,-9.907541E-1,4.1669017E-1,-8.33075E-1,-3.596127E0,-1.5671444E-1,1.0890201E0,-1.7203797E0,-2.7289158E-1,-3.8631885E0,5.1838074E0,-9.621894E-1,3.8821802E-1,6.166679E-1,2.2644272E0,-1.4133906E-3,-7.320181E-2,-1.2198015E-3,-9.301085E-2,-2.0513739E-1,-8.7864004E-2,5.8258355E-1,-1.006661E-1,-5.233346E-2,-9.3076E-3,-2.1866275E-2,2.337457E-2,2.0537347E-2,-1.7514484E-1,5.4774478E-2,1.246793E-1],"categories":[],"categories_nodes":[],"categories_segments":[],"categories_sizes":[],"default_left":[0,0,0,0,0,0,0,0,0,0,0,0,0,0,0,0,0,0,0,0,0,0,0,0,0,0,0,0,0,0,0],"id":43,"left_children":[1,3,5,7,9,11,13,15,17,19,21,23,25,27,29,-1,-1,-1,-1,-1,-1,-1,-1,-1,-1,-1,-1,-1,-1,-1,-1],"loss_changes":[5.2710106E5,1.5588247E5,3.4331625E5,1.7785708E5,5.0834094E4,2.1096269E5,2.2757603E5,1.6675747E5,1.4402942E5,5.8348438E4,7.806055E4,9.890733E4,1.251977E5,1.2818318E5,9.745875E4,0E0,0E0,0E0,0E0,0E0,0E0,0E0,0E0,0E0,0E0,0E0,0E0,0E0,0E0,0E0,0E0],"parents":[2147483647,0,0,1,1,2,2,3,3,4,4,5,5,6,6,7,7,8,8,9,9,10,10,11,11,12,12,13,13,14,14],"right_children":[2,4,6,8,10,12,14,16,18,20,22,24,26,28,30,-1,-1,-1,-1,-1,-1,-1,-1,-1,-1,-1,-1,-1,-1,-1,-1],"split_conditions":[4.2804317E0,8.6E1,5.7125306E0,5.2E1,8.426636E0,4.9564834E0,6.3E1,1.6E1,3.9592497E0,4.210249E0,1.4E1,1E0,2.9557624E0,2.5E1,2.2E1,-1.4133906E-3,-7.320181E-2,-1.2198015E-3,-9.301085E-2,-2.0513739E-1,-8.7864004E-2,5.8258355E-1,-1.006661E-1,-5.233346E-2,-9.3076E-3,-2.1866275E-2,2.337457E-2,2.0537347E-2,-1.7514484E-1,5.4774478E-2,1.246793E-1],"split_indices":[2,9,1,9,0,0,9,9,2,1,7,25,1,12,11,0,0,0,0,0,0,0,0,0,0,0,0,0,0,0,0],"split_type":[0,0,0,0,0,0,0,0,0,0,0,0,0,0,0,0,0,0,0,0,0,0,0,0,0,0,0,0,0,0,0],"sum_hessian":[1.2700059E6,3.794783E5,8.905276E5,3.578267E5,2.16516E4,4.806232E5,4.099044E5,1.384772E5,2.193495E5,2.10142E4,6.374E2,1.939466E5,2.866766E5,2.924037E5,1.175007E5,4.16485E4,9.68287E4,2.02704E5,1.66455E4,5.0182E3,1.5996E4,2.376E2,3.998E2,8.81585E4,1.057881E5,7.43154E4,2.123612E5,2.893622E5,3.0415E3,9.53885E4,2.21122E4],"tree_param":{"num_deleted":"0","num_feature":"29","num_nodes":"31","size_leaf_vector":"1"}},{"base_weights":[-3.586811E-2,-5.873552E-1,6.0663235E-1,-1.204141E0,-3.1672105E-2,6.792272E-1,-3.952533E0,-4.5243397E-1,-1.9896243E0,-1.0834435E-1,2.912862E0,1.7896585E0,4.1799608E-1,2.0337648E0,-4.50882E0,2.0322995E-1,-1.6592152E-2,-9.2698224E-2,-4.374715E-2,-5.075576E-2,2.7432335E-3,1.3556752E-1,-5.211889E-2,1.9927735E-2,7.8121565E-2,-4.703593E-2,1.9062268E-2,-8.7443453E-1,1.2152093E-1,-1.4947692E-1,6.489829E-2],"categories":[],"categories_nodes":[],"categories_segments":[],"categories_sizes":[],"default_left":[0,0,0,0,0,0,0,0,0,0,0,0,0,0,0,0,0,0,0,0,0,0,0,0,0,0,0,0,0,0,0],"id":44,